542 200
UNK 0.001328244 0.0006441682 -0.00015700648 0.0017094 -0.0024527248 0.0012141053 -0.0020497611 0.0019349044 0.00032178697 0.0013286014 0.0023109682 -6.4652486e-05 0.001723474 0.0013294659 -0.0011145509 -9.020478e-05 0.0016658131 0.0004959015 0.0017801283 0.00038946333 0.0026209936 0.00043566857 0.0017659657 0.002370993 -0.0019301086 0.0020335624 -0.00073237903 0.0018656666 0.00037230135 -0.00030263315 0.00029538388 0.0009594789 -0.0014898478 -0.0022966552 0.0014879599 -0.002309994 -0.0009941232 0.0003689503 -0.0017075664 -0.0006560121 -0.0017567999 -0.0006692813 0.0013220484 -0.0009064064 0.0008985085 -0.001267376 0.00052632234 0.0026349723 -0.0014412861 -0.002495162 -0.001272221 0.00021769453 0.0003711501 0.0007637662 -7.543199e-05 0.0010544506 -0.00011342412 -0.00067200215 0.001581423 -0.0015951496 0.0014803632 -0.0018477067 0.0020708642 -0.0007439898 0.002040835 -0.0012455102 -0.00025285242 -0.001782278 0.00071601826 0.00021705152 0.0024125197 -0.0019760714 0.0024818075 -0.0016408026 -3.9149123e-05 -0.0017836201 0.00012480294 -0.0020674863 0.0007772994 0.0006391715 -0.0010682293 -0.0017007728 -0.0019095553 0.00039504215 -0.0014414975 -0.0009596413 0.0006944252 0.0009465033 -0.0023983424 0.001951413 -0.0005009481 -0.0015243846 0.0023962965 0.00059372006 0.0023754041 0.00031628116 -0.0013287537 0.0009473044 0.00056187087 -0.00227931 0.0025583927 -0.0023743561 -7.568702e-05 8.003383e-05 0.00023497827 0.0014242812 0.0014587567 0.0017245704 0.00064685225 -0.0015799684 0.0005269107 -0.0008705438 0.0010128099 -0.0013572145 -0.002610206 0.0016707055 0.0022644573 0.0014634734 -0.0020315691 0.001676228 0.00045067296 -0.0006711646 -0.00021210522 0.0012668136 -0.0019942638 -6.4730586e-05 0.0011567352 -0.00049034593 -0.0015877162 0.0012465223 0.0019854435 0.0007470137 0.0018476783 -0.00081081403 -0.0016320323 0.0005150082 0.000528367 0.0014623574 -0.001684979 -0.000433428 8.146451e-05 -5.7690046e-05 0.0019079373 0.0010459644 0.0023870897 0.001585773 0.002237673 -0.0012525945 -0.0017688762 -0.00096999767 -0.00080560916 -0.0022373642 0.001940318 0.0014039717 0.0005316647 -0.0003402709 -0.0022011488 0.00046937025 0.0022402664 0.0012229315 -0.0021950356 0.0012984385 0.00013398807 -0.0002689894 -0.0020193637 -0.00061306066 0.001726013 -0.0019938087 -0.0012037097 -0.0022676582 -0.00021902943 0.000121578225 0.0014641219 -0.0014192202 -0.00085735763 -0.0022975886 0.0006228625 -0.00192032 8.502008e-05 -0.0011990472 -0.0023264769 0.0004921162 -0.0009005257 0.0004918962 0.00057590177 0.00075277593 -0.0020017256 -0.0012952837 0.0019334013 -0.0025115905 -0.001312542 0.0019223116 0.0016925026 1.15717885e-05 -0.0008326063 0.0017110149 -0.000108975524 -0.0009200152 0.0019223884 0.0014365086
mahakama -0.0021356496 0.0005007767 0.0023148106 -0.00018299825 -0.0014632007 0.0017466906 -0.00039023158 0.0018581768 0.0019293396 0.0015808581 -0.0021572995 -0.0008396936 -0.00053858943 -0.00014600114 -0.00030162098 0.0020676032 -0.0005953384 -0.00049657404 -0.0019523908 -0.0024278658 0.0015716271 -0.0008297367 -0.0013238958 -0.0016221151 0.0010083738 0.00045406268 -0.00017685913 -0.0012548295 0.0012963084 -0.000329892 0.0003229555 -0.002059223 -0.0018580304 -0.0008769089 -0.00010912263 -0.0016182513 -0.002098029 -0.002217166 -8.20973e-05 0.00021627532 -0.0014420829 -0.0002664975 -0.0017556801 -0.0019812176 -0.0005444152 0.0014577777 0.00054976234 0.0020452815 -0.00018352113 0.0021565873 0.0021182564 -9.243453e-05 -0.0019652206 0.00064249523 -0.0012135743 -0.0022076617 -0.0015886136 0.002046623 -0.002021198 0.0008825162 -0.0011060409 0.000116754476 -0.001888736 0.0016371404 -0.0019437879 0.0020061256 -0.0009285077 -0.0011060099 0.002517839 -0.0020727024 0.00062154647 0.0004044309 0.0005318908 -0.0005503496 0.0019098985 0.001762083 -0.002035549 -0.0005015385 0.0010346613 -0.0010495143 1.6644495e-05 0.00073154166 -0.00082384644 -0.0020578753 -0.002172065 -0.0007721436 0.0010423104 0.0005636428 0.0009128007 0.0005804488 0.0014946812 -0.0012032676 0.00056377036 0.00068394677 0.00086579414 -0.0021595722 0.00044242784 0.0011969397 7.959231e-05 0.0021644977 -0.0013439126 -0.002416468 -0.0012171818 -0.0022855536 -0.0021425516 -0.00081976096 0.0022725735 -5.5546745e-05 -0.00045509858 -0.002079529 -0.00075571146 -0.0016185736 -0.0022222053 -0.001727136 -9.976539e-05 0.0023491988 0.0013118684 0.00047501898 -0.0007607152 0.0021454096 -0.00016698286 0.00042008926 0.00085158116 -0.0003430752 0.0014790279 -0.0008381209 -0.0008051563 -0.0006565121 -0.00086340186 7.5029115e-05 -0.0024391864 -0.0005004139 -0.00017974789 -0.0011361674 -0.001281595 0.0016572874 0.0016967698 0.0020157627 -0.0009411607 0.0019242656 0.0024814198 -0.0006632161 -0.0010596104 -0.0003020916 -0.0021156732 -0.0019677347 -0.00042386775 -0.0020589184 0.0007116119 0.0016913653 0.0016336472 0.0013431038 -0.0008123949 0.0017375026 -0.00054689246 -0.0018318092 -0.0017645905 0.0009798248 -0.002523971 0.0011508462 -0.0022124222 -0.00094012375 0.0014007405 0.0015444261 0.00050394214 -0.0021178762 0.00025599496 -0.00040750217 -0.0014193265 -0.0014042569 -0.0011501325 -0.0023225844 -0.0009515632 -0.0023613146 0.0022056426 0.00084181404 -0.00046919868 0.0019879006 -0.00084214227 -0.00022325502 -0.00040984867 0.00033783112 -8.334102e-05 -0.0016572303 0.0008616935 0.001571236 0.0022545578 0.0017814867 -0.0016718258 7.289532e-05 -0.00097534305 -0.00044759025 0.001419985 -0.0017384597 -0.0009182154 0.000516914 -0.0015217178 0.001763771 -0.00074825773 0.0017590524
alisema -0.002431965 0.0021261582 0.00040640353 0.00045087948 0.0005094738 -0.00025888727 0.0002471146 -0.0022133037 0.0012313896 -0.0018669211 0.00068979716 0.0020906767 0.0002503898 0.00202808 -0.0014634226 -0.0019097102 0.0014695054 0.0009726183 -0.0021524075 0.0017562837 -0.0021295606 -0.0019893171 0.0008338725 -0.002480984 -0.00027330188 -0.0021072656 -0.0018739391 0.001124361 -0.0009296513 0.0019069314 -0.002148206 0.0011617313 0.001844993 0.0015304073 -0.001959234 0.0014891104 -0.0018730309 0.0012413828 0.0017295682 0.0023189671 -0.00074453664 -0.0010646748 -0.0018166791 -0.0022955108 -5.0711602e-05 0.0001078396 0.0012522775 -0.0017239986 0.0007332639 -0.0023486735 0.00028635885 0.001622399 0.0003968074 -0.0007255889 0.00066756044 -0.0020394004 -0.0021164536 -1.6986127e-05 0.00082148646 0.001846996 0.0011042808 -0.001297975 -0.0014345716 0.0023479376 0.0015002243 -0.0013276393 0.0019942408 0.0010460246 0.0020606308 0.0019620191 -0.0024830103 0.0021953636 0.002331227 -0.0019372217 0.00026525967 0.0009730275 -0.0009788526 -0.0016348438 0.000999606 0.002312369 0.0006414603 0.0007059935 0.0024542224 0.0016606307 0.0017054023 -0.0016047476 0.0009805649 -0.0014786358 -0.00035792773 0.00036294723 0.0015454316 0.0009395386 -0.0007855334 0.00025026215 -0.0019620664 0.0011485006 -0.00020544356 0.002287045 -0.0019436213 0.0020032786 -0.0013296301 0.00029411356 -1.0855781e-05 0.001478442 0.0013948542 -0.0016660355 0.0006799773 0.0014161107 -0.0020219728 -0.002075848 -0.00063969614 0.0020307556 -0.00094955 0.00018721867 0.00084941345 0.00025778054 -0.0020304099 0.0017286397 0.0024785148 0.00093018357 -0.0005169104 0.0016874208 -0.0003385036 0.00023521294 0.0007408248 0.00058164843 -0.001837504 -0.0009039071 0.0006512357 -0.00062774844 -0.001012243 0.001025851 -0.0016756562 -0.0022513643 -0.0017480023 -0.0017765461 -0.0007285237 0.0020479094 -0.0023886696 -0.00087364926 0.00021554274 -0.00088803447 -0.0017989173 -8.9557136e-05 0.002103598 -0.00091034843 -0.0002952887 -0.0023992239 0.0017238643 -0.001865142 -0.00051776017 -0.001161751 -0.0017897731 0.0019038961 -0.00020737259 -0.0017914475 0.00027610725 0.0014115762 0.0023495457 -0.001444539 0.0017965296 -0.0007230822 0.0019852554 0.0019155499 0.0020288802 -0.001790144 0.001182778 -0.0007969541 0.0025210476 -0.002058039 -0.002102565 0.00088815915 0.00063740974 0.00069822266 -0.000486084 0.0014284066 -0.0015966092 0.0006904569 0.0009967582 -0.0009907631 -0.0021021022 -0.0024761609 0.0008377464 0.00017249754 0.00037154695 0.000113286354 -0.0011602645 0.0023645477 0.0007773641 -0.002071392 -0.0017969554 -0.0014054766 0.00037075288 0.00017678474 -0.00024372092 0.0007200054 -0.00046995695 0.00051630795 -0.0009920609 0.0009236768
mvua -0.0012049214 -0.0019256093 -0.0020880566 0.00077619305 -0.0015452796 0.0010713765 -0.0012106354 0.0007164027 0.00065565505 -0.001351033 -0.00042762407 -0.00071588636 0.0016266459 -0.002099677 -0.0006561357 0.0017827989 0.00030364183 0.0006202385 0.0016771676 0.0006978639 0.00063507713 -0.0021685301 -0.00063193514 0.0009821287 -0.001275128 -0.00046202957 0.000691722 0.0003904578 -0.00056682323 -0.00019185919 -0.0018970564 -0.0013641367 0.00055238063 -0.0010138283 -0.0014147783 -0.0021481097 -0.00046310632 0.0019801855 0.0014184247 -0.0005113488 -0.0015160171 -9.556767e-05 -0.0014228943 -0.0014445005 0.0019408964 0.00072179764 -0.0011284002 0.0018507072 -0.0024378411 -0.0018197091 -0.00016559372 0.0014493044 0.0016126812 -0.0013701426 0.0012498595 -0.00039831613 0.0014012326 5.8601046e-05 -0.00017529419 -0.000880825 0.002397772 -0.000673351 -0.0011616998 -0.0009559634 -0.001994585 0.0024132086 0.0023065803 -0.00097435777 0.0015944481 0.0005629601 -0.0014888446 0.000517632 0.0015213112 -0.0012696143 0.00228265 -0.00017599115 0.0009797638 0.00035292446 -0.00024375849 0.0014313428 0.0012041058 7.869402e-05 -0.0023177245 -0.0005406336 0.00024406488 0.0006506183 0.001558398 -0.0011766751 -0.00035318246 -0.0014477123 0.0011588018 -0.0016399875 -0.00012464807 0.00067498133 -0.00016537924 0.0006198698 0.0015210578 0.001552565 0.00014018701 0.0019469161 -0.0016764267 0.0024802904 0.0020387915 0.0013791203 -0.00013515523 0.00071758596 -0.00044661845 0.0003251387 -0.0005790162 -0.0006324833 -0.0003873462 0.0016103173 -0.0022372557 0.0017850244 -5.058759e-07 0.0011309375 -0.0010704944 0.001513718 0.0021027375 -0.0001952012 -0.00012474359 0.0017475769 0.0022077877 -0.00082227075 -0.0010450258 0.0016476691 -0.0004929078 0.0022519326 -0.000476039 -0.00030855348 0.00088907575 -0.0013138381 -0.0005985629 0.0009115148 -0.0016411609 -0.002258491 0.00053434924 0.001755927 -0.0014492583 -0.00082771725 -0.00022622739 0.002260508 0.0009568507 -0.001151713 -0.00019101298 -4.339631e-05 -0.0011286966 -0.0021111895 0.0009871537 0.0021735104 7.463703e-05 -0.0022322517 -0.0014233587 0.00073408394 0.0019789885 0.00173395 -0.0006760034 0.0007333753 -3.9531355e-05 -0.0021862332 0.0021690603 0.001965149 -0.0003304599 -0.00019817652 -0.0024082891 0.0015974493 -0.001042319 -0.00057363726 -0.0013522169 0.001342084 0.0007589043 -0.002366291 -0.0011005828 -0.00073806033 0.0005808654 0.0017680909 0.00037853722 -0.0023864836 -0.0005632248 0.0013285727 0.0016428774 -0.0017500018 -0.001915056 0.0021635965 0.00062731607 -0.0005049343 0.002216178 0.002513372 0.00019762281 7.700522e-05 0.00017726234 0.000114521106 -0.001433873 0.0022714057 -0.00064611743 0.0010595463 0.0021816362 -0.0009868229 0.0012169905 0.00042626855
mwaka 8.2211605e-05 -0.002442343 0.0021750894 -0.0019858736 -0.00048742702 0.00011482543 0.0024314115 -0.0005719098 -0.00046444347 0.0009075574 -0.0003790111 4.4244127e-05 0.0013545951 0.0019802542 -0.0013625318 -0.0024389306 0.00026281868 0.00022155378 0.0005106673 0.0011881992 -0.0018641315 -0.00064248225 -0.0011618673 -0.0013223473 0.00093867205 -0.0021657392 -0.0024833763 0.0019571146 8.5580206e-05 0.001953478 0.0015121492 0.0001890499 -0.0023863367 0.0024582113 -0.0009880557 -0.00052748574 -0.0021867298 -0.00057722727 0.00097021053 0.0022277436 -0.0014014627 0.0019039976 -0.0017352544 -0.0004007194 0.0021604095 -1.8609195e-05 -0.0019480096 -0.0014275259 -0.00013110881 0.0024480936 -0.0020095333 -0.0010698646 -0.00045548344 0.00023418097 0.0014540326 -0.00018217748 0.001244822 -0.00214911 -0.0002668167 -0.00083803816 0.00082837994 0.0024517768 -0.00083874894 -0.0022279406 -0.0004048194 0.0016526782 -0.00233851 0.0014893155 -0.0013579038 0.00027642262 -0.0005821708 -0.00155352 0.0021937613 -0.002284654 0.000753579 0.00096065656 -0.0018454598 0.0023216417 0.0023593763 0.00083677564 -0.0015282509 0.0018441771 0.0021358437 0.0005855526 -0.0020094179 -0.0012380088 0.0011721583 -0.0017965124 -0.00022888966 -0.0018955206 -0.0005264942 -0.000103519305 -0.0017199431 -0.0007770248 0.0008118804 -0.0020432891 0.00072005263 0.00224438 -0.00025375295 -0.0003740882 0.0021450717 0.0021854178 -0.0013585443 0.0020332676 -0.0006457072 -0.0009919924 -0.0011682145 0.002037562 0.0013773582 -0.0006755857 0.0017166839 -0.0023487255 -0.0017054374 0.00090056966 -0.0017809356 0.0011885318 0.0010593673 0.0010310032 -0.0020998397 -0.0023533525 0.0002329984 0.000534288 -7.913393e-05 0.00082168967 0.0021104536 -0.0003760705 0.0018743098 0.00080497446 0.000116881216 0.0013483866 -0.0013430049 0.0023983736 -0.0005747934 -0.0009578899 -0.0015020785 -0.00026006676 -0.0015185742 0.0016932382 0.0024035678 0.0012190713 -0.0014068552 0.00045756478 0.002119927 8.072121e-05 0.0014105422 0.000984937 0.0024719855 0.0005294783 0.0019952406 0.0018648144 0.0021580667 -0.0021482266 -0.0012315024 0.0021770413 0.0014301096 0.0005390373 0.0020866643 -3.7145197e-05 -0.0015137049 -0.00088674884 0.002445124 0.0013660456 0.0005325515 0.00094616547 -0.0005927398 -0.0005474278 0.0019071955 -0.0002431361 -0.00037002016 -0.0011182992 -0.0007719487 -0.0007845026 -0.0008069275 0.0004098683 0.00051822455 0.0018263183 0.00072170876 0.0016616569 -6.434504e-05 -0.0013126851 -0.0018053432 -0.0023118255 0.0025131742 -0.00029224955 0.0013522012 0.0014113337 0.002387596 0.0009457896 -0.0019679994 -0.0008827351 -0.001042365 -0.0017123842 0.0012683118 0.0007954637 -0.0018290713 0.0009497443 0.0004710381 -0.00054111896 0.0009184543 0.0010294436
rais 0.00022776506 -0.00071023224 -0.00027357577 0.0019923593 -0.0009896155 -0.0020192927 0.0019832544 -0.0007802713 -0.0017794889 -0.0023137582 0.0024688742 -0.0024598783 0.00043724748 0.00019753973 0.0010224006 -0.0022513254 0.0019251057 -0.0011925807 -0.0020260604 -0.0008915152 0.002127649 -0.00091612147 0.0010354387 0.0002268062 0.0011414539 0.0007829393 0.0015399491 -0.0005709201 -0.0006894994 0.00232541 -0.0008467819 -0.0010976453 -0.0003942903 0.0024378742 0.0018838772 1.4508271e-07 -0.0019475073 0.002266125 -9.389287e-06 -8.2505925e-05 0.0007066646 -0.0011429312 0.0013738539 -0.0014941884 -0.0006433266 -0.0006493012 0.00048582265 0.0006906096 0.0018944468 -0.00028044806 0.00083546684 0.0003521205 0.0019126474 -0.00038814876 -0.00055744866 0.0018722562 -0.00046907674 0.0019960834 0.0004713434 -0.0014752003 0.0019135391 0.00085970765 -0.0008235771 -0.0023505995 -0.00077871495 -0.0009216392 -0.00073736685 0.0010684405 -0.0011332348 0.0023588932 0.0013835334 0.0011228623 0.0022421875 -0.0017242732 -0.00049340626 0.0020544976 -0.000908837 0.0009979515 -0.0008363083 0.0018111689 0.0010565538 -0.0024321133 -0.0021418866 0.00015833891 -0.002088486 0.0007108379 0.00091514166 -0.0009473259 0.00051291636 -0.0024599107 0.0021520404 0.0011525664 0.00034915996 0.00044209594 0.0010219031 0.0013971156 0.0012358412 -0.0012451516 -0.0013042273 -0.00083411817 -0.00029239678 -0.0004230596 0.0004158125 0.0006617337 0.0011209984 0.0012312289 -0.0021385546 -0.0016210314 0.000906637 0.0023467569 -0.00014228407 0.00087590836 -0.00016937104 0.0006587069 0.0020371124 -0.0010296036 -0.0024848667 -3.0630683e-05 0.00065420463 0.0012105242 0.0005289902 0.0012034694 -0.0006132982 0.0016547925 0.0009935179 0.0012788685 0.0016012585 0.00016227784 -0.0011191798 -0.0019881139 -0.0016641789 -0.00070150004 0.0011369569 0.0013087217 0.00089382345 4.4831315e-05 0.0025261613 -0.0019076372 0.0023679866 0.00059519603 -0.0017588611 0.0016950958 0.00077513186 -0.0022046792 0.00039450658 0.00065833 -0.0022631064 0.0010790022 -0.002023325 -0.00026249245 0.0018308463 0.0009879345 8.868131e-05 -0.0020456822 0.0015346154 -0.00062543777 0.0007730858 -0.0019805192 -0.002389377 -0.0012699333 -0.0002630297 -0.0022201415 -0.00031984053 0.0003572468 -0.0010516187 -0.00022892858 -0.0010756177 0.0005437036 0.00053125893 0.0016663353 0.0004735985 9.47535e-05 0.000468815 0.0023436267 0.0016076422 -0.0003081138 -0.001510494 -0.00012083965 -0.0008435912 0.0012832432 -0.0005744476 -0.001749795 0.0016332669 0.0018832216 0.002202494 -0.0018233021 -0.0023575781 -0.0022744238 0.0009184025 -0.00011231072 0.002081852 0.0014211189 -0.0015984271 0.0017112524 -0.002507847 -0.00029291766 -0.0012454116 0.0011233388 -0.0018461312 0.00018502503
haki -5.7476664e-05 -0.0013468696 -0.0023680064 0.0023773673 0.0009130762 -0.0023071212 -0.0009849293 0.0006657268 0.0018391601 -0.001656016 -0.0019306932 -0.0012261904 0.0008297127 0.0013675967 -0.0003283986 0.0008795951 0.0011961078 0.0021751781 0.00016137678 0.00091000344 -0.0010348477 -0.0016708743 0.00034276582 -0.0019565548 -0.0024027552 0.0006970123 -0.0013693738 -0.0012668597 -0.0015762603 -0.001747346 -0.0021381194 0.0005015195 -0.0015992721 -0.0016569169 0.0009146338 -0.000105975974 -0.00046835514 -0.0009132685 0.00015928422 -0.0005657146 -0.00035084886 0.0015806009 0.00036698388 -0.0024760005 -0.0023895374 -0.0014073655 0.0016826319 0.0010659741 0.00053680735 -0.000339055 -0.00054561335 0.00229375 0.00018167401 -0.00019951096 -0.0010588594 -0.0007895138 0.0022057197 -0.0008827461 0.00043572797 0.0015692116 -0.0019589788 0.001880596 0.0009514145 -0.001315652 -6.5661385e-05 -0.0003679143 -0.0014509025 -0.00047437445 0.0021062419 -0.001737477 0.002016575 -0.0017498058 -0.000842855 -0.00040510544 0.0019106403 -0.00032875015 0.001971278 0.0012966578 0.00082024076 -0.0019119349 0.00025813523 -0.00032682752 0.0019652564 0.0007308229 -0.00060664763 -0.0021390475 -0.0006294463 0.0015662644 0.0013435944 0.00029334257 -0.00017795076 -0.0024942353 0.0019363139 0.00088445976 -0.00053008756 -0.00073967996 0.0019094737 0.0013822315 -0.0022336326 0.0017857902 -0.0022295148 -0.0018676119 0.00013454803 -0.0008973571 -0.0012458765 0.0017191103 -0.0024657457 -0.0017756539 -0.0018266432 0.00080048025 -0.002159359 0.00095853274 0.0020660372 -0.0012339086 -0.0023829795 0.00047865347 0.00010750527 0.0012298143 -0.0020760822 0.00078827806 0.00065169425 -0.0023653882 -0.0019441223 -0.0014501779 -0.0014936856 -0.0013279561 0.0004711618 0.00066108274 -0.0020729618 -0.0020176542 -0.0015389948 -3.6919144e-05 0.001285426 5.9240403e-05 -0.00042610124 -8.0815546e-05 0.0023815013 -0.0010579616 0.00095219054 0.0012394136 0.0022485289 0.0024225316 0.001657955 -0.00034999612 -0.002101169 5.8191927e-05 -0.001251582 0.0005169763 0.001096866 -0.00090998935 0.0018490163 -0.0013949597 0.0018828759 0.0025353278 -0.0016358172 0.0018886512 -0.00021926544 -0.001312454 5.6997083e-05 0.0010353437 0.0016067426 -0.0021407658 -0.0006021982 0.00057672255 -0.0010999425 0.0021660568 -0.0015859056 -0.0018244137 0.0016498955 -0.0009873583 -0.0012371271 -0.0005231835 0.0012606363 0.0017901033 0.0018060439 -0.002220208 -0.0011183714 0.002177703 0.00036402777 -0.00054510665 0.0017882722 0.00067375577 0.0023760647 0.0021885582 0.0018709135 -0.0022554146 0.0014435624 0.00022708226 -0.0009862002 0.00093437487 0.0010740248 -0.0012236146 -0.00029896936 -0.0024122782 -0.0024586865 -0.002356296 0.0018234607 -0.0010754727 0.0010476852 0.0019531967
taarifa -0.0020533316 -0.00089606835 -0.0018287712 -0.002468039 -0.0022411162 0.0018908753 -0.0012154689 0.0021124023 -0.0006883406 -0.00079211616 0.0025093737 -0.0021345404 -0.001629631 -0.0019552018 -0.00203281 0.0013431747 -0.0006299195 4.9115853e-05 -0.00025330362 0.0014174641 0.0018933266 -0.0012620741 -0.0008313778 -0.0020890208 -0.0022882721 0.0021548169 3.662812e-05 -0.00221314 -0.001326085 0.0014241405 -0.001037385 -0.0018301227 -0.0023225143 -0.0012274848 0.00056372833 0.00037136345 -0.0009756419 -0.00071897125 -0.0018302185 0.0013854398 5.2821026e-05 -0.001228997 -0.0010977711 0.0017460684 -0.0013527272 -0.0023671438 -0.0010952655 0.0007782379 -0.0019658084 0.00093204825 -0.0023000198 -0.00058840116 0.00072487 -0.0015115828 0.0018838487 -0.0005747021 0.0006908149 -0.0018083676 0.0024953252 -0.0017399801 -0.0024471995 0.00048069825 0.00023324297 0.0014358056 -0.0007912509 -5.1338116e-05 0.001212215 -0.0015579653 -0.0006311885 -0.0016625957 -0.00214029 -0.0019192667 0.0011708951 0.00084764365 0.0009835789 0.0013546188 -0.0024324832 0.0013491111 -0.0008289718 -0.0023015614 0.0014191077 -0.0015019494 0.0011100345 -0.0019340995 0.0020113753 -0.0007460002 -0.001991356 0.0017758372 0.0007770553 -0.0014919079 0.00225968 -3.8549508e-05 -0.002192979 -0.00014768711 0.001322511 0.001856603 0.0024553244 0.00014179472 -0.000102715094 0.0010914775 0.0011080491 0.002306596 0.0021224935 0.0019505264 0.0015996512 0.0014570003 0.00040003366 0.0023891197 0.0018443571 -0.0013959041 -0.0017772486 -0.0018730127 -0.0010957195 0.00074249465 -0.0013871696 -0.0016469627 -0.0007941342 0.002110032 0.001258703 0.0019723135 -0.0007237954 0.0021459276 0.0011345777 0.0015302054 0.00073240156 1.2586325e-05 -0.0021856928 -0.0018832387 -0.00013415399 0.0010689375 -0.00030374376 0.0023577667 -0.00055048807 0.00081501825 0.0015842282 0.0013908372 7.90233e-05 0.0018767886 -0.00033456297 -0.0018089717 0.0019237432 -0.0013473735 -0.0016586886 0.00032788052 4.9824026e-05 -0.0024476997 0.001209922 -0.0015633272 -0.0014383511 -0.00017254897 0.0020139553 0.0009681512 -0.0017406421 0.00015903045 -0.0021050074 0.0018455698 0.0011711714 0.0022836195 0.0023104427 0.0021957601 -0.0016871423 -0.0025032568 0.0011767308 8.883522e-05 0.0012295818 -0.0011213603 -0.0024302849 -0.0014167569 0.0018193404 0.0007179078 -0.0022035243 0.0012891864 -0.0018869659 -0.0010360461 0.0015244177 0.00062813424 -0.0010696598 0.00033461305 -0.00050430954 -0.00019903925 0.0005465218 0.0020273123 -0.00070416613 -0.0011626872 -0.00061025785 0.0018063603 0.0006496648 -0.0013311289 0.00011213776 -0.001297258 -0.0011268727 0.0007272612 -0.0006658955 0.0003657942 -0.0013791791 0.0017572637 -0.0004416804 0.00018749201 -0.0014120195 -0.0024075368
ambayo -0.0022115414 0.002465077 0.0014900889 -0.0014129787 0.0012416217 1.1685135e-05 0.0015754205 0.0012313577 -0.0019003869 3.477463e-05 -0.0015198325 0.0014870149 -0.0011384657 0.0003039308 0.0006085839 -0.0019369434 0.0017960157 0.0017180581 -0.001953877 0.0013985219 0.0021836457 0.00056680484 0.0019997617 0.0012328121 -0.00075152254 -2.3107637e-05 -0.0012967042 -0.0021578418 -0.0016230348 -0.0017634426 7.9017984e-05 0.0010210649 -0.002091546 0.0018050063 -0.00019918208 -0.0018527696 -0.0005207503 -0.00010073427 0.0021748687 -0.0013411713 -0.0011405948 -0.001218372 0.00020956942 -0.0018036478 5.4970627e-05 -0.0024827805 -0.0022839126 -0.00012921754 0.0011436131 -0.0010539817 -0.0022182 -0.001151373 0.0017026229 0.0017077746 -0.0018200206 -0.0015019495 -0.00032942736 0.0015245785 -0.00037119517 -0.001661474 3.2246735e-05 -0.001328167 0.0011993634 0.00035616255 0.0006807745 -0.0019182656 7.228087e-05 -0.002339685 -0.0023164197 -0.0012058272 -0.0015235576 0.00047704525 0.00011026419 -0.00062726694 -0.0018357452 -6.2002607e-07 0.0021421595 -0.0013162371 -0.0017346626 0.0017688391 0.0006360342 -0.00014189605 -0.00063315296 0.00079185935 0.001653571 -0.00109288 -0.00042204105 0.0020750351 0.0018935036 -0.0018512269 0.0017389915 0.0013326657 0.0019546319 0.0022377744 -0.000769317 -0.0019795066 -0.0015211087 -0.0012692853 -0.0019422211 -0.001647991 0.0020558068 -0.000112787624 0.00040424376 0.0008429651 -0.0014402673 0.0007517498 -0.0019348647 0.00058714754 -0.00058084057 -0.0012415826 7.5586926e-05 -0.0023861611 -0.0018231336 -0.00014007167 -0.0012208922 0.0021820567 0.000636313 7.506038e-05 0.002300634 -0.0010220826 -0.0020068674 0.00051788526 -0.0013476851 0.001526165 -5.4149205e-05 0.0019351481 -0.0018804612 0.0022042897 0.00065482187 -0.0021664377 0.0009494249 0.00052861765 -0.0012469055 -0.00022391682 0.0019454395 0.0024794675 0.00082275865 0.0004912432 -0.0015574698 0.00084485626 0.0016211638 0.000518436 -0.0021716924 -0.0015707151 -0.000823774 -0.0016594065 -0.00063038524 -0.0012573374 0.00084588205 0.002022925 0.0016704914 0.0014582879 -0.0019095145 0.0018617061 0.0005419436 0.0010243191 0.0018869208 0.0017052091 -0.00064167747 0.0012267409 -0.0011876622 -0.0021834702 -5.049977e-05 -0.00037883027 -0.00029277828 0.0014370995 0.0012678269 -0.0011510269 0.0014364705 0.0009386583 0.00094324094 0.001525643 -0.0017204225 -0.0022221464 0.0016936719 -0.0010349955 -0.00033107382 0.0009142289 -0.0016911227 -0.001786586 -0.00088300544 5.5497967e-05 -0.001169205 -0.0007304117 -0.0020125422 -0.0012633101 0.0017414317 -0.0008447391 -0.0004296011 0.0002545533 0.001968018 0.0013752514 0.00079181767 -0.0024540839 -0.0012796987 0.0019076722 -0.0014774561 0.0010491539 -0.001934875 -0.0011598895
majaji 0.0021955501 -0.00053485954 0.0016073294 -0.0006135437 0.0017190988 0.0008777286 0.0003312008 0.002030818 0.0011943284 0.0013806946 0.002183037 -0.0016318259 -0.0016603986 -0.001454463 -0.0019791096 -0.0005853427 0.0009433906 0.0011049405 -0.0020280075 -0.0019292694 0.0008260057 0.0019083518 0.0022886635 0.0003939768 -0.0016249666 -0.0024876085 -0.0019499043 0.0020911393 -0.0011227393 -0.0013165335 -0.0019104347 0.0011504169 -0.0005277313 -0.0018470603 -0.00054419175 -0.0010165133 -0.0011684622 0.0020231141 0.0018957966 -0.0015947825 0.00018986112 0.0024244953 0.0012396855 0.0017375329 0.0006136039 0.00033991638 -0.0006633365 0.0012515911 -0.00044035388 0.0015498768 -0.0009146814 -0.0021159963 -0.0020586192 1.530651e-05 0.0023947614 -0.0003695321 -0.0024328607 0.0009054893 0.00024718101 -0.0019754113 0.0008925229 -0.00013499316 0.0016549506 0.00015874582 -0.0017410679 0.0020432193 -0.0005280927 -0.0015629119 0.0024552601 0.00017332137 -0.0014997348 0.0021938626 0.0016363477 0.0015418163 0.0014185045 -9.254548e-05 -0.0015750566 0.00018303124 -0.0016049424 0.00039861607 -0.00013530615 -0.0017465709 -0.00023276721 0.001618455 0.0012851596 -0.0021136485 0.0011525039 -0.00094203267 -0.0024831274 6.3259016e-05 8.6861735e-05 0.0018988717 -0.0010747091 0.0025218215 0.00070928375 0.0012456524 0.0024791954 0.0021882872 -0.0010528824 0.0023533767 -0.00067058794 -0.0020613906 -0.00024298145 -0.0009631161 0.0014373199 0.0016084422 -0.0005239336 0.0015760857 0.0004015303 0.0015937146 -0.0010423482 0.0012010464 -0.0023773836 0.001436949 0.0023549218 0.00084136584 -0.0023993957 -0.0011873443 0.00059793086 0.0005030127 0.0017609136 -0.0007718123 -0.0011506843 0.0020286029 -0.00027329678 -0.0018923817 0.0024661256 -0.0017263466 0.00019466918 -0.0016086366 -0.0010441846 -0.0023671212 -0.00058347423 -0.0019201068 -0.0010493981 -0.0016215793 -0.00023515461 0.0008745774 -0.00018086359 0.0018003101 -0.0012528537 -0.00075309636 0.001553451 0.0020298501 0.0018221177 0.0007309228 -0.0007991551 -0.0011017929 0.0025773342 0.0022044068 0.0020868303 -0.0017405823 -0.0025365022 0.0021187824 -0.0009369904 -2.9071984e-05 -0.00027757912 0.0025070522 0.0004447626 0.0003650133 0.0016823101 -0.0025462306 -5.6527486e-05 -0.0013328395 -0.00093953765 0.00040556572 -0.0020540473 -0.0011760686 -6.656198e-05 0.000104921055 -0.0005541562 0.0015493855 -0.00024899503 -0.0004310378 0.0015995133 -2.6807385e-05 -0.0013583922 -0.0014849468 -0.0024859603 4.8792357e-05 -0.00050053815 -0.0014692469 0.0017542127 0.0024789877 0.0013751944 -5.062202e-05 8.9139736e-05 -0.0011446549 0.0022478865 -0.00028491174 0.00046184298 0.0015041343 0.00087646476 0.0014772621 -0.0021431067 0.0017555661 -0.0022876353 -0.0022660918 -0.0023339393 -0.0019785594
kennedy 1.8783487e-05 -0.0022588875 -0.0013384605 0.0021107155 0.0021474261 -0.0019639565 -0.0010122077 -0.00027712344 0.0003327453 -0.00023615906 0.0019650452 -2.2535021e-05 -0.00096154277 0.0010616356 0.00025495887 -0.0023074306 -0.000894671 -0.0019160362 0.0013091285 -0.0021931818 0.0024808536 -0.0020261821 -0.0016249164 0.0010509128 -0.0024585298 -0.0014687448 -0.00016190296 0.00075834396 -0.00049167074 0.0023505508 -0.00050305633 0.0023191147 0.0016398126 -0.0024548625 -0.00016604882 -0.0021770413 0.0011303093 -0.0022890826 0.0008588178 0.0018717438 0.0020607484 -0.0010165797 -0.0019660164 0.0005444764 -0.0003997191 0.0020615254 0.002154827 0.0013928278 -7.40454e-05 -0.000121744124 5.302447e-05 0.0014760774 0.002367175 0.0016230132 -0.0023798589 -0.0015807983 -0.0022029984 0.0023957952 0.0014631998 -0.0010510276 -0.0007936422 -0.00016450528 -0.00172275 -0.0012604126 0.0018020602 0.0014808837 2.8121774e-05 -0.0017012928 -0.0014827867 -0.0012834652 0.0024306597 -0.00014349046 0.0011949715 0.0011279802 -0.0014200608 0.0013783271 -0.0013061832 0.0023327994 0.0021675772 0.0018943532 -0.00092287257 0.0017318376 0.0021425507 0.0012418356 0.002447608 -1.166566e-05 -0.002323684 0.00095831754 0.0022351635 0.0025083602 0.002256528 -0.00015266985 0.0023857662 0.002031357 -0.0010832812 0.0005164813 -0.0012742963 0.0018221037 0.0020741215 0.0010404763 0.0015595619 -0.00055740273 -0.0011146888 0.0019151354 -0.00029116488 0.0011845734 -0.0011064137 -0.00025491018 -0.00048628388 1.8284481e-05 0.000845629 -0.00097509904 -0.0016420627 -0.00095844426 0.001406661 0.0016174127 -0.0006752112 0.00038742414 -0.0021889985 0.00086063583 0.0014049403 -0.00096332974 -0.00060520467 0.0013589638 -0.00026724572 -0.0010180221 -0.0014227869 0.00022013349 -0.00041859614 -0.0017648567 0.002345147 -6.0433504e-05 8.7283496e-07 0.0007732822 0.0010260646 -0.00033180806 0.0023401557 0.00053727976 -0.0012603069 -0.0014798335 0.00092585554 0.0012828821 0.0013223224 0.0016992629 -0.0006561473 0.0017532653 -0.0013882047 -0.00089405436 -0.001083421 -0.00062044075 -0.0024127038 0.00095167436 -0.002001202 -0.0023155017 -0.0017693021 0.0017580162 -0.0018005933 -0.00164744 -0.0011152942 -0.0008442741 -0.0017650936 0.0004980057 -0.002154198 0.00017799965 0.0005403012 0.0017464851 -0.00061317167 -2.0015068e-05 0.0015015618 0.0014224225 -0.0004993387 -0.0008236495 -0.0009480064 -0.0007311275 0.0013207982 0.0021879664 0.0009188471 -0.0004769001 -0.0010276766 -0.00091201375 0.00043349664 0.0019785403 -0.0015724895 -0.0014517911 -0.00067719194 0.001608622 -0.00086011493 -0.0023607651 -0.0005211616 0.00090045895 0.0006253504 0.0021567785 -0.0023263013 0.0012533792 0.0021593207 0.00045608703 0.0006476656 -6.297507e-05 -0.00030807636 0.0018273063
kuu -0.0018771181 0.0019955917 0.0024826403 -0.00056919997 0.00018526848 -0.0006181277 -0.00072625943 -0.00013219984 0.0010478055 0.0011434256 0.00067761727 0.0019296968 -0.0005625401 -0.0022921655 0.0007218345 0.0020036814 -0.0020935256 0.0016096435 -0.0013524133 -0.0019298465 0.0019546703 0.001753254 0.00028678367 0.0020737231 0.0021369006 -0.0013076473 -0.0018492864 0.0023326948 0.00028633905 0.0005681198 0.0004847958 0.000842323 0.0014307717 0.0012459474 0.00069447985 -0.0021560958 0.0011966751 -0.0017143171 0.0009889177 0.00075908395 -0.0012541341 0.001348338 -0.0014407202 0.0009525634 -0.0010244607 0.002129745 -0.002395869 0.0009026695 -0.0004362374 -0.0014123257 0.0015086735 -0.00030110715 0.0024458056 0.0004720168 0.0018150011 0.00037795774 -0.0023850966 -0.0022364168 -0.00013925906 0.00089681183 -0.0019946732 -0.00041514696 -0.001234567 -0.0019522371 -0.00028512574 -0.0022630026 0.000418529 -0.0018787066 -0.00072341075 0.0008395262 -0.00052902696 0.0009197083 -0.0017436971 0.0012638575 -0.0009931144 0.0015877867 -0.0011977146 -0.0016099678 0.00031547435 0.00025262445 -0.0009848092 -0.0005318899 0.0005703286 0.001675684 0.0017687501 -0.00058619777 -0.0021873973 -0.00050762517 -0.00043136897 0.00047936875 -0.0017646606 0.0011047546 0.0017068251 0.002369224 -0.0006637643 -0.00010216199 0.0009813065 -0.0008072921 -0.002295322 -0.0007272456 -0.0014380869 -0.00043458244 0.0008424848 -0.0020818852 0.0008651008 -0.00014819238 0.0013849698 0.000689775 0.0021393485 0.001199502 -0.001216418 -0.0011769447 -9.972551e-05 -0.0022615928 -0.0010618803 -0.0024139015 0.0010166958 0.0021147458 0.00092590955 -0.0005426984 -2.8664508e-05 -0.00077993394 -0.0017350577 0.00014738904 0.000908218 -0.0006114912 -0.0024459066 -0.0013642521 -2.0339463e-05 -0.0007869167 -0.00016219853 -0.0007739306 -0.0023890904 -0.002031101 2.5289068e-05 -0.0024451313 -0.00078616675 0.0020952972 -0.0005048863 -0.0003400154 -0.0006180236 0.0010486137 -0.00047982502 0.00035609183 -0.0021457348 -0.00095403794 0.0009458646 0.00038277244 0.0023516112 0.0021909017 0.0007558559 -0.001657166 0.0015076845 0.0023552615 -0.00031959484 -0.002101764 0.00039745416 0.0018497903 0.00024367514 0.0020141255 3.6900474e-05 -0.0024077285 0.0023244012 0.0012594442 1.7197624e-05 0.0024640337 0.0009060637 -0.00075622945 -0.00025694922 -0.0019549115 -0.0023297563 0.0016765252 -0.0021103944 0.0018516458 -0.0009824471 0.0018521049 0.0011165296 -0.001601956 0.0021934623 0.0024151136 0.0010415949 -0.00032732598 0.0008888597 -0.0006007651 0.0017450487 -0.0012297842 0.002400497 -0.00031727322 -0.0008448556 -0.00058129756 0.0015753726 -0.0015560561 -0.0010877402 -5.6922887e-05 -0.00090097525 0.0015906252 -0.0016997391 0.00061982655 -0.0020066032 0.0015181996
samaki 0.0018006588 -0.0014656188 0.0015995466 0.00043173123 -0.0011763736 3.3782715e-05 0.0022233957 -0.0018213955 -0.00046085837 -0.0010231218 -0.00011910706 0.0009057636 0.00080733927 0.0012447541 0.0010520635 -0.0008718382 0.00063011673 0.0003952969 0.0019345491 -0.0018946513 -0.0005847626 0.0009998527 0.0019185203 0.0016394468 0.0021855773 -4.391748e-05 -0.00072614395 -0.0019987843 0.0023134958 -0.00089303654 -0.0002265811 0.0016944883 -0.0010057573 0.0019730758 0.0025150962 0.00025927988 0.00028694686 0.001154386 0.0011217013 0.000121317404 0.0016048863 0.00030486457 -0.0016288415 -0.00055802905 0.0018842667 -0.0019485019 0.0004428932 0.0022751826 -0.0013059808 0.0011568893 -0.0016673064 -0.0024878362 0.0024467714 0.0018455838 -0.0011951053 0.0006056805 -0.0011466164 0.0015831044 -0.0021442592 -0.00077066885 0.00040215848 -0.0019466137 -0.0008457967 0.0006620657 -0.00016831761 0.0014823008 -0.0006307384 0.0014763218 0.0011972405 0.0017140226 0.00043605536 -0.0016367739 0.0006317309 -0.001162171 -0.0023824496 0.0022173342 -0.0008683852 -0.00055257155 0.0010758883 0.0025064733 -0.0012804519 -0.0022246158 0.00032719233 0.0012016696 0.0011807953 -0.001221691 -0.0012576714 0.0018829266 0.0019229001 0.001188735 0.0017172509 -0.002352614 -0.0006622994 9.4293784e-05 0.00046363514 0.001327138 -0.0013066536 0.001435743 0.0008004113 0.0010095951 0.0017763601 -0.0023415624 0.0024598308 0.0022986108 -0.0005942242 -0.0017068825 -0.0005019039 -0.0004610558 -0.0009548939 0.00015111075 0.0014246537 0.0003049421 -0.00021700298 -0.0020163986 0.0012055734 -0.0009849591 -0.0017444704 0.0022918868 0.000891261 -0.00020480274 0.0013689015 -0.0022095952 -0.002114004 -0.00054906745 -0.0010804781 0.0012964375 0.0009072015 0.0012060993 0.0013233897 -0.0015211379 -0.0012473103 0.0007018553 -0.0021446068 0.0015234943 -0.00052867085 0.0017976562 0.0017327522 -0.0014520433 0.0021230695 0.0018775408 0.00066977425 0.0010124261 0.0018025279 0.0019761224 -0.0019125752 0.0018834623 -0.0015397675 0.00208417 0.002253889 0.0018264027 0.0017495643 -0.00086650136 -0.0009869807 0.0007287437 0.0013197677 -0.00153826 -0.00015770285 0.0019288686 -0.000497527 -0.00028693565 -0.0016690603 -0.0010404096 -0.0011135149 0.0022714464 -0.0012260958 -0.0011171629 -0.00065465376 0.0012787281 0.0021090459 0.00056030106 0.0010691842 0.0020179579 0.00235885 0.0006248303 0.002096661 -0.00093354244 -0.0017053317 -0.00029410975 -0.00022490048 -0.0017604746 -0.00021465568 -0.0010108793 -0.0022694592 0.0010189991 -0.0010863855 0.0017132104 0.0018556409 -0.0006950039 0.00074077386 0.0010747844 0.0010494472 0.00039234184 -0.0011637072 0.0012580599 -0.0015371632 -0.00016114769 -0.00087456603 0.0014059959 -0.0019185635 0.00018323578
shauri 0.00087528635 -0.0020092232 -0.0016303306 0.00048640821 -0.00048537555 0.0006663941 -0.0020968348 -0.0020759993 0.0013848842 0.0010812932 0.0016069154 -0.0023817923 -0.00093010016 0.0019973163 -0.0018778392 0.0014341199 0.00010046525 5.343466e-05 0.001968011 -0.0010153882 0.0007455295 -0.0020674875 -0.0015178734 0.0002714984 -0.000673756 -0.00258078 0.00037135655 0.00068507274 0.0010624508 0.0024677946 -0.0021447737 0.00233747 -0.0024705974 -0.0013208297 -0.0017242613 0.0021139944 -0.0015816883 -0.0022208698 -0.00028305541 0.0023147888 0.0008599794 -0.002013738 0.0019825588 0.0008481687 -0.0011639561 0.00014206769 -0.00035328366 0.0019300613 0.0016086734 0.0021738186 0.0018310999 -0.00015271417 0.0013129507 -0.00025509065 0.0011171639 0.002123666 -0.0003749646 0.0012017172 -0.00071653066 -0.00016452587 0.0016847177 -0.00045216654 -0.00071905233 0.001600507 0.0014122917 0.0012195309 -0.00030279715 -0.00029896127 -0.0005303777 -0.0018698252 0.0010101825 -0.0020132784 -0.0007317687 -0.0011486674 -0.0016098262 -0.0015709494 -0.0018661064 -0.00033282736 0.002220429 -0.002127806 0.00074765115 -0.0001429927 0.0019421325 0.0021697243 -0.00050692365 0.0011385662 0.0024183893 -0.0007953921 0.0019410269 -0.00052402297 -0.00079205073 -0.0013344421 -7.08719e-05 0.0014064951 0.00059922016 -0.00068073027 -0.0024794599 0.0008529624 0.0012457418 -0.0010190454 -8.208173e-05 -0.0007655609 0.0026392634 -2.026876e-05 -0.0021652742 0.0008624319 0.0007235659 -0.0010671244 -0.0013072565 -0.0019792116 0.00033774186 -0.0004023101 -0.0009774928 -0.00094921753 0.00054688787 -0.0009164627 -0.0020825013 -0.00036650317 0.0014622101 -0.0017600562 -0.0014344897 0.0010613999 -0.0021155726 -0.0016524774 -0.0016402862 0.002322143 -0.0009325583 0.00043374824 -0.0007839409 0.00091206474 -0.001569859 -0.0017187352 0.0017695535 0.00056233717 0.0008615498 -0.00038754058 0.0013689199 -0.0003118968 0.0017562553 -0.0004113455 -0.0020128812 -0.001373143 0.0021069294 0.002065943 0.00078676175 -0.0007288155 -0.0015106847 0.0016523821 4.3510998e-05 0.0020073622 -0.0022117824 0.00023929054 0.001741881 0.0014002958 -0.002195104 0.0010736714 -0.0012667094 -0.0014521331 0.0024877232 0.0023299996 -0.001621405 -0.0001746246 0.0004942732 0.002101238 0.0022155875 -0.0023761112 -0.0013500476 0.001831883 0.0002921179 0.0013368562 -0.0013234293 0.00091492094 0.0024031259 -0.002248746 0.0005558458 0.0014640982 0.0013327786 -0.0019436979 0.0018574935 -0.0019754483 0.0024685697 -0.0017442722 -0.0023954771 8.787943e-05 -0.00013420243 -0.00023722647 0.0015011677 0.0008329928 -0.00032101947 0.0009363102 0.00039428408 0.0018071774 0.0012501115 0.001990381 -0.00097645854 -0.0011674183 0.0013399409 0.0017170326 -0.00024846825 -0.00022572685
hilo -0.00023361795 0.00046205666 0.0023970352 -0.0020702097 -0.0017045576 -0.002153868 -0.0006182213 0.0022980573 0.0018166915 -0.0017216773 -2.3039807e-05 0.0017822117 -0.0013891766 0.00076889625 0.0015306843 0.00073167996 -0.0017495474 0.0024217425 0.00047948508 -0.0020441003 0.002094644 0.0008673887 0.00011716355 -0.0024400102 6.506563e-05 -0.0012480912 0.0012304304 0.0014179864 -0.001740658 -0.00088676694 -0.00018150866 -0.0016741174 0.0020107178 -0.00027148364 -0.001477871 -0.00045957204 -0.0005746018 0.0008435285 -0.001556651 0.0016980034 0.0004151454 0.0007248083 0.0012925524 -0.0004124116 -0.0003073208 -0.00204865 0.00038882904 -0.00051695656 0.00053339574 0.0015142654 -0.00057189754 -0.0024775625 0.0014563111 0.0010137518 0.0017740352 0.0016796595 0.0011833537 0.00058217335 0.000915727 0.0009736404 -0.00087259826 0.0007984843 -0.00032199096 -0.0019746593 -0.00045551753 0.0011510374 0.0014854927 -0.002290477 0.001765045 0.000728778 -0.0016370891 -0.0013325969 -0.0023257965 0.0011190582 0.0019870165 0.0006486391 -0.0018789904 -0.0009937175 0.0017754385 0.0013869066 0.0006712628 -0.00018094362 0.0009996668 -0.00042028044 8.31981e-05 -0.0013353173 0.00023971492 -0.0017410222 -0.0014461231 0.0009766384 0.0021831288 0.0013760203 -0.00043781177 0.002310713 -0.0013469751 0.0005071722 -0.0012335079 0.0017517129 0.0020390032 -4.7452886e-05 -7.410238e-05 -0.0005140648 -0.0023706127 -0.001956496 -0.00073833775 -6.092694e-05 -0.00064307894 0.0014177263 -0.0012873053 -0.00070430076 0.0014981045 -0.002318887 0.0015537299 0.0017825767 0.0007746939 -0.0020438128 -0.0003166786 0.0004823898 -0.00032015043 -0.0018551028 0.0004357028 -0.0024685664 0.0012717589 -0.0008777704 -0.0015403504 0.00096649386 -0.0020729199 0.00038590468 -0.0021260749 0.0020082372 0.0006649648 0.0019137394 -0.00063040067 0.0008331662 -0.0016940038 0.0017907256 0.0019180721 0.0015273738 0.0009939389 -0.0017736041 0.0016923692 0.0021275305 -0.0009936099 0.0020941796 -0.0023656571 -0.0016394553 -0.0020311691 0.0014475719 -0.000445495 -0.0005431667 -0.0023794766 -0.0014276241 0.0020379492 0.00090353395 -0.00063762284 -0.002237334 0.0007118333 -0.0009959368 -0.0009671304 0.0016385439 0.00031685995 -0.0013654962 0.0023658043 4.5802142e-05 -0.0017756457 -0.0006220331 0.0019816875 0.00014112762 -0.0018825519 0.00058119715 0.0007992997 0.0023195795 0.00047090108 0.0023243823 -0.002395503 0.00079614803 -0.0018422835 -0.0023861309 0.0020415226 -0.00077233295 0.0022065842 -0.0012469555 0.0018925309 0.0005032678 0.00095854944 0.0014807708 0.0024463092 -0.0019470416 0.0003544374 -0.00036242328 -0.002365933 0.0024538985 -0.0022570211 -0.002361719 0.0002882918 -0.0010008721 -0.0017052772 -0.0006191398 0.0014941223 -0.00015603838
bahari 0.0021986824 0.0022573664 0.0007290414 0.00092614297 -0.0012747258 -0.00023907342 0.0010005701 0.00033638874 -0.0014305627 -0.0024436754 -0.0022278028 -0.002277939 -0.00020318253 8.854974e-05 -0.00014363368 -0.00014667115 -0.0017712449 0.0021752624 -0.0019507582 -0.00096612837 -0.00056100765 -0.0022041188 0.000977227 0.001636476 -0.002438613 0.001256214 -0.0020406204 -0.00076824543 -0.0019319968 0.0017659523 -0.0022905252 -0.0017971493 -0.002375426 -0.0008925099 0.0015851837 0.0017149489 0.0012752446 0.0012926487 -0.0016682936 0.0016963675 -0.0025168033 0.002439915 -0.0011122325 0.0013765718 0.00072641997 0.0016051666 0.002445549 0.00065737177 0.0011563583 -0.00017540637 0.00038193923 0.0020876168 0.0021968486 0.0005594334 -0.00012172593 0.0002206507 0.00038986639 0.0011422153 0.00013127166 0.0017284013 0.0001788103 -0.0021967373 -0.00017061472 0.00251884 1.8069444e-05 -0.0014485334 0.0005123566 -0.0007661285 -0.0021759204 -0.000113333816 -0.00081918435 0.0007607347 0.00014054845 0.0016851156 -0.00023685678 0.0025395579 0.00034538552 -0.00051289145 0.0014041606 2.869345e-05 -0.00095264707 0.00019199082 -0.0021446135 0.0017717564 -0.0017601225 0.0008222987 -0.00042684548 0.0015152047 -7.128353e-05 0.0012449196 -0.0020808694 -0.0009228454 -0.001322666 0.0020363666 0.0016197484 -0.0023829062 0.00065243326 -0.0020984914 0.0016154076 -0.0017788929 -7.192552e-05 0.0020071536 0.00053535093 0.00029357077 0.0020466466 -0.0014957294 0.0022346184 0.0002458309 0.0006574852 -0.0018328502 0.0017725189 0.00097501866 -4.880307e-05 0.0010918452 -0.001769662 0.00013990284 0.0022269273 -0.00019553087 -0.0006819142 -0.00015965596 0.0012721627 0.0008565729 0.00080977293 0.0001784582 -0.0011775806 -0.0006704433 -0.0003868728 -0.00030050575 -0.0005928922 -0.002258769 -0.0012556217 -0.00024171443 -0.0018730239 0.0018888143 0.0019665863 0.0011930926 -0.00097555836 -0.0011231538 0.0013841753 0.0015016112 0.00071479956 -0.0018065836 0.0010206852 0.0005421093 -0.0020384286 0.00022407848 0.0018697341 -0.00014545901 0.0007492091 -0.001399568 0.0023414148 0.0013901507 0.0020743283 0.00044782844 -0.0008607949 5.2655963e-05 -0.00075386255 -0.00041238833 5.549594e-05 0.00073539943 0.00017480938 0.0009298245 -0.001986767 -0.0020372448 -0.0011073652 0.00022753706 -0.00029986675 0.0011253357 0.0017398483 0.0018944603 -0.0007612655 0.0018419083 -0.000116354284 -0.00014748993 0.00064679986 0.001455768 0.00022332864 0.00035058864 3.0792173e-05 0.0010793912 0.00032625842 -0.0023798842 0.000982918 -0.0014564503 0.0019560407 -0.002357821 0.0012060843 -0.00041911818 -0.0025265662 -0.00080825656 -0.0010333272 0.0015025731 -0.0005454343 0.0013235618 0.0013575486 -0.0023584499 -8.38119e-05 -0.0017669935 -0.00019251874 -0.0005449269
zinatarajiwa -0.00044702576 -0.0011044947 -0.0018591183 -0.002106013 -0.0006035883 0.0014860369 0.0015767255 0.0017280852 -0.00024530213 0.0018768555 -0.0023926971 -0.0011958018 -0.0024052714 0.00072873046 -0.0014301499 -0.0017318623 0.0018654304 -0.0011499235 0.00026512562 -0.00096820964 -0.00021721506 -0.0015117113 -0.0012233037 -0.0020822494 -0.0006523062 -0.0010778941 0.0020798151 -0.0007571606 -0.0020769956 0.00048645763 0.0011094455 0.0014842788 -0.00034777846 -0.0013284762 0.0015987107 -0.0018193987 -0.0022289837 0.0019594193 -0.0018233673 0.0025365914 0.0024432398 0.0009838892 0.0018335581 -0.001728002 -0.0013986703 0.00011354008 0.0013771629 0.0021391972 0.0019093221 0.0010886374 0.0013863193 -0.00043513105 -0.0018756266 -0.0011431156 -0.0010723701 -0.0021004828 0.0013840243 -0.0024503488 -0.0016943007 -0.0006437842 -0.0016607457 0.0018737256 -0.00032105335 -0.0015994716 0.00049269147 0.0015024687 -0.0017584753 -0.0020682316 -8.563258e-05 -0.00020945321 0.0021799575 0.0012644979 0.0017299979 -0.0005200437 0.0006027302 0.0018654797 0.0024691771 -0.00097452913 0.0008205692 0.002461696 3.6088347e-06 -0.0009411839 0.0010729962 0.00035508443 0.0009095183 0.0018484518 -0.0018746144 0.0006123722 -0.0007335351 0.00045911543 0.0008668679 -0.0008274634 -0.0007537954 -0.0019126309 0.0021147148 0.0013596275 0.0013963645 0.00056201866 0.0006417093 -0.0023498908 -0.0017559383 -8.0718955e-06 0.000120254044 0.0009805544 1.3947997e-05 0.0010173874 -0.0006385114 -0.0017888349 -0.0022193033 1.5425549e-05 0.0018332119 -0.0004786319 0.0020944015 -0.0019885134 -0.0014704957 -0.00067155133 0.000115553165 0.0016219332 0.0013090974 0.002320888 -0.0010247875 -0.00018000383 0.0016603224 0.0019978092 0.0022387283 9.827523e-05 -0.001280329 -0.00012485389 -0.0023149925 0.0006944281 0.0009022342 -0.002172943 -0.0004066001 -0.0016960342 0.00247282 0.0005854032 0.0020957598 -0.0022721638 0.0016064501 0.0022145363 0.0016143195 0.0014823091 0.00063745957 0.0007199255 -0.0019644406 -0.0009551755 -0.0021753376 -0.0010011994 0.0020146067 -0.00054212025 -0.0006751269 -0.0010641868 0.00093110517 -0.0009999601 0.00064049993 -0.0013924015 0.00105031 7.195668e-05 -0.0010279308 0.0019671773 -0.0011291583 3.420241e-05 -0.0015945708 -0.0006629422 0.0008961866 -0.001539086 0.00052421255 0.0014764061 0.0021508103 0.00076604594 -0.0012733719 0.0016567399 -0.001316895 0.00051241805 0.0014762774 0.002486129 -0.00089405844 0.00029718617 0.0007413414 -0.00025080598 0.00075059594 0.0022331527 0.001480253 0.0021173286 0.0002856797 -0.002503984 -0.001706945 0.0023319349 -0.0022946487 0.0006910708 -0.0011816223 3.3130644e-05 0.000121632416 0.0021582474 0.0012733333 -0.00075428264 -0.0021457693 -0.00097007107 0.0008873779 -0.002121586
tatu -0.00031089058 -0.0012133641 -0.0022045958 -0.0004735744 0.0010609258 -0.0021634733 -0.001586608 -0.00040252967 0.0020632276 -0.0013805783 -0.0016815751 -0.0019028941 0.0009494943 0.0019683137 -0.00059103634 -0.0008077903 0.0009281266 -0.00024931756 0.0006756796 -0.0017872668 0.0015400198 -0.0015286307 0.0020514592 0.0012131926 0.0017847185 -4.765223e-05 -0.0012880634 0.00015186833 -0.00044884044 0.0017106214 0.0020334483 -0.0017282274 0.0006921635 -0.0022053607 -0.0017700744 -0.0018286282 -0.00043621575 -0.0012234937 -0.0005875565 0.0019200421 -0.0016010142 -0.0020251486 0.0013854698 0.0016904774 -0.0019765147 -0.00020488296 -0.002011991 -0.0015708011 0.001332773 -0.0013925255 0.0012477024 -0.0022394687 -0.001752287 -0.0011219308 0.0012793146 -0.0019620447 -0.00027015616 -0.0008624508 0.00077136536 -0.0014833885 -0.00034227959 0.0005920058 -0.00079378724 0.0023211918 0.0017165646 -0.00019559106 -0.00087730587 0.00076188217 -0.0021616835 -0.00062283524 -0.00082969415 -0.0021396312 -6.2759485e-05 -0.0014302501 -0.0009496326 0.0004899563 -0.0017747899 -0.0021817638 0.0009047868 0.0010971427 -0.0020702914 0.0007122612 0.00073097926 -0.0010962166 -0.001991785 -0.0014915327 0.00026141663 -0.0017722776 0.0014565216 -0.0020850345 -0.0018940647 -0.0002828019 -0.0004010706 0.0013148412 -0.0014589647 0.0003582543 0.0020861113 0.0025477887 -0.0007855302 -0.00054478424 -0.00092833105 -0.0015891577 -0.00036314366 -0.002345045 -0.0011151272 0.0009652341 -0.0011975081 -0.0011973962 -0.0001267609 -0.0021877997 -3.8274604e-05 -0.0010528704 -0.0022885315 -0.001223002 -0.0013648319 0.0014445152 0.0011604388 0.0010645374 0.0020728305 -0.0024215085 -0.0021808697 -0.00085177214 -0.0009355637 0.0023064367 -0.0023300468 -0.00081203354 -0.00050223514 -0.002183862 0.0005618167 0.0016212506 0.0016244303 0.00017672463 -0.00055398775 -0.00052019994 0.0022265126 -0.0023147273 -0.00057488796 0.0022190139 0.00092557154 -0.0008915508 0.0011455686 -0.0019316386 0.0005918728 0.0018510049 -0.0017155134 -0.0007611169 0.0003637539 -0.0012660329 0.0013084093 -0.0010994284 0.0022521473 -0.00023839105 0.0012653732 -0.0008830015 0.001643839 0.00023107884 -0.0022716508 0.0015569925 0.00042868912 9.039223e-05 0.0024243242 -0.0006502545 0.0015692541 0.0016789791 -0.0024429534 0.00038800944 0.0011340461 0.00011752634 0.00044304138 -0.0005059932 0.0011837321 -0.00019898298 -7.006442e-05 -0.0022312661 -0.00095116504 -0.0011463686 0.0019497321 -0.0020219395 -5.9522103e-05 -0.0010415573 -0.00093880814 0.00069613854 -0.00022065153 0.001459821 -0.0015895823 0.00081653404 0.0008654494 0.001066831 -0.0011954657 0.0007143238 -0.0016303627 0.0013416347 0.0013626247 2.3944797e-06 -0.00037613977 -0.00171554 0.00033634636 0.0012581999 0.0005104189 -0.001357511
kikwete 0.00086986995 0.001949804 0.00014052347 0.0008570048 0.0022052063 0.002247336 0.0006105097 -0.00047191328 -0.0016743474 0.0005224311 -0.0013863865 -0.002246768 -0.0011420056 -0.0011709662 -0.0008495207 0.0018498341 -0.0003770983 0.0007110898 -0.0013855058 0.0011536063 0.00016166957 0.0024621552 -0.0005857706 0.0020725788 0.0023627428 -0.0022598805 0.0006936063 0.0016164029 0.0010243085 -0.00012480802 -0.001518269 0.0018783348 -0.001546739 -0.0022644545 0.002259055 0.0016481812 -0.0018525276 0.0022455065 -0.0006774989 0.0018501782 -0.0013671627 -0.00196297 -0.0014662452 0.0023602552 -0.00014169111 1.2735641e-05 -0.0017470393 -0.0024141634 0.0017924071 0.00015946158 0.0014426283 0.0010734667 0.00092823897 0.00090258947 -0.0019575302 -0.00083601585 -0.0008255691 -0.00080945244 -0.00013909138 -0.0025033632 0.00014551873 -0.0009032316 -0.0016199753 0.0011362418 -0.0021932835 0.0002615755 0.0010958532 0.0006938746 0.001663365 -0.001583246 -0.0023635512 -0.0024850385 0.0013998017 0.0023575714 -0.0023385005 0.001722737 -0.001870453 -0.0007845212 0.00057722325 0.0015617542 -0.00013901119 0.0003721229 -0.002003907 0.0018951757 0.0015640464 -0.00161063 0.00022326854 0.0010494267 -0.0015608252 -0.002160459 0.0013982422 -0.0023136912 -0.0024015943 -0.002102891 -0.0024871905 -0.0022568575 -0.0013081015 0.0014778054 -0.0010419533 -0.0002595194 -0.0007491399 0.0011359808 0.00080913724 -0.0017543493 -0.0012173766 0.000626862 -0.0008699494 0.0010315096 -0.0008709861 0.0023061973 -0.002308182 -0.0018534409 -0.0021783498 -0.0014641995 -0.0014519662 -0.0023684772 -0.00012114418 -0.0013268244 -0.00017219505 0.0013323729 -0.0015060497 -0.002081977 -0.002295043 -0.0010063617 -0.0024800373 -0.0015372025 0.00034085973 0.0019928687 -0.0020575621 0.0015331953 0.0012300026 0.0010027384 0.0007710142 -5.9402708e-05 0.0018495141 0.0022281548 0.0015972608 -0.0003499207 0.0013679161 0.001039653 -0.0019170378 0.0011836237 0.0011064812 0.00030865206 -1.6084497e-05 0.0011149255 0.0016060068 0.0009457549 0.00046442426 0.00086224516 -0.001562045 -0.0015571296 0.0007800498 -0.0021809225 0.0012552601 -0.0004193851 0.0017689648 0.001011369 0.0010567028 -0.0022837555 0.00064365845 0.0018644659 -0.0012245297 0.00226657 -0.00023392805 0.0005320594 0.00017944993 4.0092462e-05 -0.00050050387 -0.00039130324 -0.00064167875 -0.00023916214 0.0017759018 -0.0022096678 0.00037734746 0.001758841 -0.00027305188 -0.0009720997 0.00024300007 0.00026534052 0.001134643 0.002433962 -0.0014899853 -0.0016806148 -0.0020489788 -0.0016686503 -0.0016747016 -0.001952127 0.0023149827 -0.00044196213 -0.001104503 0.0016874607 -0.0019327144 -0.0010319129 -9.7573284e-05 0.001832257 0.0018363029 -0.0023096858 0.0005245625 -0.002324743
taifa 0.0024008474 -0.0016553471 0.00017699206 0.0016659785 -0.0022198851 -0.0021389686 -0.0021758317 -0.001743732 0.0011906546 0.0009775629 -0.000921038 0.002104589 -0.0002145334 -0.0018525596 -0.0024034455 0.0024179332 -0.0016874062 -0.000263508 -0.0006670757 0.001842132 -0.0017466432 -0.0008653792 0.0011691623 -0.0013808511 0.00031174664 -0.0009908262 -0.0022587606 -0.0008903047 0.0004460216 0.0011456304 0.00012904909 -0.0020334348 0.001102911 0.0004713381 -0.0014755722 -4.298622e-05 -0.00082202593 0.0021887745 -6.015504e-05 -0.0017474581 0.001521304 -0.0017933064 -8.931937e-05 0.0023803948 0.0019642327 -0.0008403875 0.0009037444 -0.0014036885 -0.0018065507 -0.0019894438 -0.0018885775 0.00049226085 0.0006086128 -0.002133418 -0.00032428445 -0.0018013993 0.00026602938 -0.0024862348 0.0010802548 -0.00079657015 -0.0003207062 0.0018059757 -0.00041702893 -0.0018106598 0.0021554164 0.00084709754 -0.0006985266 0.001382222 0.002301433 -0.0019818838 -0.00025810683 0.0022098604 -0.0017758368 -0.00013640862 -0.0005392055 -0.0005532443 -0.0010332175 -0.0023351987 0.0025065886 0.0018827344 0.0005182544 0.00024203125 0.0011899745 0.00085878745 -0.0001940768 8.842442e-05 0.00077016966 0.0012519154 0.0015371368 0.00027644786 -0.0019195268 0.0017684547 -0.0003176995 0.0022063626 0.00044244877 0.0018150639 -0.0022866507 0.00089373585 -0.0025674633 -0.0016609784 -0.0017383767 -0.001280672 0.0025690587 -0.0003169268 -0.0005669469 -0.0004918383 0.0020073496 0.00076315645 -0.002341028 -0.0024771239 0.0016552848 0.0019838607 0.0009253769 0.0024093322 0.001330701 0.002289314 -0.0023062623 -0.0005175341 0.001826695 0.0022775496 0.0022212707 0.0019823008 -0.00016770614 -0.001330271 -0.000112644026 0.0021643925 -0.0019415843 0.0016554097 -0.0013843034 -0.0024676318 -0.0022276095 -0.0009258708 0.00096563314 -0.0008036759 0.00074471795 0.0003307837 0.001512552 0.00018848747 0.0023076956 -0.0015577154 0.0007471964 -0.0020681163 0.0011617612 -0.0021971602 -0.0013604864 0.00065915956 -0.0006580709 0.00027605743 -0.002199826 -0.0022148432 -0.00085782976 -0.0023763462 0.001286573 -0.00062736013 0.0010438993 0.0017577048 0.00038483524 0.00031553433 0.0005391882 -0.0003855029 0.0024129783 0.00018442412 -0.0006057579 -0.001270686 -0.0021060621 -0.001283019 0.0004242822 -0.0007770924 -0.0003207331 5.5665834e-05 0.0009830578 -0.0013118519 -0.0020539148 -0.0022612624 -0.0021927112 0.000581832 -0.002160453 0.00025974048 0.0014801018 -0.0005349208 0.0016047781 -0.0016754951 0.0016739151 -3.7124966e-05 -0.00022003363 0.0006025334 0.00045697662 -0.001345032 0.0024178824 0.0005765368 -0.00012199803 -0.00014841235 -0.00066863646 0.0006173914 -0.0008830587 -0.002514934 -0.0021882448 0.0023669843 -0.0018461705 -0.00029468903
wastani 0.00022770748 -0.00023390669 0.00034027715 -0.0002809747 0.00080786546 -0.00071395776 -2.324083e-06 0.00041194673 0.0017227726 -6.639665e-05 -0.00050044514 -0.0017672059 -0.0016693608 0.00011291713 0.00082680647 0.000613326 -0.0013952748 -0.0016851132 -0.0022283588 -0.0024397126 0.0013039517 -0.0019410894 0.00011625592 7.059593e-05 2.0432813e-05 0.00027612023 0.0004089468 -0.0003286069 0.0014816963 -0.0009982719 0.00022823135 0.00059791806 -0.0015325467 -0.0015961304 -3.7156347e-05 0.002117527 0.0023456304 -0.00042594664 8.741949e-06 0.001774012 -0.0014620568 -0.00017764 -0.0018433082 0.001515341 0.0017997714 0.001215697 -0.0005946412 0.0008345959 -0.0012271998 -0.0012566679 -0.00012487404 -0.0005516243 0.000923526 0.00080496154 -0.0016839345 -0.002190915 0.00029500708 0.00046972322 0.0023883448 -0.001615845 0.0019350627 0.0014908054 0.0018651338 -0.0009213856 0.002405261 0.0010246934 -0.0016652774 -0.0021063806 0.0021468406 -0.0019267625 0.0019453168 -0.0012599931 0.000241861 -0.0024551472 -0.0016081774 0.000775578 0.0015913532 -0.002457269 -0.00061054016 -0.00040847828 -0.0012753226 0.00032250118 -0.0018925838 0.00196193 0.00013809162 0.00051128864 0.0023494177 -0.0011485763 0.0022098653 0.00022817182 0.0010429394 -0.0015798953 0.00038835552 -0.0010472178 -0.0023765082 8.226957e-06 0.0019170702 -0.0020858645 0.0013390494 0.0023106774 -0.0018654243 0.0014612639 0.002021615 0.0018903 -0.0015207762 0.002125511 -4.5288532e-05 0.0013801813 -0.0011952766 0.0008553897 0.0011328234 -0.0015601199 -0.0014029129 0.001269218 -0.0016661066 -0.00064944173 -0.002250269 0.0016605341 0.000425356 -0.0017709899 -0.002300144 0.0024544399 -2.3933178e-05 -0.0011412913 0.0006554274 -0.0010793579 -0.00020947856 0.00076516607 -0.0024675194 0.0017906406 -0.0011559263 -9.64071e-05 0.0017100303 -0.00016378661 0.00074955303 0.00025341575 -0.0009584305 0.0023892177 0.0021461525 0.00014097216 -0.0011439854 -0.0019133941 0.0012922836 -0.0015154287 -0.0011061812 -0.0013120895 -0.00195555 0.0020547314 0.0017744895 -0.0005127742 -0.00028028165 0.0023514268 -0.0016536076 -0.0018095999 0.002549138 -0.00089735107 -0.0019496991 -0.0022297816 -0.0005358037 0.00022959588 -0.0019630308 -0.0006754225 0.001314455 -0.0024272494 -0.00018492542 -0.0021878183 0.002373266 -0.0016167917 -0.0005795116 0.0017414013 -0.0025257124 -0.00079808704 0.001905039 -0.002091064 -0.00017449273 -0.00032089988 -0.0014288835 -0.0004360544 -0.0019564028 -0.0008065624 -0.0016292146 0.00064924045 0.0006643974 -0.0007092622 -0.0015071622 0.0021660286 0.00064350304 -0.0018694648 -0.0017296608 -0.0010313527 0.0003094119 -0.00094150275 -0.00033710783 -0.0013784872 0.000935016 -0.00060278847 -0.0024107255 0.0022046724 -0.00010844962 0.00061935926
tanzania 0.00064291584 0.001249968 0.0024288802 -0.0021282916 9.966757e-05 0.0019831771 0.00036708656 -0.00018844959 0.0008892346 -0.001994554 0.0008016767 0.00027868114 0.0019085252 -0.0002668257 0.0017007559 0.0014253445 -0.0021751917 0.0022357546 0.0016610614 -0.0021961536 0.0009087008 -0.001324004 0.0014312451 -0.0020274154 -0.0009818797 -0.0008362548 0.0012660712 0.00089895877 0.0018043389 0.0004872502 0.001726381 -0.0004918106 0.0022391733 0.0019582985 0.0014698162 0.0015526473 -0.0005654622 0.0016259984 0.002137956 7.4478914e-05 0.0014145806 0.00019281302 -0.0012285068 0.0003073076 -0.00034104695 0.0021833475 0.0017266824 -0.0023868112 -0.0007733737 0.00077464955 0.00027968996 0.00046096536 0.000104044506 -0.0017904355 0.002117599 -0.0005711164 -0.0021675564 0.0001665459 0.0022076347 -0.0019422406 0.0012058299 -0.0013942403 -0.0010763006 0.0006751665 -0.0010655461 0.00082297914 -0.0015446792 -0.0007231017 -0.0008161121 0.0019839113 -0.00071199535 -0.0010608699 0.0018157153 -0.0016808292 -0.0010349555 -0.0006693585 0.0021152105 -0.0005670752 0.0012524677 -0.00088489166 0.0016163894 0.0015722051 -0.00011084898 0.002142649 -0.0004897396 -0.0015836828 0.002447883 -0.0012244838 0.0019464319 -0.0008959851 0.00029587292 0.0014349411 0.0013801256 -0.0017736701 0.00040140434 0.00051222154 -0.0002609281 0.0017935841 0.001073164 0.0024633147 0.00073527655 0.0004918887 0.00086705585 -0.00032690857 0.0003487901 -0.0002943934 0.0018969552 0.0016985702 -0.0023202782 -0.0024766542 0.00061696983 0.0016756714 -0.0014639824 -0.0010888234 -0.0003098663 -0.0013529497 -0.0018005271 0.0015845508 0.0012314031 0.0005269604 -0.0021029278 0.00048794004 0.0011919454 -0.0010030073 -0.00043826483 0.0021492552 0.0018409207 -0.001683167 -0.001731428 0.0014246693 0.0016150284 -0.0010937962 0.00054714514 -0.0011643503 -0.00054876984 -0.0010958592 0.00018858527 0.00052849425 -0.0021956938 -0.0023077214 0.0015125124 0.0022601206 0.0003337012 0.0017584421 -0.0016099772 0.00080855464 0.002303113 -0.002040959 0.0012549154 0.0015855181 -0.0008237637 0.00078181655 0.0022417689 -0.0005816332 0.002462747 -0.0009893903 -0.00022622374 0.0018632958 -0.001654822 0.0017236073 -0.0015665909 -0.0019292339 -0.0006776948 -0.00080067373 0.0013696994 -0.0007946865 -0.0016487772 -0.0017300078 0.00044935488 0.00020891447 -0.002367576 0.0013463069 0.0013150921 0.00069860386 -0.00025094606 0.0005797251 0.0021330505 -0.0020776258 -0.0015350217 -0.0011033377 0.0014746818 -0.0012510949 0.00060529786 0.0014685437 0.002116051 0.00039257383 0.0015526146 -0.0022952347 -6.431512e-05 -0.0015259032 -0.0005331179 -0.00021578441 0.0021670747 0.0020522794 0.0011945053 0.002483889 -0.002068314 -0.0014694211 -0.0014170088 -0.0023439382
maeneo 0.0024127215 0.0017816543 0.00034902027 0.0006506944 -0.0014580766 -8.41131e-05 0.0011077286 0.0022374778 0.0014494291 0.0009628083 -0.0012580978 -0.0004171825 0.00012756996 0.0007959411 0.0012162151 -0.0012551196 -0.00020984882 0.000538149 -0.001637933 -0.00021299614 -0.0018534744 -0.00039802556 0.00042213083 0.00082380924 -0.0006531905 -0.0020639498 0.0014150876 0.0008477152 7.258723e-05 0.0018170552 -0.0013852168 0.0023410015 0.00175491 0.0003404486 0.0005652426 0.0021031017 -0.0002653709 0.0018385601 0.0016186293 0.0023621316 -0.0024106267 -0.0015256063 -0.0006887361 0.0014730297 -0.0008942628 9.186964e-05 0.00088216586 -0.000106312444 -0.00087789603 -0.0019167006 -0.002027315 -0.0022859904 -0.0014903403 -0.0017978569 -0.00028486724 0.0008237837 -0.0015764277 -0.00035569427 -0.0015600389 -0.0017982651 0.0022498118 0.00089243526 -0.0005546031 -0.00044015728 -0.0023459762 -0.00036537895 -0.00060427206 0.0010672994 -0.00011593679 0.00071895693 -0.0005162766 0.0013429554 -0.002437944 -0.0014472184 0.0003994883 -0.00043957212 -0.0022485768 -0.001956326 -0.00016338237 -0.0010472903 0.00019119195 -0.0005561672 0.0002229865 -0.0019153433 0.0020957259 -0.0012951576 -0.0006071236 0.0018720243 0.0011924547 0.0012291495 0.0009766803 -0.0014272572 -0.0017795315 0.0018636301 -0.0018438983 0.0016249723 -0.0013786269 -0.001041522 0.0004098402 0.0015703558 0.0020567626 0.0010263406 0.0020342877 -0.001356971 -0.000111856454 -0.00027037205 0.0010273333 -0.0024588972 0.00046031747 0.0007468604 -0.00222923 -0.0011089375 -0.0014069669 -0.00045982172 -0.0018472436 -0.0018071221 0.0005981827 -0.00037161345 0.0008671266 -0.0024470834 0.000896193 -0.0003862743 0.00058458635 -0.0010249976 -0.0013582123 -0.00012922927 0.0013829416 -0.0006204233 -0.001143783 -0.0023230533 -0.00012182857 -0.0021315713 0.001804185 0.0016685051 -0.0020723597 -0.001482614 0.0005683737 -0.0023440302 -0.0009207039 0.0023579984 5.2876607e-05 -0.0023696227 0.0012372578 0.0022261532 -0.0015060434 0.00021181171 0.0011558086 0.000839521 0.0018866183 0.0012680009 7.6339114e-05 -0.00017432636 -0.0020182263 0.0016728555 -0.000400113 0.00042951145 0.0011133744 0.00079401745 -0.002106364 0.00034886823 -0.0015895223 0.0005951979 -0.0015016691 -0.00022371624 0.0005315187 0.0018799144 0.000852082 0.001033471 0.0013603524 -0.002042893 0.00054951524 -0.0014940269 0.00073799805 -0.0015533823 0.0020123424 0.0005087466 0.0013380167 0.001661739 -0.0024704088 0.0005650383 0.0009517991 0.0006792854 -0.0021051124 0.00065623014 0.0017151515 0.00066539505 0.002318063 0.002343042 0.00041357233 -0.0021463754 0.0023912564 -0.00081758614 0.0014230656 -0.0017960633 0.00020237002 -0.0003806247 -0.0007113076 -0.0008535661 0.00064153713 0.0007568889
sheria 0.0007638578 -0.001615943 -0.0011412278 -0.0017432772 -0.0010768401 0.001451049 -0.00016695273 0.0013020714 0.0015993767 -0.0013872678 -0.0018088449 7.309077e-05 -0.0012388652 -0.0006007173 -0.0006347589 -0.0005891276 -0.00012992165 0.0021864844 0.00073877804 -0.0007371775 3.6961563e-05 0.0005486217 -0.0002635634 0.001295001 0.001582002 0.0006901506 0.0024000558 -0.0016804519 0.0012058456 -0.0023060574 0.0019222931 -0.0015218945 -0.00028231615 -0.0005660449 0.0009043356 -0.0011780922 -0.0014582551 -0.0012187002 0.0020762936 -0.0005483854 6.7517285e-05 -0.00033433852 -0.0020619866 0.0012970457 0.0015297157 0.00019766876 0.002128203 0.00049341086 -0.0016597522 -0.00070129964 -0.0020076616 0.0017741987 -0.0019171587 -0.0019894831 0.00058167253 -0.0016133602 -0.0005717542 -0.0021755677 0.0015069558 -9.871237e-05 -0.0007661669 -0.00034977938 0.0016294012 0.0011022513 -0.00015459035 -0.00036822897 -0.0023311682 -0.002199113 0.0020660153 -0.0006879775 0.0010288242 0.0019392534 0.00040262917 -0.00014570616 0.0022715423 -0.0017077416 0.002026762 0.0017284573 0.0015922536 -0.0022302093 0.00043901757 0.00029051094 0.0012308515 -0.0013722214 0.0006381148 0.0015059393 -0.00066960725 0.0023121138 0.0018962158 -0.0005539812 0.0012481001 -0.002449457 0.0011169359 -0.0020638742 0.00026348335 0.0013718667 0.002304225 0.0010413576 -0.0008789221 0.0014129939 -0.0006300154 -0.0011125127 0.0004611547 0.0006515912 0.0016921465 -0.00043301558 0.0015775785 -0.0001950843 0.002341721 -3.7777012e-05 -0.0008313025 0.00012314555 -0.0018502527 -0.00036498485 0.0022348454 0.0010287832 -0.0012614803 0.0013890861 0.0023392974 -0.0005671318 0.0023859155 0.000456356 0.0023394467 -0.0017128063 -0.0017680705 -0.00027456647 0.00017822342 -0.0024796445 -0.002383504 -0.00025769643 -0.0013609162 -0.002502483 -0.0013235642 -0.00042567516 -0.00031900176 0.0014757096 -0.0024116535 -0.002170217 -0.0017573895 -0.0009230274 5.2887975e-05 -0.0015511914 5.4998036e-05 -0.001748788 0.0007794995 -0.0010226318 -0.0024868422 0.0011221833 0.0015482004 0.0007387204 0.0015778773 -0.0015104432 -0.0015140874 0.0018887329 0.0012592969 -0.0016472684 0.0016539134 -0.00038142983 0.00048802362 0.0012958677 -0.0017409812 -0.00041299622 0.0018531154 0.0020425823 -0.0010253971 -0.0023785545 0.0013543322 0.0017857945 -0.002386544 0.0015140206 -0.001981035 -0.0010152236 0.0001740297 0.0015014629 0.0013905788 -0.00066586415 -0.0018308768 -0.0010983853 0.001450254 0.00240225 0.00022707426 0.0021645934 -0.0023938296 0.0018306802 -0.001950848 -0.0012995931 0.0010502678 0.0021728263 2.2619379e-05 -0.0023347093 0.002181357 0.00072888745 -0.0014412001 7.298671e-05 0.0016230623 0.0014696907 -0.0023357202 0.0007755968 -0.0010761761 0.0017215746
watu 0.0011728895 -0.0021238786 -0.00015302541 0.0023873227 0.0017529558 0.0023667305 0.00121996 -0.001065456 0.0017042567 -0.0017849494 -0.0014093708 -0.002520564 0.00021406243 0.00038044935 -0.00030893268 0.00019173785 -0.0007803048 0.0018678779 0.0005314506 -0.00055779377 -0.00097091583 0.0014929937 -0.0005304384 -0.0010543905 0.0021844613 -0.0024190338 -0.0021633534 0.0012913705 0.00022711806 0.00043815683 -0.0005309079 -8.328183e-05 -0.001996281 -0.0005024471 -0.0012253114 -0.0012250417 -0.0022734485 0.0024749779 0.00040855262 0.00064597663 -0.0013331027 0.0020808082 0.0005048395 0.0023087263 0.0017574651 0.0018307935 -0.00014038527 0.00088046433 -0.002178966 0.0011280071 0.0020808852 0.0023083596 -1.1673933e-09 -0.0011398571 0.0012892066 0.0019184672 -0.00041269802 -0.0016197494 0.0009747965 -0.0020573942 0.00068309094 -0.0020780338 -0.001495998 0.0017920742 -0.0023724395 -0.001061667 0.0020491467 -0.0012488452 0.0022148045 0.0002985677 -0.0015401023 -0.0016728359 0.0024262797 -0.0021784678 0.00070574024 0.002354821 -0.0021965872 0.00010506052 -0.0017254596 -0.0023181564 -0.0014957888 0.0022105365 -0.00057256845 -0.002438079 0.0009250086 0.0020468144 0.00039279574 -0.0020102733 -0.001104155 -0.00037397785 -0.001303765 0.0014803424 -0.00016428923 0.0023439548 -0.0016325581 0.001948114 -0.0021648929 0.00017500532 0.0003480583 -0.0023327926 -0.000902011 -0.0012884005 -0.001990976 -0.0021567536 -0.0023294152 -0.0006953851 -0.0009719948 -5.88402e-05 -0.0014646628 0.00028277672 -0.0004640418 0.0010610581 9.251206e-05 0.0014721977 -0.0021444825 -0.00028736985 -0.0014198936 0.002205641 -0.0014022748 0.0020410875 -0.0010745104 0.00092347636 -0.0025177095 -0.0014008206 -0.0007417079 -4.72199e-05 0.00022618935 0.001304735 0.0011080031 -0.00018599062 0.00030843305 -0.00026248023 0.0010596137 -0.0010229861 -0.0010275552 0.00082613085 0.0017429651 -0.0012228924 0.0011381435 -0.0011719938 -0.0021095471 -0.00079598196 0.00054129126 0.0009877147 0.0022090802 -0.0021145751 0.0018514593 0.001744253 0.0012513549 -0.00096314866 -0.0012138536 -0.0011091303 -0.0019150681 0.0019370833 -0.00041188192 -0.0003717842 -0.0018227327 0.0025100794 -0.00092641485 0.0021878001 -0.0005022494 0.0004709752 0.00044963448 -0.0008228322 -0.0024516084 0.0008625601 -0.0006293752 -0.0018185304 0.00053964584 0.0002946592 -0.0005559094 0.0005946034 0.00088301103 -8.566885e-05 -0.00041507155 0.0018810189 0.0013789207 -0.0024726274 -0.00010072171 -0.0019513543 -0.0021412687 0.0020719427 0.0007854097 0.0007791242 0.00084713905 -0.0020045897 -0.0019111236 0.00064435037 0.0017555438 -0.00011317869 -0.0022495887 0.002230838 -0.0021213768 0.0011587226 -0.00051346136 -0.0013114702 0.000268695 0.0020930022 -0.0012262202 -0.00022998569
familia 0.00058194133 0.0017196105 0.0019811704 0.0020487655 0.0022055865 0.00076873164 0.0019072205 0.00078884204 0.0015330844 0.002081374 -0.0011411081 0.0008254981 0.0023604906 0.0024734912 0.00010519944 0.0019600336 -5.550847e-06 -0.0012994617 -0.0017752278 0.00022754652 0.001301831 0.0019666017 -0.00023364335 0.0019754947 0.0018482356 0.0013845257 -0.0013090647 -0.0016113234 -0.0019796519 -0.0017579405 0.0023631358 0.002070579 0.00091642176 0.00044920214 0.0013645202 -0.0013418855 0.0022133063 0.00056505133 0.0022383751 0.00028915558 -0.0022615234 0.001625098 -0.0006938884 -0.0010640727 -0.0006481237 0.0011159591 0.0022624605 0.0018723629 -0.0015026067 -0.0013713307 -0.0015238666 0.00045346885 0.001066848 0.0007170995 0.0007307898 0.00047147408 -0.0017293583 -0.0021978763 0.00063303317 0.00069750065 -0.0012348212 0.0019815404 -0.0010820756 0.0022955055 -0.0019114529 0.00053515995 -3.949117e-05 -0.00033530782 -0.0023820696 -0.0019492923 -0.00046713912 -0.0016245971 -0.00077554275 0.0013557832 0.002374487 -0.0024365697 0.0015677421 -0.00027340843 0.00045021388 0.0013827173 -0.0017323993 0.0022016447 0.0011208015 0.0016357374 -0.0010076424 -6.8780455e-06 -0.0019385843 -0.0018255868 -0.000907131 0.00030130238 -0.0019498918 0.0019826042 0.001534183 0.0002492015 0.00027787694 0.0011509568 -0.00017905553 0.00086387334 -0.0018231052 0.002226305 -0.0004838012 -0.00012434399 0.0016032611 0.0012355947 0.00045897256 -0.00022397096 -0.00091070594 -0.00090355193 -0.002076884 -0.0016273389 0.0025198525 -0.002232137 -0.0012316556 -0.0025028484 0.00026234332 -0.0021461386 0.00035290857 -0.0015559292 0.0012267127 -0.0012679267 0.00047184183 0.00085195724 -0.0019879509 -0.000103552426 -0.0008092713 0.0012798449 -0.0024896413 -0.001934517 0.0018805158 0.00019046236 -0.00052607927 0.00081329275 0.00085076777 0.0012769246 0.0016042313 0.0017894607 0.0024713443 -0.0007574832 0.0012576405 0.0017754406 -0.001177838 0.00041088037 -0.0006619512 -0.0022064897 -0.0025101863 -0.0006432905 -0.00031649318 0.0022149975 0.0013063255 -0.0005816843 -0.00089413 0.0021382151 0.0014592417 -0.0013706589 -5.1902276e-05 -0.0007564398 -0.0019153464 -0.0016222154 0.0018049427 0.001271253 -0.00049433793 0.000888136 -0.002338245 0.0016119154 0.0005004769 -0.0007837866 0.0019151195 -0.0023711347 -0.00027727525 -0.00093130564 0.0008807654 -0.00013993289 -0.0023386949 0.00068496197 -0.0011764637 -0.001007684 -0.0006534203 0.00027630874 -0.0024820182 -0.0018161626 -0.0008794574 0.0008340653 0.0011717286 0.0014654363 -0.00075811124 0.0012981452 0.002223912 -0.0007965334 -0.0008100291 -0.0020933042 -0.0019078401 -0.00097581104 0.0024030039 -4.769303e-05 -0.00049204065 0.0016666407 0.0015807026 -0.0016011674 0.0013064602 0.000915208
eneo -0.00044875368 -0.0004437504 0.0006043929 0.00086250616 0.0024495695 0.002189868 -0.0009818748 0.0018785807 0.0019700073 -0.0017063022 0.0004927308 0.00051586726 -0.00030405135 0.00078946893 -0.002367538 -0.0017588066 -0.00073375093 0.0020279204 0.00031865813 0.0019157474 0.00015504935 0.002351608 0.0013349574 -0.0024631957 -0.002351897 -0.0014886571 0.00065615406 0.00040856109 -0.0014667223 -0.002417436 0.00028014547 0.00074009114 0.0016531545 -0.00034830254 0.0007232775 -0.0014647356 -0.00055782456 0.00049416185 0.00068416947 0.0005655895 -0.0019965123 -0.00014193176 0.00040968158 -0.0015252087 -0.001312866 -0.0018346867 -0.00075092755 0.0012250129 -0.0018619356 -0.0011716116 -0.00025339186 0.0020001642 -0.00095741154 0.00095693057 -0.00047041485 0.0024166415 0.0003882726 -0.0014270634 0.00053586095 -0.0013542802 -0.00067494676 0.0007934503 0.000432864 -0.0012600515 -0.0018588409 -0.0002843335 0.0015497761 0.0009942605 0.0019243852 0.0014280172 -0.0020002415 -0.00066151517 0.00054742076 -0.00039256428 -0.0023714893 -0.0013214056 0.00026413784 0.0017075223 0.0013200446 0.0016321607 9.0774025e-05 0.0017952243 0.0011047274 0.0020543654 -0.0015807014 0.00019329158 0.0003514559 0.0018369341 0.00078280544 -0.0016160882 -0.0017737178 -0.0013821006 -0.002148339 0.0017658061 0.00018554626 -0.0017774001 -0.002103401 0.0015922169 0.0014299129 -0.0019449253 -0.0017981482 0.00016841463 0.00046537188 -0.00014139028 0.00088706095 0.00077844004 -0.0018710423 -0.0009704372 -0.00057411403 -0.0015227207 0.0007323473 -0.00235766 -0.0019481214 0.0015807027 0.0010203683 -0.002428811 -0.00052301487 -0.0015909416 0.0008819725 -0.00040358142 0.00026758848 0.00072564994 0.0003942682 -0.0008813104 0.0011354513 -0.0022879895 -0.0022981116 0.0014616782 -0.0010564186 0.00076740934 0.002052036 0.0021832192 -0.0013770135 -0.0023476677 0.002006826 0.0021731353 -0.0021219514 0.0023332278 0.001595517 0.002022894 -0.000763233 0.0008289075 0.0014616586 0.0023828428 0.0018433667 -0.0015415989 -0.0005584715 -0.001491068 0.0024311906 -0.0013605276 -0.0004621587 -0.002034712 0.0024599705 -0.0006215865 0.0016495672 -0.001976529 -0.002326127 0.0019876554 -0.0012379952 -0.0008390279 -0.00042654003 -0.002362825 -0.0010999818 0.0017871457 -0.0014941627 0.0018929063 -0.0017540386 -0.00159978 -0.002442468 0.00034528965 0.00047919908 0.00081501366 0.0010589799 0.0015032092 -0.0024660581 -0.00083853403 -0.00171613 7.1110255e-05 0.00012237152 0.0024788 6.9757945e-05 -0.0018013078 -0.0015304657 -0.0011717005 0.00044962057 0.00012307706 -0.0018518383 -0.0015600502 0.0012995668 -0.0002182582 0.0017285941 0.0013431625 -0.0020905912 0.0011686811 -0.0012048314 0.0008721295 -0.00067688536 0.0014980861 -0.00037089974 0.00093124335
mwalimu -0.00020899792 -0.00062497304 -0.001809972 0.0013739361 0.0016333455 0.0015360856 0.0008483941 -0.0010357528 0.00019604598 0.00072660466 -0.00087921374 0.0011391566 0.0019394001 -0.0017411325 -0.0014949782 0.0008516975 -0.0007803617 -2.0214455e-05 0.0003108028 0.00036251213 0.0022783277 -0.0008154543 0.00039192286 -0.0021180871 0.002285905 0.00013205186 0.0002677388 -0.002177306 -0.0018077984 5.5577857e-05 0.00023845378 -0.0010300142 0.0017141305 0.000120354816 -0.00024989975 0.0019639696 0.00024117272 0.0025241422 0.0009442821 0.0019026401 0.00010005419 0.0013574086 -1.7398914e-05 -0.00013530986 -0.0010195916 -0.0015764204 0.0014327327 0.0014871763 -0.00019526735 0.0003947805 -0.00014368477 0.00058483187 0.0008042939 -0.0022273425 -0.0014530972 -0.0018120877 -0.0012029434 0.001159081 -0.0021834446 -0.0023096905 0.0026139866 0.0012048604 -0.00056620984 0.0016713534 0.0014871155 5.6133226e-06 -0.0015949738 0.0010529513 0.0018693178 -0.0010545016 -0.0003453192 -0.00225304 -0.0004696982 0.000277337 -0.0009265288 0.0014330428 -0.00065924885 0.00072877476 0.0023659598 0.0014299878 0.001936717 0.00064693036 0.001614386 0.0009135508 0.00078709336 0.0016575885 -0.00070692913 0.0010653557 -0.002162316 3.3374235e-05 0.0023288897 -0.001970125 0.0023676688 -0.00036117004 -0.0021974163 0.0012867273 0.0013266902 -9.234644e-05 -0.0019112459 0.00032542212 0.0019159724 -0.002515144 0.001734299 -0.00020997635 -0.00046819865 -5.708329e-05 0.0010827284 -0.0016490074 0.000414788 0.0020438947 -0.0008930459 7.6719014e-05 0.00071348326 -0.001200421 -0.0022676678 0.0021667273 -0.001748609 -0.0020994132 0.001104899 -0.0019295564 0.0009895217 0.0014765852 0.0014500347 -0.0001951309 -0.0006440573 0.0014364681 -0.0012175255 -0.0016496715 -0.0017410067 0.0016397394 0.0023798356 -0.00038351575 0.0010716444 0.0012251657 0.0010958869 0.001569001 -0.0017371309 0.00079034513 0.00034579862 0.0024067734 0.0017024591 -0.0007575827 -0.0021233293 0.0021275352 0.000933522 0.0012080425 -0.002306368 -1.4683422e-05 0.0008531226 0.0024850261 0.00208824 -0.0014821987 0.0016394724 0.0020026166 0.0023596939 -0.0015395482 -0.00040918597 0.00034845548 0.0003850831 0.00065068505 0.0021726482 0.0019316776 0.0023301567 0.0014596096 -0.0014851594 -0.0006109771 -0.0016357601 -0.0022756143 0.001049603 -0.0022057788 0.0009549667 -0.0006362983 -0.0024741935 -0.0019831983 0.0020949985 0.0006384732 -0.0014331508 -0.0007009443 0.001856402 -0.00015508992 0.0015483125 -0.0008763346 0.0014321854 -0.0009471211 -0.00098133 0.0012526215 -7.004092e-05 -0.0022635635 -0.0017187761 0.0005316941 -0.0019337948 -0.00028078933 0.00045020436 -0.0021153276 -0.00012495308 -0.0023368474 -2.1353078e-05 0.0018238908 0.00044651105 0.00065257703
nyerere 0.0016559946 -0.0021309406 0.00072430423 -0.0007479707 0.0019349372 0.0012857376 -0.0006217701 -0.0013990772 -0.00041513803 -0.0016125819 -0.0007053808 -0.0009320504 0.0009054436 -0.0020851942 0.0019696995 -0.0010849821 -0.00026715666 -0.0015892185 0.00034968255 -0.00026401784 0.0006375779 -3.855917e-05 0.0023589681 -0.0005125881 0.0011581241 0.0016280485 -0.0023295134 -0.0013755589 -0.0009357404 0.000502977 0.00020851057 -0.0016119033 0.0020845684 0.0010097732 -0.001875512 -0.0012896417 0.0014911628 -0.0015445813 -0.001298361 0.0017853471 -0.002065722 -0.0012562722 -0.00053734827 0.00042491237 0.002209987 0.0004295792 -0.0008472559 -0.0007373508 0.0010596165 -0.0012346763 0.0019182788 2.2809954e-05 -0.0024714167 -0.0021297475 -0.0007089723 -0.00037780617 0.0018886171 -9.343488e-05 0.0023917777 -0.002266196 0.0022375984 0.0019477505 -0.0014749537 -0.00092103076 -0.00014645273 0.00037959637 0.0013455157 0.00045683928 -0.0002533614 0.00030835893 -0.0020143695 -0.0002517739 -0.0006698541 -0.00039290698 -0.00012210537 0.0011028083 0.0008350472 -0.0012265431 0.0015403148 0.00040964034 -0.0006918822 0.002277708 0.0010794762 -0.0010299205 0.0015604529 -0.0010075122 -0.00020750979 0.0001742472 7.995797e-05 -0.0022264363 -0.001279295 -0.00015695087 0.0014577907 -0.00064750534 -0.0013294427 0.0022985719 0.0021508941 -0.00088749774 0.0012432657 -0.0007546993 0.0013980261 -0.0001523911 0.00048568085 0.00045749443 -0.00056090433 -5.6910805e-05 -0.0006259277 0.00027129645 -0.0024749832 0.0006191142 0.0021141581 0.0022434632 -0.0014535926 -0.0009952527 -0.0021732198 0.0023724046 0.0013790508 0.0014044358 0.0021898753 -0.0021750599 0.0011564534 -0.0002148857 -0.0023214817 -0.0005935557 -0.0009737716 4.609382e-05 -0.00017985413 0.00016650469 0.0005390541 0.0022977865 -0.0025178632 0.0013051046 -0.00010539889 -0.0020044292 -0.0010916282 0.0019492683 0.0005152114 0.0024970795 0.0016832547 0.0021681709 -0.0014759675 0.0011309724 8.3763676e-05 -0.0017487641 0.0002528399 0.0023851169 0.0023878608 0.0012036576 -0.000308841 0.0019448078 7.024973e-05 0.0014642738 0.0016055998 0.00081855693 0.0010749841 -0.0024042719 0.0003198659 -0.0004682567 0.0016254956 0.0023592506 5.5064378e-05 0.00016861781 0.001605065 0.0011150957 -0.0013187564 0.0021550218 -0.0023327863 -0.00046835013 -0.001822556 -0.0018704863 -0.00254633 0.0001420039 0.0005222163 0.00047620476 0.0014631861 -0.0011221975 0.0017427368 -0.0011825761 -0.00031870467 0.0011161821 -0.002383506 -0.00057296926 -0.0014778378 -0.0021033 -0.0011926007 -0.00023607048 0.0006223066 -0.0012990163 -0.0004918249 -0.0012836063 -0.00035317984 0.00032635947 0.00081768853 -0.00090499636 0.0010397431 -0.00020356974 -0.0012348426 -0.0011089336 0.001036464 0.0022281995
ilisema -0.0013712648 0.001894506 -0.0017453795 -0.0005442897 -0.002054367 0.0014281773 -0.0016246644 0.0011710677 -0.00056081096 -0.0024653184 0.00068981014 0.0020981736 -5.901826e-05 -0.0011715437 -0.0023138647 0.00043607518 -0.0012784033 -0.0015880057 -0.0005330502 -0.0018900178 0.0012562103 0.00075987715 -0.0006169873 0.00014384373 0.00013479304 0.0012731777 0.0020655429 -0.0016707339 -0.0020903542 -0.0013092471 -0.00033818974 0.0009607946 0.0004470986 0.0008797099 -0.0023158635 -0.0017270679 0.0001908738 0.00063107983 0.0008381402 -0.0007640086 -0.0018860623 0.0023767143 0.0009055571 0.0013254101 -0.0004339163 -0.0015414746 0.0022732439 5.6731087e-06 -0.00035110264 0.0016645823 0.0005475726 0.00031980473 -0.0012536106 -0.00072974194 -0.0023046932 0.0010484477 -0.00051389565 -6.51535e-05 -0.0016236611 -0.00077197194 0.0015166939 -0.0007237232 0.0019352979 0.0018006983 0.0020981375 0.00052067864 0.00052777265 -0.001899914 0.001051552 -0.0018936282 0.00088048435 -0.0013683406 -0.0019757745 -0.00035906286 3.065529e-05 0.00068795215 0.0015909651 -0.001510405 0.0022316263 -0.0014823973 0.0019678925 -0.00018936222 1.0853686e-05 -0.00071331963 0.00065330055 -0.002050261 -0.0015956097 0.0014522355 0.0007061323 0.0024326302 -0.0010442613 0.00013211311 -0.0003005908 0.00034684432 -1.849673e-05 -0.001316313 -0.0015267961 0.0012859299 -0.0010316104 -0.00031802652 -0.0020187823 -0.0019868272 0.00065617403 0.0025312677 -3.348549e-05 0.0005525631 -0.00091032224 0.0007657721 -0.0012010343 -0.00061891286 0.0018378318 0.0011842622 -0.002165018 -0.0005121009 6.581046e-05 -0.0018137447 -0.0004591806 0.0023377356 -0.0010853099 0.0017774217 -0.00021457716 -0.0016566162 0.00090350135 1.4442547e-05 -7.3636904e-05 -0.0015709199 -0.00097653165 0.0024902604 0.0019508806 0.002284463 0.00057712046 -5.294785e-05 -0.0013718524 0.002209129 -0.0007152683 0.0012563147 -0.00017225763 -0.0006136431 -0.000874979 0.002164614 0.0010480189 0.0013169408 -0.0008187733 -0.0006035201 0.00085163035 -0.00033762274 -0.0010763261 0.00083945517 -0.0014562658 -0.002128634 -0.0007835328 -0.002161244 0.002205409 0.0010027782 0.00080578297 -0.00095707714 -0.00210273 -0.0015011543 -0.0004589835 -0.00043115116 -0.0010335594 0.002266229 -0.0022746157 -0.0020365648 0.0004227061 -0.0024043114 0.0011999565 0.0004924198 -0.001658458 2.1821352e-05 -0.0022348913 0.0019946075 0.0001909027 0.0016476142 0.0008867167 -0.00030848215 0.002074739 -0.0012281534 -0.001903777 0.000991274 -0.0012391969 -0.0004574151 0.0016839334 -3.981181e-05 0.00052574504 -0.00088314485 -0.0005890659 0.002247464 0.0021985068 0.0020747744 0.0007712603 0.0008396636 0.00248571 0.0023834216 0.00040950289 -0.0002157295 -0.0015958684 0.0021281205 -0.00012035267 -5.5395776e-05
magharibi -0.002262506 -0.0013238783 -0.00024420142 0.0006188411 0.0010620271 0.00071214384 -0.0011329281 0.00029052558 -0.000476166 -0.0013581136 0.0011619091 0.0023677673 -0.00031433676 0.0003058482 -0.0005997746 -0.0020600536 0.0020453385 0.001838377 -0.00081712555 -0.00085656764 0.0023310888 0.001569143 -0.0007539224 -0.0015344956 -0.0013786622 0.002324878 -0.00087257684 0.0016105798 -0.0021025157 -0.00024796184 0.0017263285 0.0011821968 -0.0010993013 -0.00057790027 -0.00030754847 -0.0024111304 0.001485331 0.0019668916 -0.0003923333 0.00036520226 0.00041472164 0.002201775 -0.002232765 -0.0013365817 -0.0023515422 0.001857121 -0.0006059795 0.0012867218 0.0014365898 0.00096943567 -0.00081428065 -0.0014161613 0.0005369152 -0.0024256983 -0.0024017668 0.00037353067 -0.0004563979 0.0016527675 0.0014682913 -0.00053699606 0.0008142982 -0.0024416146 0.0005618286 0.0024109308 -0.0014932136 -0.0013040946 0.0009370222 0.002076838 -0.00010289823 -0.0005174448 0.0024366663 0.00017213887 0.0013604148 -0.00022510806 7.1031514e-05 0.0011649029 0.00041881416 0.001879907 0.0011103707 -0.0021561435 0.0021592535 -0.0023838505 -0.00014762576 0.0019666315 0.0013667623 0.0010594013 0.0022930298 0.0001455962 0.0018552642 0.0019736981 -0.001120649 0.0013848493 0.0009923576 -0.00079792447 -0.0014818934 0.0023466444 0.00044974493 0.00030662026 -0.0010364397 0.001937067 0.0024833505 0.0012086281 0.00023665752 0.0023541532 4.8956676e-06 -0.0016707059 -0.000805187 -0.0009138542 0.0013528551 0.0012418389 -0.001635996 -0.0025085397 0.0015228305 0.0009668019 -0.00077625725 0.00063875946 0.0021157444 0.002135392 0.0024834422 -0.0016407582 -0.00076546974 0.0023219709 0.0012141104 0.0003246695 0.0018141575 -0.0019412788 0.0021995283 0.0021522879 0.0020715068 -0.00051505986 -0.0019742418 0.0019136134 0.0005187635 0.002432274 0.0011673679 -0.0011561172 -0.0010179215 -0.00049308507 -0.0018107219 -0.0014504052 0.0019319612 0.0024192163 0.00019003573 0.001274484 -0.001008616 -0.0002187416 0.0023162367 0.0019883066 0.0015359485 -0.0023825138 0.0002091941 0.00034011656 0.0017531087 0.0022368748 -0.0014172891 -0.0021388123 0.0009500659 0.00019212221 0.0010129097 0.0024623384 0.0007938445 -0.0012453048 0.0021622481 0.00029377616 -0.0014495794 0.00047352005 0.0014129535 -0.000708314 -0.00035173498 0.0015978835 0.001294653 0.0012010838 -0.0004279941 0.002300759 -0.0016950129 -0.0024160815 0.00034048653 0.002027338 0.0014501069 -0.0019525412 0.0008179509 -0.0016451901 -0.0024148996 0.00035696832 0.00068419834 0.0009556872 -0.0015208769 0.0024754927 -0.0014565208 -0.0009571157 5.7419053e-05 -5.5612614e-05 0.0025030458 -0.00052965153 0.0017039088 -0.0010512569 -4.8379356e-05 -0.0002755305 -0.002374909 0.00076415966
tisa 9.326522e-05 -0.0004220348 0.0025097379 0.00097397517 -0.0021055753 0.00047767573 0.0019159975 -0.0023269083 -0.0023587053 -0.0024858448 7.014049e-05 0.0005696134 0.00030487755 -0.0012650945 0.0014849404 0.00091723975 -0.00040963248 0.00023935786 0.00024934075 0.0017903293 -0.0003750282 0.001370369 -4.58339e-06 0.00043456905 -0.002503806 -0.0013246549 -0.0003481181 -0.002357214 -0.0022587841 0.0021232383 -0.00092254294 0.0011538287 0.00064822054 0.0005253665 0.0010567094 0.00011126991 -0.0012477983 0.0016452869 -0.0006765989 -0.0020499881 -0.0017877856 0.0013147959 -3.966919e-05 0.0006788759 -0.0008658301 6.9464964e-05 -0.001444131 0.00081288506 -0.00077867217 0.00023343047 0.0012669124 -0.0017083806 -0.0024568343 -0.0012352895 0.00072771066 -0.0007952645 -0.0013487531 0.00081033056 0.0017055619 -0.00024604655 -0.0009192397 -0.0002689897 -0.0012980254 -0.00016369559 -0.0008616627 0.00035563568 -0.0016186389 -0.0011590814 -0.0008072259 -0.002329697 -0.0007084604 0.0011533775 -0.0019088313 0.00023700607 0.0016664388 -0.0015826852 0.0022550954 -0.0014289394 -0.0006675914 0.0025512918 0.0009784243 0.00029040207 -0.0008150537 0.0010292125 -0.00033012396 -0.0018220191 -0.0007673199 -0.00028381532 -0.0008375783 -0.0008268947 -0.002225053 -0.0019129694 -0.001892037 -0.002055829 0.0022305208 -0.0017905743 -0.0009551321 -0.0010136241 -0.00036119876 -8.673227e-06 0.0017990165 -0.00085264194 -0.0015310872 0.0018436486 0.0011519152 -0.0007862654 0.0012273662 -0.0002504913 -0.0005815433 -0.00041266752 -0.00090138766 -0.0015909146 0.0020221716 0.0017439298 -0.0013390118 -0.0023636057 -6.241435e-05 -0.0018412411 0.0016041906 0.0024811106 -0.0005649458 -0.0022858353 -0.0025617883 -0.0017246518 0.0006707003 -0.0005637058 0.00023064959 -0.0016657346 -0.00043977876 -0.0009371471 -0.00090331666 -0.00019772304 0.00228325 0.0016357244 0.0005875279 -0.0006835253 -0.0013867966 -0.0016953645 0.00029664868 -0.002503443 -0.0017325385 0.0015893398 -0.001500131 0.0009825173 0.0013482728 -0.0010304867 0.0018736279 -0.0008136646 -0.0013361133 -0.00030635676 0.00016680386 -0.0015492159 0.0014616254 0.0021569754 0.0008758642 0.0020673268 0.0015414592 0.00036223876 -0.0016414728 0.00032505402 -0.0014163652 -0.0023533255 -0.0012901378 -7.5465614e-05 -0.0015750416 0.0008350004 0.0011849537 -0.0017440524 0.00051423965 0.0008095271 -0.0008042341 -0.0024227158 -0.0013872563 -0.0017129275 -0.0015112873 0.0019423028 0.0010408014 -0.0016371735 -0.0022786676 -0.0016413364 0.0021058677 0.0010950133 -0.001219642 0.0019068884 -0.0017046313 -0.00032930408 -0.0011771818 -0.000114050206 -0.0013245703 -0.0015494744 -0.0010817067 0.0017057366 -0.0024693327 -0.0015744857 0.00042844712 -0.0021728675 0.0013017249 -0.0024614178 0.00031287945 0.0014975436
wiki -0.00229695 0.0007720997 -0.0016694928 0.002381705 0.0013966479 0.0011796548 0.002446328 -0.0020620718 0.001977719 -0.00024356385 -0.0012142262 0.0013285652 -0.0012134067 0.00073957996 0.00022725252 0.0024188636 0.0018992636 -0.0022932603 -0.0017624638 0.0016088064 -0.0011988985 0.0023178763 -0.00053795736 0.0003281212 0.0019514598 -0.0024510217 0.002101557 -0.0023688274 -0.00079534657 -0.002353195 -0.0020153513 0.0019594224 -0.00011501722 -0.0020155653 -0.0014108684 0.0007823808 0.0012158605 0.0017456283 0.0010700794 0.0011923324 -0.0020903205 0.0022124376 0.001423999 0.00036133634 0.00023888395 0.0010080682 8.739714e-05 -0.0021501938 -0.00017608791 -0.0019216057 -4.617147e-05 0.0017243613 -0.0017239843 -0.0014992442 -0.00043104362 -0.0021244418 -0.0018990971 -0.00011446197 -0.0013565756 0.0008543737 -0.0022923136 -2.5188434e-05 0.0011538351 0.0019946098 -0.0015309495 -0.00033923954 0.0015981462 -0.0023794787 0.0016909632 -0.0009710463 -0.001014553 -0.0010122614 -0.0023903127 -0.0013852827 0.0016325348 0.0018491342 -1.0582684e-05 0.0018107287 0.001004058 -0.0013927241 0.0020552569 -0.0012503013 0.00030666168 0.0022568025 -5.355133e-05 0.0021396442 0.0020527125 -0.0023264855 -0.0021707308 -0.0003501124 0.0010793937 -0.002339046 -0.00032835713 0.0024166661 -0.0006582044 -0.0024039866 -0.0008619018 0.0005952522 -0.001526839 0.0020628644 -0.0020193646 0.0023879122 -0.00086762407 -0.0019743105 -1.8184463e-05 0.0019543618 0.0020999834 0.001635233 -0.0014667963 -0.0014331593 0.0015483386 0.0008110418 0.00081025454 -0.0017952713 0.0009449063 0.0015933607 -7.519508e-05 -3.6586458e-05 -0.001537523 -0.0014139035 0.0016246343 0.00036672482 -0.00042392046 0.0024267433 -0.0007664389 -0.0020586515 -0.0021218057 -0.00087542285 -0.00049582287 -0.0008690449 0.0023630033 -0.0007546901 0.0024068991 -0.0007872465 -0.00055246544 -0.0019314818 0.00071597466 -4.9751012e-05 0.0023567716 -0.0020132908 0.0020304434 -0.0016229865 -0.0022763142 -0.0017096469 -0.0023737578 0.0018502129 -0.0015197078 -0.0009833194 -0.00078173494 -0.0009896206 0.0019855474 0.0006380677 0.000927071 -0.0016741238 0.0019037409 0.0024542187 -0.00025939505 0.00047313602 0.002473299 0.0018113987 -0.0013737874 0.0008685036 0.0016729541 0.002339017 0.0009010464 0.0023080641 0.00043562925 -0.00048278173 -1.3729253e-05 0.0016628653 0.00231054 0.001676767 0.00089734537 0.00056427764 -0.0013551067 0.0021851817 -0.0020185167 0.0013628079 0.00022253577 -0.002166663 -0.000546421 -0.00066979136 0.0012472301 -0.0021374258 0.00010020195 -0.0010265318 0.0012414829 0.0014778478 -0.0013837288 0.002414961 0.0005096679 -0.0021025133 0.0014232304 -0.0018319933 0.0023889935 -0.0016167195 0.0011814139 -0.0020840222 0.0016525553 -0.0015996912
kesi -0.00021489128 -0.0015387671 0.00055177294 -0.0020138868 -0.00025952223 -0.001276801 -0.0024778931 0.0017986691 0.00242058 0.0022429342 0.0019072442 -0.00020856186 0.00061025494 -0.00018383596 0.0003403152 0.0011361857 -0.002173997 0.0003308844 0.00080329465 7.373456e-05 0.002081168 0.0013369555 0.0018104274 0.0003504385 -0.0015753824 0.0005103295 -0.0014303031 -0.0018257707 -0.0015375183 0.0018268311 -0.0003689358 0.0002484084 0.00236887 -0.0016659717 0.001749608 0.0005687373 -0.001898041 -0.00162056 -0.0021333657 3.7455123e-07 0.0004185074 0.00013014686 -0.0016948901 -0.0004404584 0.0023061382 0.0025045106 0.0021891766 0.0012233853 0.00034656594 0.0019245141 0.001984155 0.0003118661 0.0013298757 -0.0012895914 -0.0014809818 0.00019804451 0.0017336258 -0.00193347 7.636507e-05 -0.0016442308 -0.0019381739 0.00095706806 0.001983071 0.0010355455 -1.957091e-05 -0.00065038085 -0.0008792496 3.2673062e-05 -0.00037163953 0.0017105055 -0.00033266406 -0.0018428765 -0.0014809115 0.0020273426 -1.7798724e-05 0.0002430702 -0.00018413612 -0.0023517495 0.0002787586 0.0017786009 0.0023290222 0.0001360199 -0.0022187354 -0.0018510458 -0.0023289965 -0.00091299706 -0.0006434282 -0.0017100157 -0.0008486537 0.0021751923 -0.0024576169 0.0016742438 0.00051885523 -0.0010227924 0.00015294076 -0.0010032157 -0.0024232366 0.0015807115 -0.0007608808 -0.0021603124 -3.5282952e-05 -0.002513306 -0.00016591654 0.0020681103 0.0019166836 -0.0019112742 -0.0015485429 0.0011638216 -0.0017452326 0.0024662972 -0.00024406868 -0.00019042254 0.0014075736 -0.002131319 -0.0008066229 0.0010170473 -0.0008122809 0.0006221944 0.0014175983 0.0007205776 -0.00091623503 0.0008704208 -0.0020996735 -0.000385371 0.0015517491 -0.0004411544 -0.0020845279 0.00031281353 0.00037610368 0.0023554114 0.00085100374 0.0021714203 0.0015918977 0.0015550522 -0.0023292203 0.0007486115 -0.0018041536 -9.2743576e-05 0.00046279188 -0.0024630867 0.0014889202 -0.0011274929 0.0017020721 0.00010561191 -0.002439149 0.0013502653 -0.0010814149 0.0019216245 0.0010409341 0.0010236993 -0.0024556986 -0.0019657847 -0.00088258035 0.0020787416 0.0012458031 0.0017330411 0.0014246015 0.0014682678 -0.0017816907 -0.0021644067 -0.0016081615 0.00039884754 0.0001236486 -0.0015864178 -0.0021152375 0.0018006072 -0.0022572037 -0.0015359903 0.0020920357 -0.00030659657 0.00022008947 -0.002273022 -0.0007671559 -0.0010752091 -0.0016900965 -0.00071727776 -0.001024712 -0.002041951 -0.0008987617 0.00011725391 0.002118794 -0.0008405722 -0.0019864049 0.0012364207 0.0020467879 -0.0015754543 -0.001653246 -0.00012078519 -0.0014212204 -0.0015531353 0.0023020098 0.0023549427 -0.0009723356 -0.00043418558 -0.00096354634 0.002040589 -0.0017784083 0.0013276923 -0.002107056 -0.0003117122
serikali 0.002526627 0.0006344642 0.0016673818 -0.0010046015 0.0024085166 0.00016745538 0.00063637056 -0.0018561381 0.0012522232 0.0013499202 -0.00031125167 0.0020684549 0.002063124 -0.0014525991 0.0009388082 -0.0015633382 0.0010149607 -0.0001027843 0.0005975127 -0.0020387883 -0.0015846008 0.0023206028 -0.0015564648 0.00097365247 -0.0009542634 0.0023423904 -6.0648195e-05 0.001847975 8.466551e-06 0.0017998719 0.0016899718 0.0014656408 -0.00043334565 0.000944499 0.0013772823 0.0018244936 0.002298922 0.0024435055 -0.0005735916 0.00068136107 0.0010940837 -0.000386522 0.0010099479 0.0016606543 0.0019122969 0.0016559493 -0.0023056318 0.00023920543 0.0009079696 0.0002603669 -0.0024076586 -0.0024465714 0.00044470874 -0.0013347667 8.7940425e-05 -5.367889e-05 0.0017224592 0.0018544146 0.0015849926 -0.002098126 -0.00078978034 0.00068450416 -0.0017570035 0.0022038952 0.002359649 0.001397984 0.0015687385 0.0010005023 0.001510498 -0.0003452469 -0.0010707938 -0.00022459491 -0.0013085792 0.00019921796 0.002431994 0.0014905983 -0.0016448554 -0.0014369786 0.0005867105 -0.0007917123 -0.0018439916 0.0022586484 -0.00015266014 -0.0024707876 0.0019998008 -0.00026865312 -0.0017445823 -0.00062435673 0.0007496622 0.00012268916 0.0015609075 0.00069841533 -0.0018889735 0.0015606801 0.0018508816 -0.0015033799 -0.0018752238 -0.00037070867 -0.0024967731 -0.00021691568 0.0007388625 0.0011255416 0.0019716485 0.00051683054 -0.0014687799 -0.00013796818 5.0975785e-07 0.001459877 -0.0013430285 -6.7847126e-05 -0.0003759102 0.0024079904 0.00081192283 0.0015083023 8.295719e-05 0.00046719564 -0.0013783199 -0.0010718604 0.0010337288 -0.0020949019 0.00022656248 -0.0011556722 -0.00077436765 0.0008221455 -0.00040369167 5.4570613e-05 0.0017406396 -0.0005229788 -0.002000799 -0.0011027406 -0.00062188774 -0.00072117307 0.00037839502 0.0019195015 0.001525855 -0.00017959048 -0.0011939358 0.0013446205 -0.0020166652 -0.002015014 -0.0023700579 -0.00031458645 -0.0014336776 -0.00030416576 3.974145e-05 0.0020634339 0.00088443427 -0.0022463908 0.0011055907 0.0008182996 -0.001777838 0.00037599695 0.00012453529 0.0011643609 0.0017102628 -0.0012725659 0.0018218646 0.00039828557 -0.0016456959 0.0021558227 0.0018473112 0.00094010786 -0.00025506184 1.2245837e-05 0.0011300052 0.00162245 0.001803158 0.0020776356 0.0014984539 -0.0022944731 -0.0008774642 0.00032030538 -0.000493713 0.00019880857 0.001977667 -0.0018998879 -0.00017426138 0.0022758076 -0.0012657677 0.0015932553 0.0001276795 -0.0022988524 0.0020298697 0.002358316 0.0018933575 0.00046112415 -0.0022355183 -0.0002095558 0.00058462966 0.00058607414 0.00028715734 0.00089502597 -0.0004746275 0.0025473393 0.0021155262 -0.0016438076 0.0007552571 0.0007271068 0.000295871 -0.00078220194
gezaulole -1.2068557e-05 -0.00032303718 -0.0015252057 0.0021725644 -0.002076219 0.0005632285 9.8864235e-05 -0.0019860868 0.0019282328 -0.0018030837 0.00018778359 -0.0015427261 -0.0015338095 0.002417315 0.00028801148 0.0005192739 -0.00057744095 0.002539057 -0.00070466264 -0.00040873533 0.0016908576 0.0023224074 -6.513177e-05 -0.000998229 -0.00036270352 0.00090625655 0.00017458908 -0.00026639007 0.002069639 -0.0022626175 0.0018973133 -0.0024591282 0.0018506165 0.0009963653 -0.0005072283 0.0007052858 0.00030391937 0.0019151254 -0.00068385387 0.0015743832 -0.0018152463 0.0014818806 0.0022956675 0.0021154762 0.0022530686 -0.0009818389 -0.00026818854 0.0023465848 9.1958034e-05 -0.0015977096 -0.0011679729 0.0021750052 0.002011965 0.0019642457 0.00061163085 0.00015652463 0.0021627254 -0.001657566 -0.0008138719 0.00063305884 0.0025612842 -0.00013986588 0.001248028 0.00047842457 0.00032987157 -0.00074681046 0.0012012058 -0.0017193721 0.002411244 -0.00074401876 2.5949439e-05 0.00071571936 0.0012570786 -0.0011128031 0.00037889913 -0.0006294644 0.00032890757 -0.00037685278 0.000549277 0.0020169842 0.0017764943 -0.0013705574 0.00062923995 -0.0013437303 0.0006339996 0.00052359124 4.3247375e-05 0.0011098789 0.00089901226 -0.0014887381 0.0005064794 -0.0012882297 -0.00043024012 0.0023097787 0.00032652408 -0.0016987312 0.0016667981 0.0025302938 0.0024344497 -0.0012538063 -0.0015549153 -0.0014130471 0.0004429223 0.0011000461 -0.0022803708 0.0011518488 0.0014293395 -0.0006642145 -0.00047324033 -0.0023245383 0.002471354 -0.0013080643 0.0012237449 -0.00068352494 0.0013315099 0.0005182313 0.0011397259 0.0019441696 0.001344249 0.0013811801 -0.0015429276 -0.0007323937 -8.9633366e-05 -0.0021455511 0.0024215207 0.0018919103 0.0019638964 0.0015769454 0.0011627626 0.002335335 0.0022528656 -0.0011578847 -0.0013839172 -0.0013676836 -0.0010181477 0.0017899758 -2.831942e-05 -0.0017583347 -0.00036501948 0.00031476538 0.0025229878 -0.0007785659 0.00035052333 -0.0007739477 -0.0012603586 0.0012173494 -0.00077125157 0.001014056 0.0020874138 0.00036250846 5.726393e-05 0.0013526836 -0.002509657 -0.0014492418 0.00086241943 0.0005517855 -0.0019364443 0.00040531118 -0.00057164795 -0.0018145852 0.002041922 -0.0016545728 -0.0017682717 0.0024868108 -0.0023845166 0.00052622997 0.0009381048 -0.00041564766 -0.0017677075 0.0016204066 -9.778541e-05 -0.0020512464 -4.714144e-05 5.3051936e-05 -0.000294378 0.0023422958 -0.001702021 -0.0005668367 0.00076679484 -0.0014876351 0.00093153917 -0.0014181255 -0.0006753749 -0.001757229 -0.00039170083 -0.0017310178 -0.000931495 0.0021281526 -0.0016587513 0.002154187 -0.0023419615 -0.000889047 -0.0007564913 -0.0003961677 -0.0018733131 0.001665705 0.0002746962 -0.00024816816 0.002160798 -0.0012553317
