542 200
UNK 0.002187012 -0.0017992408 8.88102e-05 -9.679446e-05 -0.0020121683 0.0022296445 -0.0017446019 -0.0014233001 -0.000641163 0.002642408 0.0019134663 -0.00081631774 0.0019878324 -0.0022122087 -0.00031991967 -0.0018198004 0.0010387002 0.0018778926 0.0020225171 -0.0011741231 -0.0008011164 0.0016906305 0.0012848604 0.0006981656 0.0015909254 -0.00012054625 0.000110475674 -2.5325484e-05 0.00082301366 0.0020616548 0.002471726 -0.00052397244 0.0007613192 0.0020328064 -0.00012707635 -0.0016073048 -0.0012788516 0.0003902866 0.0017262029 -0.0017231503 -0.0023306985 -0.0024791248 -0.0017486825 0.0003262081 0.0022666336 -0.0015209145 0.0019151061 -0.0010860141 -0.0004834044 0.0006583934 3.751933e-05 0.0021225943 0.00073018187 0.0013286311 0.0024941396 0.0014794435 0.0006863122 -0.0011595875 -0.00010323373 -0.0020025393 0.00056303374 0.00218776 0.0024136284 0.00078352366 0.0016927914 -0.0007419438 -0.0014402604 1.4038183e-05 -0.0024379576 -0.00071918464 0.0010892475 0.0016967716 0.002148413 0.0022154925 0.0013754518 0.001958744 -0.00213488 0.00077660504 -0.000892612 0.0020319019 0.00047429037 -0.00031840143 -0.0004580059 -1.9965373e-05 0.00050488964 0.0013582079 -0.0008031405 0.0021970829 0.0021812245 0.0011590035 0.0021205838 0.00094391254 -0.0017258103 0.0022002398 -0.0011884243 0.0023934261 -0.0006413154 -0.0020011722 -0.0021116133 0.00016316173 -0.0013772544 0.00045465206 -0.0019537064 0.0023235374 -0.0005212455 -0.0023547667 -0.00023040044 0.0010352092 0.002058691 0.0021708773 -0.0002534697 0.0006546134 -0.00077933585 0.0023172952 -0.0022628112 0.0010291527 0.0005596055 0.0023053065 0.0025482068 -0.0016883563 0.0023586848 -0.0022961334 0.002491128 0.0005510953 0.0013824461 -0.0018095695 -0.0013227869 -0.00035019201 0.001584473 -0.001217733 0.0010986483 0.0021583964 0.0010596951 -0.00023068457 0.001980374 0.0009868832 -0.002503742 0.002357374 0.0018091137 -0.0019086347 0.0012688128 -0.002399413 -0.0017863926 0.0016717764 0.00014016432 -0.0012655355 0.0019628915 0.0020207458 -0.0011252114 0.00020294022 -0.0023471103 0.00047965907 0.0008577772 -0.002254917 0.0003690056 -0.0019611686 -0.00063735916 0.0006969025 -0.00070758787 -0.0007842171 -0.0011242123 -0.0016853565 0.00021383708 0.001379911 0.00087172585 0.0014523491 0.002087643 0.0016314662 -0.0002819983 -0.00095456844 -0.0006122615 0.0012263145 0.00019129901 0.0021726473 0.001934585 -0.000107798005 0.0011232455 0.0015297738 0.0008429112 0.00081782823 -0.0019650585 -0.0015747495 -0.00046266848 0.0016179566 0.0019396084 0.0015174838 0.0016584113 -0.0023000445 0.00054393767 0.0012766031 -0.0016558998 -0.0018476642 -0.0015844299 -0.0013431677 -0.000916021 -0.00058957166 -1.1919857e-05 0.0014217172 0.00068032416 -0.0011731838
mahakama -0.0015603262 0.0013558285 -0.0010889468 0.00069930946 0.0022886544 2.1220896e-05 -0.0019694527 0.0024539272 0.002095175 0.0021132266 -0.0016786259 0.0013777826 0.0005791036 -0.00062296627 -0.0004881235 -0.0016049132 -9.289581e-06 -0.0013194996 0.0015261719 -1.6326885e-05 -0.0024735485 0.00095327 0.0012118743 0.0006770131 -0.0020422176 -0.0017038325 0.00070764776 0.0007380904 0.0014029389 0.00030730915 0.0012630506 0.00035552034 0.00056053535 -4.166923e-05 0.0020889102 -0.0011071236 0.002250217 0.00036349884 0.00056261296 -0.00041879606 0.00132217 0.00040308898 -0.00016841134 -0.0014888505 -0.00069973094 0.0006535646 -0.00065165875 -0.0014787586 0.0010821293 -0.0018707018 -0.00032048897 -0.00088974193 -0.00047650622 -0.00019353953 0.0017604172 0.00039483837 0.0016886089 0.0007483818 0.0011277887 -0.001978286 -0.0021309322 -0.0005610699 -0.0011943597 -0.00076393055 0.001751738 -0.0019029018 0.001589054 0.00025512595 0.00040503754 -0.00043573315 0.0002315693 -0.00027999116 0.0010804782 0.00069771416 -0.00041375015 -0.0017222579 -0.00207929 -0.00096471887 -0.00034707875 0.00013617963 -0.001885012 0.00047719007 -2.3912624e-05 0.00232092 -0.0019758716 0.0004744307 0.0016568212 0.0005355186 -0.0010391753 0.00055618165 -0.0010147186 -0.00239262 0.0018844883 0.0010154552 0.0008109038 -0.0010769083 -0.00051494455 -0.00085093855 0.00015470659 0.0016632493 -0.0009850502 -0.0005457002 0.0007285285 0.0005509697 -0.0025082554 0.00027124863 0.002335767 0.00015002367 0.0002964929 0.00043077028 0.00061045674 -0.0018599717 -0.0011610163 0.0007304125 0.0006208955 -0.00035262824 0.0012266138 -0.0005000586 -0.0019818991 -0.0017851 0.00039339653 -0.0011317614 0.002441546 -0.00015646077 -0.0009886227 -0.00035512904 3.32939e-05 -0.000823971 -0.0008659247 0.0010524285 0.0013327046 -0.00049412687 -0.0010877097 0.0010769556 0.0012611517 0.0013213283 0.00035528725 0.00197605 0.0023638355 -0.0021520685 0.0022844546 -0.0005821631 -0.0012867696 7.511032e-05 0.0023123324 0.0009509294 -0.00033571915 -0.0005944273 0.001227132 0.001141381 0.001067454 0.00044238128 -0.001623968 0.0025111274 0.0012787704 0.0001717691 0.0011281829 -0.0013502846 -0.0005932836 0.00010561844 -0.001981478 0.0018037566 0.0020122153 0.0015940927 0.0022456287 -0.0005849167 -0.0025274165 0.0015843338 -0.0001950191 -0.0013124765 -0.0025752794 -0.00036275896 0.00045974326 -0.0015787798 -0.0012204414 0.0005291438 5.3367283e-05 0.002189495 -0.0011155005 0.00051442394 0.0011486368 0.0016627468 -0.0011670265 0.0014345124 0.0006925672 0.0016675229 5.1760402e-05 0.0013642393 -0.00048241855 0.0004328442 0.00061367475 0.00034664973 -0.0011862451 0.0019308984 -0.00062545727 -0.0010032627 0.00055905106 -0.0005589683 0.0010448084 -0.0017068431
alisema 0.0009912229 0.0017609177 0.002358717 -0.0024569724 0.002293336 0.0015756692 -0.0024346306 0.0012885202 -0.000802588 0.0009679889 -0.00036097318 -0.0016177355 0.00096862967 -0.0010328626 -5.729991e-05 -0.0014131377 -0.001523475 0.0015614446 0.0017681445 0.0011028993 -0.0020754805 -0.0013511159 -0.0001837617 -0.00053484424 0.0015947665 -0.0018323495 0.0011273155 -0.0023060204 -0.0024630441 -0.0019548598 -0.0021451334 0.00046467409 -0.00063380983 0.001446132 -0.00043434594 0.000924501 0.0011145308 0.00011744807 -0.0013090522 -0.00013457627 -0.00067515555 0.0010108595 -0.0021470631 -0.0009878554 -0.0019213445 -0.00051470776 0.0001742198 -0.002033927 -0.0014108022 0.00011882359 -0.00078049523 -0.0012399597 0.0010520599 -0.0007344909 -0.0012503724 0.0019285411 -0.0018991277 0.0007868799 -4.011861e-05 -0.0017071589 -0.0015754468 -0.0024011373 -0.00025205087 -0.0022630596 -0.0020840694 -0.00054661784 -0.0021831398 -0.0022178912 0.0022975265 0.0013109653 0.0022681954 0.000118291115 -0.0023346997 -0.0017127903 0.0013004228 -0.0005179502 0.0007936705 -0.0019252036 0.0021209274 -0.0005643972 0.0017715691 0.000116833166 -0.0012065952 0.0017457752 -0.001146033 0.0020330562 0.0016794541 0.0010571722 0.0016635386 0.000746908 0.0013151811 -0.0016593316 -0.0009300113 0.0016834777 -0.0006933885 0.0011903269 -0.001655663 0.0023934366 -0.0025462126 0.0013442255 -0.0019866726 0.0012423829 -0.00055583694 -0.00048537643 0.0021261137 -0.00051001395 0.002417798 0.0019451812 -0.001766356 -0.0004936696 -0.0007362208 0.0016279175 0.0016276033 0.0019808593 -0.0014062206 0.00053883606 0.0020703708 -0.0010582224 0.0024738645 -0.0020964632 0.0002523393 0.0012160755 0.0013543434 0.00023113548 -0.0008049537 0.0024759832 -4.5749573e-05 -0.0015600461 -0.00090896856 -8.104886e-05 0.0011425057 0.002190947 -0.0018936609 0.002201924 -0.0010693886 3.4835682e-06 -0.0008571717 0.00010165785 0.0016747564 0.0018979278 -0.0006675481 -0.0011566048 -0.0002758349 -0.0021220562 2.9421479e-05 0.0014428715 0.0017761235 0.0019973516 -0.002001223 -0.0011057834 -0.0017995802 0.0007895789 0.00080038776 0.0022650245 0.0025740794 0.0010542121 -0.0007353225 0.00079207646 -0.0018524432 -0.0023107203 0.0021375273 -0.0015025045 -0.00170704 0.00032624544 -0.0008764634 -0.0014597673 -0.0011424202 -6.8263944e-05 0.0010289452 0.0014329389 -0.00032381408 0.0015952357 0.002325013 0.0023445725 -0.0007573902 -0.0013777077 0.0012828455 -0.0020119627 0.0010040061 0.0023026362 -0.0019672767 -0.0018210993 0.0022440115 -0.0014817466 0.0017269738 -0.002343341 -0.00033393907 0.0025018598 0.0020921624 -0.001727596 0.0018878003 -0.00019500552 -0.0024686644 -0.0023425093 0.0016540429 -0.001881594 0.001640471 -9.558637e-06 0.0014613732 0.0018894394
mvua 0.0024381473 -0.00015096528 -0.0001469103 -0.0016635902 0.0019310273 -0.0020686635 -0.00015706841 -0.0017499013 -0.0009221203 -0.00021054102 -0.00070077745 0.002296345 0.00024608104 -0.0007263962 0.00018553105 0.000520693 -0.0020265463 0.0020377766 -0.001996755 0.000875404 -0.0020378619 -0.00090033 -0.00077575434 -0.001803888 -0.0013185489 0.00021723223 -0.0016489335 0.0020360185 -0.0004070617 -0.0015209329 0.00017562273 -0.0006362472 0.0018510482 0.0012724317 -0.0020098698 0.0021896057 0.00087808137 -0.0015168848 -6.9433096e-05 -0.0024766892 -0.0020024294 0.0015904333 0.0022358415 0.0009626945 -0.0009685038 0.0017680939 -0.0018410836 -0.0009018776 0.00069108204 0.0010194121 0.0012193291 -0.00093972863 0.0013643967 -0.00034716222 0.0014314605 -0.0003434406 5.970173e-05 -7.437282e-05 -0.0011114376 -0.001413956 0.0011410508 0.0017690328 0.0016659758 -0.0014212428 -0.002111366 0.001976044 -0.0018184892 0.0021962814 -0.0022288293 -0.0020056407 0.0023785965 -0.0001996803 -0.0015694998 -0.0016385019 -0.0010732365 0.0023296333 0.0007655783 -0.0018918886 -0.000114628965 5.740785e-05 0.0022501354 -0.0020410905 0.0004102563 0.0023858817 -0.0019149514 0.0017852989 -0.00028481163 0.0009649972 0.0019564359 -0.0008944134 0.0003540318 -0.00019925216 -0.00026288707 0.0022042727 0.00029207673 -0.0015649664 -0.0014009568 -0.0021070219 -0.00046188012 -0.0005215194 8.234677e-06 0.001249556 -0.0024521525 0.0017519004 0.00048816454 0.0022959937 0.0016857901 -0.0023012483 0.0013728044 0.0024834594 0.000107118496 0.0018869936 -0.0010475604 0.0003576376 -0.00076570216 0.00010554167 -0.0007149804 -0.0017337702 0.0010397896 -0.001335138 0.0012332222 -0.00031997106 0.0009150479 -0.0008697402 0.0020336953 -0.0023001884 -0.00192161 0.0009840204 -0.0008342384 0.0018763762 0.0006925101 -0.00055866526 -0.0011348224 0.00010284326 0.0009951019 -0.00073324185 0.0009789184 0.00011760588 -0.0006568234 0.00078677904 0.00050158385 0.00061186607 0.0006285104 -0.0018147178 0.0010195882 -0.0004212778 -0.002492034 0.00021596806 0.0004921317 -0.0017538575 0.001908543 0.00012354102 0.0007533491 0.00066916156 0.0002918091 -0.0010723358 0.002049527 0.0007197382 -0.0022031718 -0.0021367862 -0.0011605601 -0.0024909275 0.002066515 -0.0013089428 -0.002038534 0.0017894963 0.00024689847 0.0005476112 -0.0018983557 -0.0007151252 -0.0009680107 -0.00069502974 0.0016427919 0.0018188132 0.00064676994 0.0015587208 -0.0007310214 -0.0015610022 0.0016236653 0.001993806 -0.0024238033 -0.0010840103 -0.0022846342 -0.000620977 0.0012901144 0.0009650518 -0.0019178634 -0.0024076828 -0.0016799315 -0.0020770277 -5.3379856e-05 -0.0022007308 -0.0010675445 0.00041798176 0.00055603177 0.0016757284 -0.0011169732 0.0016006634 -0.0016402558 0.0020045552
mwaka -0.0008629414 0.00069418363 -0.0013120262 -0.0014676249 3.321183e-05 0.0014673619 0.0016323951 0.00088704925 7.686119e-05 0.00060193887 -0.0015253343 -0.0014959706 0.0007571179 -0.0006410916 -0.0018201759 0.0017174608 -0.0013204882 -0.0013537196 -0.0016663467 0.0020024749 0.0017505651 0.0022187615 -0.0013269435 0.0025053434 -0.0004341547 -0.00014117976 -0.0009941112 -0.0006769137 0.00045043422 -0.00096205674 0.0001198462 -0.0011837624 -0.0022425735 -0.0015739378 0.00074432755 -0.0011503713 -0.00075289106 -0.0014116063 0.0011472501 -0.00063308195 0.00024154279 -0.0023080558 -0.00093170366 -0.0004705612 -0.0024871472 -0.00021066463 2.076064e-05 -0.001668376 -0.0017982003 0.0020506722 -0.0012438656 0.0017629014 -0.0019999694 -0.0008661214 0.00074963836 0.001462894 -0.0013042599 0.0018718967 0.0024615775 0.0016448523 -0.00015338224 -0.00043263522 0.00061456504 -0.00051090616 -0.0021964184 -0.002381014 -0.0007651574 -0.0022695987 -0.0016991615 -0.0024552348 0.0015426138 0.0011669172 8.880683e-05 -0.0022026587 0.0021118717 0.002186761 0.0011975913 0.0022696073 -0.002327851 0.001977762 0.0012702595 0.0022189582 0.0025008263 -0.0003587787 -0.0009112784 -0.0016046608 0.0019912766 0.000543499 -0.0007095657 0.0015970427 0.0010881021 -0.0017805512 0.0024353585 0.0018773141 -0.00013677776 -0.00092862616 -0.0010498511 0.00084281835 -0.0001440054 0.0002036128 -0.0019033736 0.0011879859 -0.0021094668 0.0020168961 -0.0003377228 -0.0004677195 -7.611144e-05 0.0017540699 0.0017097694 -8.8819215e-05 0.001344318 -0.0019737622 0.001897558 0.0013431252 0.0019150012 -0.00018804411 0.001365785 0.0024066456 0.00084967975 -0.0013968293 0.0011841012 -0.0024143665 0.0006046252 -0.0024032423 0.0001642455 -0.001606984 -0.002285242 0.00076117244 -0.0025893329 -4.2389973e-05 -0.0019930566 -0.00038631825 -0.002113358 -0.0005858023 0.00084039784 -0.0023458858 -0.0016999232 -0.0021913573 -0.00016646968 0.0001796875 -0.0015832232 0.0011500807 0.00053197204 -0.0011482938 0.0018299764 0.0018775547 0.0020971221 0.00057102024 -0.00085795036 0.00032080727 -0.0013116933 -0.0024423134 5.5334083e-05 -0.001197985 0.0011039388 -0.0014820423 -0.0010814703 0.00032647105 -0.00034953156 -0.0010035557 -0.00030273024 0.0005458659 0.0018828528 0.0018174081 0.0011174461 0.00118045 0.0015083833 0.00074208976 -0.0014587293 0.0011331222 0.0003160012 -0.001770651 0.0007580023 -0.0011806185 0.0017604886 -0.0004498367 0.0021229163 0.0020213798 0.00088558195 -0.0010586877 0.00061733957 0.0016530786 0.001406221 0.001448604 0.0014539129 0.00074230315 -0.0016707999 0.0020151546 -0.0019623262 -0.00016917389 8.2859784e-05 0.0022840246 -0.001355833 0.0005487721 -0.0005055391 -0.0012580493 0.00023938183 0.0022964869 -0.0015568539 0.0008801978
rais 0.00036607814 -0.00074485136 0.00033304177 0.0017467785 0.00051336107 0.0023177618 0.0020050476 0.00016375561 -0.0008010514 0.0014020755 0.0023550207 0.0011082198 0.001368528 -0.0009662515 0.0019338104 0.0014103393 -0.0012686498 -0.00041495875 -0.000119524506 0.0011214452 0.0004778278 -0.0019896855 0.0021993583 -0.0012213249 -0.001868252 -0.0019738178 -0.0005138479 -0.000906385 -0.0021355909 -0.0020125825 -0.0011453235 -0.00026951535 -0.0014814631 0.0021258362 -0.00067539903 -0.0017637907 6.259836e-05 0.0014383032 -0.00082624506 -0.002235549 -0.0018270619 -0.0012088334 0.0017717723 0.0016367489 0.0016008248 -0.0004675392 -0.0017298865 -0.00031980392 0.0020738933 0.0010741657 -0.0022254768 -0.0014020328 1.6038013e-05 -0.002082329 -0.0016764294 0.00042682746 -0.0014620005 -0.0016004617 0.0020177288 -0.00063439657 -0.00030474504 0.0009807323 -0.0014482267 2.275313e-06 -0.0020656148 0.00043477074 0.00027384414 0.0020310686 -0.0009378877 -0.0017777854 0.0008963499 0.0022920643 0.00021781835 -0.0004545976 -0.001327954 -0.00062479597 0.0011123486 -0.0023687696 -0.0021712442 -0.0022456073 0.00090066006 -0.0024561614 -0.0012360137 -0.0009919327 0.0006844824 0.0012344816 0.0016892107 -0.0011037929 0.0018473509 0.0018821304 -0.0003807277 0.0018446818 -0.0018704003 -0.0017142835 -0.0005603362 0.00022993925 0.0011150709 0.0007135073 0.0015550846 0.0019270851 -0.0010331629 0.0012971037 -0.0021530176 0.00069803983 0.000107920634 9.457216e-05 -0.0012878742 0.0016378659 -0.00014997824 0.002438572 -0.0010870928 -0.0019658993 -0.0018768954 -0.0023625412 -0.00026222292 0.0017921745 -0.00037108036 -0.00063429005 0.0023633281 -0.0011572596 -0.0020588946 0.0021284719 0.0021797975 -0.0019468116 0.001876653 0.0003551259 -0.0005443523 -0.0016956478 -0.0011344892 -0.0018249608 0.0013675297 -0.0013961071 -0.0017117801 0.0015976776 0.0012850725 0.0012227374 0.0015400645 0.0021777842 0.00093427085 0.0011626207 0.002466268 -6.121492e-05 0.0014732945 -0.0012473725 -0.0010006988 0.0018828037 0.0024379443 -0.0019027056 -0.00054296345 -0.00022911282 0.0017036957 -0.0024453385 -0.0012878993 -0.0005343534 0.0024881095 0.0009521193 0.0024233784 -0.0007651763 -0.002460796 0.0001850271 -0.00018527167 -0.0006133114 -0.0009023957 0.0007170479 -0.00018284432 -0.0021212813 -0.00068287674 0.0012859649 0.00093763287 -0.00056263997 -0.0012326798 0.0007486482 0.0012865078 0.0017185308 0.0013845066 -0.0013250975 -0.0015116499 0.0011518941 -0.00050539436 -0.0009089479 0.00054350984 -0.0011375351 0.00043308857 -0.0015179969 -0.0018188058 0.001693955 0.001304433 -0.0011457055 0.0018877215 -0.0011922878 0.00057814835 -0.00017120027 -0.0007112125 0.0013166058 0.0013447776 -0.00021462703 0.0012794472 -0.0007197644 -0.0010982298 -0.0017506689
haki -0.0024356458 -0.0012917714 0.0012926304 0.0003340497 -0.00048365467 -0.0019214376 -0.0004204668 0.0021995045 2.913251e-06 0.0006920852 0.001734033 0.0013363117 -0.00043174063 -0.0011421132 -0.0016396771 6.1214676e-05 0.0013049592 0.0012043556 -0.0005427726 -0.0009833362 0.0011631794 0.001373584 0.0004834961 -0.0009697079 -0.0010487741 -0.0025035995 0.000924088 1.3006603e-05 -0.0016137755 0.00082573824 0.000938111 0.0020895414 0.002187062 0.0020014849 -0.0002554056 0.00039315398 0.0014466228 0.0006294204 -0.0005347828 -0.0009426254 0.0006769979 0.0020837293 0.00015413093 0.0011330668 0.0018574172 0.0017492144 0.00058148877 7.2406483e-06 0.0022237687 -0.0011757063 0.0023300312 -6.8013906e-05 -0.00017010106 0.00014119133 0.0022605301 0.0017852259 -0.00086197286 0.0011730426 0.00090540445 -0.0020332995 -0.0020573216 -7.008191e-05 -0.0023721685 -0.00067716674 -5.320258e-06 0.0013720595 -0.00046777257 0.0003666713 -0.0014778579 -0.0010615845 -0.0004510943 0.00054928 0.0018268276 -0.0014132783 -0.001826074 0.00072827924 0.0025537752 -0.0019743885 0.0023438951 -0.0010787837 0.00044094457 -0.0007490044 0.0017212775 0.00017537414 -0.0010917275 0.0012157263 0.001322792 -0.0007902634 0.00012369255 -0.0018249416 0.0011888065 -0.0006948509 0.0017534818 -0.00057189947 0.0023706374 -0.0014121885 0.0020575582 0.001998879 6.670286e-05 -0.0004972251 0.00075576233 0.0009307 0.0017512512 0.0021758964 -0.00094682164 0.0007076103 0.00081985653 0.0006436665 0.0008314282 -0.0019083774 -0.0021439425 -0.0023049053 -0.0003890428 -0.00036616778 -9.65569e-05 0.0017168551 -0.0017271633 0.0012137954 -2.3165281e-05 0.0011709306 -0.001181766 -0.00035215446 -0.0013436463 0.0012101309 0.0002536883 7.168447e-05 -0.0024749907 0.0024330143 0.00033745036 -0.0020064353 0.00083014724 0.00032221133 0.0016356258 -0.002175686 9.168347e-05 -0.0019118624 -0.0023004366 -0.001507108 0.0014710451 -0.0017121866 -0.00079126266 -0.0023419848 0.0016098128 0.0009449873 0.00067263655 -0.0023923186 0.0021600227 -0.00057591626 -0.00017513637 0.00060111086 -0.0011371588 0.00071779033 0.0017897814 -0.0014367244 -0.0011483525 -0.0017405723 -0.0010089843 -0.0010512746 -0.0009190484 -0.00025802545 -0.00078664307 0.0012512457 0.0017559341 -0.0024088135 0.00013583148 -0.00035768028 0.001294912 0.0012472087 0.0001154004 0.0018037817 -0.0001466711 -0.0008823116 0.0018481376 -0.0020581584 -0.0016145248 -0.00037368023 -0.0025157097 -0.00028213483 -0.00010464416 -0.0005906855 0.0015728268 0.00064951734 0.002124576 -0.00096130883 -0.0005547362 0.00011842897 0.0017299503 -0.0017748588 0.0016117477 0.0012262254 0.00037749484 0.00013712766 -0.00038468803 -0.0011679508 -0.0015202266 0.0001244131 -0.0007072258 -0.0021996945 0.002305021 0.001986916
taarifa 0.001343616 5.838956e-05 0.0015858344 0.0017021896 -0.0005560718 -0.001028006 0.00089489034 0.0013911173 -0.001119833 0.001229599 -0.0015294143 -0.0006236493 -0.000963614 0.0012986781 0.0020964572 0.0019494437 -0.0019704564 -0.002345948 -0.0015531076 -0.0007720769 -0.002055487 0.0018076749 0.00089862145 0.0002517051 -0.0010773405 -5.550186e-05 -0.001400011 0.0013642567 -0.0016304756 -0.00047106322 -0.0006748152 -0.00089257344 0.0017354429 0.001104752 -0.0016564602 0.0010594095 -0.0010683391 0.0017130385 0.00029535047 -0.0015665994 0.0018283532 0.0024071431 -0.0017188186 0.00025754876 -0.0023969554 2.1056516e-05 -0.0017652916 0.0024813898 0.0015781384 0.0023745794 0.0024444347 -0.00095406664 -0.001250808 0.0007381583 -0.0005850916 -0.0021081811 -0.00044827172 -0.0014697524 -4.6661742e-05 -0.002420488 0.001548621 0.0009545929 0.0020041522 -0.0023870985 -0.0014679842 0.0016181511 0.0015977536 -0.0011909585 -0.0009042004 -0.0014917696 0.0009263517 0.00033901003 -0.00043700112 0.0024551265 0.0004701597 -0.0020139 -0.00027353 0.0002497346 0.0015298537 -0.00040064647 -0.0019295609 -0.0005797914 2.250327e-06 -0.0010640031 -0.0007282142 0.001235925 0.0010369051 -0.002476161 0.0015021877 -0.0020999562 0.0010840642 0.0018190461 -0.0010352844 0.0012895229 -0.0011287618 -0.00063400675 -0.0021406051 0.00068746746 0.0019504979 0.0023056949 0.0010979914 -0.00036504125 8.6050364e-05 -0.0008971632 0.0023359298 0.0018352299 7.055966e-05 0.0019316905 0.00215419 0.0010605061 0.0007362738 0.0023506358 0.0020080889 -0.0019211016 0.001417616 0.0019359483 -0.0007392803 -0.0010895849 -0.00059245084 0.00077842124 -0.0011854683 0.0013331565 -0.0011358941 -0.002213383 -0.00030722245 -0.002405156 0.00081517186 -0.0007847454 -0.001975974 0.0024712542 0.0015766784 -0.00054370187 0.00034886503 0.0006976729 -0.0017055104 0.0014951251 0.0008423718 0.00014138178 -0.0023368488 -7.602067e-05 -0.00152436 0.0024231784 0.0010476506 3.926775e-06 0.0022976943 -0.0018334746 0.0009155415 0.001964666 -0.0011215424 -0.00091610476 -0.0010578914 -0.0023758474 -7.773359e-05 -0.00059776864 0.000517413 0.0015034575 0.0022146034 -0.00061200885 -0.0024735094 0.0003403346 -0.000981047 0.0009478927 0.002426586 0.0012268691 -0.0011682796 0.00034699135 -0.0009605036 0.00015079495 -0.000784428 0.0017492926 0.0014904283 -0.00075109425 -0.0015092042 0.00045297926 -0.00085634633 -0.0012379956 -0.0009366983 -0.0019426866 -0.002313375 -0.0011986624 0.00096567854 0.00030430814 0.00052243494 0.0015464089 0.00043286802 0.002104178 5.1688592e-05 -0.0016648527 0.0024288348 0.0022712152 -0.0005313187 0.0015501361 -0.00025020755 0.002435975 0.0012439048 0.0011613137 0.000788572 -0.0020650967 0.0018447707 0.0009196034
ambayo -0.001578968 0.0022484607 -0.0017104213 0.0022745335 0.0013772254 0.0024446466 -0.0011241174 -0.0003921815 -0.00218261 0.0014196819 0.00023176275 -0.0017961353 -0.0019649873 0.0005189552 -0.0011610356 -0.0019732236 -0.0002127882 3.332503e-05 0.0023838147 0.00074689207 -8.280087e-05 -0.00080159813 0.001263815 0.000713373 -0.00087884447 0.0019458998 7.993248e-05 -0.0021713956 0.0019083028 -0.0018476036 -0.0015397264 0.0006271264 0.0017424856 0.0012117672 0.002323783 -0.0004726339 -0.0020337019 -0.0007618929 0.002439405 -0.00043723008 0.0014097474 -0.00077939604 0.00038571213 -0.001435735 0.00037801787 0.0015864193 -0.0018298067 -0.0024886786 0.0014256622 0.0019432057 -0.00018505522 -0.00034052366 0.00080770475 -0.00083100336 -0.0016611544 -0.0008860391 -0.0023929095 -0.0005110346 -0.0013191678 0.0011752911 -0.0006883164 0.0020105944 0.0012163001 0.00035932034 0.00022595242 -0.00086364837 -0.00015562362 0.0007018144 0.0012392665 0.0008455426 0.0019234278 0.0018856613 -0.00072996964 -0.002165902 -0.0010397449 0.0012247269 0.0021329827 0.0005777662 -0.0007788548 0.0020079275 0.0014391965 -0.001173925 0.00165172 0.0011732471 -0.00042105556 -0.00028719005 -0.0020043475 0.00179798 0.0014382583 -0.001919704 -0.00029769918 -0.0013111099 0.0019904987 -0.00027798224 4.247326e-05 0.0018867288 -6.2947795e-05 -0.00093364547 -0.0020949154 -0.0011471533 0.0005404119 0.002503182 -0.0018463351 -0.0015631911 -0.00012283384 0.0017453479 -0.00090076966 0.0016185512 -0.00046904356 0.0015642402 5.947372e-05 0.0007615171 0.00021795236 -0.002283734 -4.3593478e-05 -0.0016693736 0.0017096469 0.0021582153 0.0017827824 0.0021843703 0.00010568903 -0.00047958276 0.00055834145 0.0006011981 0.00087539305 0.00038904496 -0.0024240399 0.0013917587 -0.0006645812 7.5131e-05 0.001256497 -0.0005397089 -0.0020991268 -0.00095090293 -0.0011473766 0.0012698837 0.0017682964 -0.0014336886 -0.0016470457 -0.0009986168 0.00058203656 0.0023459925 0.0013419321 0.00041093127 0.0021353706 -0.0021320046 0.00081505446 -0.0016638149 -0.0009687169 -0.0019833385 -0.002316574 0.0008690022 0.00023331359 -0.00157801 -2.4212554e-06 -0.0014284403 -0.002024032 0.0019244375 -0.001726852 0.0014467337 0.00039768056 0.002043835 -0.000639298 0.0018434369 -0.0011225385 0.000549412 0.0023732095 -0.0016601682 -0.0016859008 0.0015753146 0.0007197812 -0.0009908463 0.0018752945 -0.0019151 -0.0019123217 0.0018595598 -0.0019496795 -0.0024692426 0.0017001609 0.0005465888 0.0015259165 -0.0017076458 0.0019669503 -0.002381098 -0.0012808423 -0.00044885464 0.00038357466 0.00081706216 -0.0006438157 6.0920374e-05 0.0009888003 0.0022705738 0.0009045627 0.0011599672 -0.0016678161 0.0010996575 -0.00019279815 -0.00053870096 -0.0025477125 0.0015858454
majaji 0.0024763208 -0.00056203443 0.0011971553 -4.2182517e-05 -0.0013394734 -0.0002587484 0.002476893 -0.00023729992 -0.0023912804 -0.00015789481 0.002483649 0.0020011526 -0.0004652256 0.0015333149 0.0004352765 -0.0015587755 -0.0018129441 0.001846487 0.0010046525 0.0013501202 0.0014368125 -0.00070183456 -0.00080482406 0.00225956 -0.0011621413 -0.00042815536 -0.0012603084 -0.0009738861 -0.0020678332 -5.7947163e-05 -0.00025610902 0.0005223849 -0.00012141691 -0.0012003644 -0.0007097524 0.00030994316 -0.00016191397 0.0022571632 0.0010663298 -0.0016907658 -0.00089833996 -0.001234664 0.0022354426 -0.0016956559 0.0017801544 -0.0023873372 -9.81325e-05 0.00048825532 -0.0024792 0.0012494703 -0.0023367936 0.0010695538 -0.00069926 -0.00028284153 -0.0015188571 0.0021495635 0.0021463889 -0.00247262 0.0013430594 -0.0009030234 0.0015760615 -0.00055831583 0.0009869382 -7.3332e-05 -0.0009007091 0.00032744973 0.0019950955 0.0012685601 0.0017483607 -0.0019014124 0.002506157 -0.0008429095 -0.0011348313 0.0022727042 -0.0014063735 0.0011819385 0.0012595676 -0.0015118471 -0.0008861824 -0.0022436364 -0.0006105942 -0.0003772347 6.584264e-05 -0.002231159 0.0017926444 0.0024333543 -0.0004996205 -0.00067886093 -0.0015902745 -0.0024136216 -0.0021040651 -0.0004866028 -0.0003001794 0.0004791795 -0.000109400346 0.00057705736 -0.000506193 -6.0701495e-05 -0.00082702417 0.00075854815 -0.000238511 -3.583916e-05 0.0006010015 -0.00062945735 -0.0018127037 -0.002259376 0.00094557327 -0.00040611593 0.0013334461 -0.0018975146 -0.0016750558 -0.0007566882 -0.0008854106 0.0016578905 -0.00019197343 0.00025593862 0.000874018 -0.0008351038 0.0020254005 -0.002082298 -0.0016604962 0.0015234117 0.0013828158 -0.0005649318 0.0016597101 0.0022115817 0.0006442075 -0.0020757632 -0.00090823404 0.00025370976 0.0015357706 -0.0006829763 -0.00033119353 -0.0022028307 -0.0020264876 0.0019105197 -0.0023087128 -0.0017648899 0.0013327241 -0.0023343293 -0.0015069525 0.001748273 -0.001464299 0.00078839395 0.0014111197 5.178937e-06 -0.002319398 -0.00031349369 0.00053201115 -0.002354181 -0.0016191383 -0.0020486668 -0.0010445823 -0.00022719322 0.0023266224 0.0010470256 0.0004365307 -0.0017062473 0.0010355362 0.00039708297 -0.0013259434 0.0006468027 -0.0019741494 0.00215129 -0.0022531946 0.0024477737 0.0019705992 0.0006622756 -0.001895486 0.00034566163 -0.001042611 0.0010778026 -0.0017600195 0.001135108 0.0011689379 0.001143816 0.0010237112 0.0010715385 0.001191947 0.00018394389 -0.00085214275 -0.00044008408 -0.00095776207 -0.0019656548 0.0010563125 -0.0005891405 0.0022827394 0.0009810615 -0.0007724941 -0.00061835686 -0.0018301109 0.0023439205 -0.00013764125 0.0013819021 -0.0009313168 -0.00023668815 -0.001546127 0.0021420557 -0.0005816774 -0.002201047
kennedy 0.0021293066 0.0014181581 0.0010501496 0.00075778004 0.0008655513 6.900279e-05 -0.000724778 -5.6743847e-05 -0.0005484984 -0.00073056825 0.0009785575 -0.0023324445 -0.0018034419 -0.00092269876 0.0018530942 -0.0018165918 0.00032792988 -0.002437411 0.0022912708 -0.0023985999 0.0009977269 0.001164418 0.00053413404 -0.00025121018 0.0007696113 -0.00070578937 -0.0019797292 -0.0016500233 -0.0008570149 0.0017123934 -0.0012630817 0.0021707262 0.00029041915 -0.0014182292 0.00065797527 -5.1406634e-05 0.0022476232 0.0020371578 -6.532312e-05 0.0012029646 -0.0009320819 -0.00082182075 -0.0011825962 0.0004286683 0.0017446317 -0.00041120595 0.0022908123 0.00082090544 -0.0020374209 0.0005317183 -0.0013132839 -0.0024953408 -0.00070980884 -0.0022996187 -0.0010035211 0.0013744648 0.0007409071 -0.0020924027 0.0017568754 0.0004871998 -0.00086645875 -0.0009212776 -0.0014315685 -0.0022650657 -0.0023821325 0.0013375597 0.0012891283 0.0018103359 0.00051661563 0.0024829414 0.0018264904 0.0003761422 0.0020361901 0.00014113057 0.00032127465 -0.0024490485 0.002272926 -0.0018151451 0.0010799464 -0.0015693473 0.0008700258 -0.0023174677 -0.0013126093 -0.0023994194 -6.125971e-05 -0.0007959106 0.00145799 -0.00065030577 -0.0018281542 0.0009332609 -0.001420031 -0.0016149615 0.0023824358 0.0011674035 -0.0018796824 0.0024957703 -0.0011966097 0.00030172375 0.0010374809 -0.0012738561 -0.000569972 -0.0012390182 -0.00077178236 -0.0011377897 -0.0009686072 -0.00044115804 -0.001163875 -0.00011507254 -0.0009062115 8.4493004e-05 -0.001337687 0.00037457736 -0.00089835323 0.002057025 0.0011484284 -0.0010369809 -0.001868279 -0.0022823648 -0.0003261936 -7.4358744e-05 -0.001414437 -0.002232039 -0.0016611353 -0.0002328358 -0.000693608 0.0017429854 0.0018650435 -0.0025070203 -0.0020743269 -0.0023793906 0.0023799706 -0.00079500343 -0.0009139982 -0.00065086957 -0.0024621077 0.002272513 0.00050252245 -0.0007077679 0.00071843906 -0.0018028442 -0.0006517187 -0.001109028 -0.00013347456 0.0023881653 0.0010016374 0.0024261726 0.0012189451 0.0002970867 -0.00043791585 -0.00033595675 0.0011692421 -0.0007615195 -0.0019996897 -0.0022359649 -0.0015230358 0.00014909547 0.00041798974 0.00014884434 0.0010007845 -0.002250246 0.0021448953 0.0012392679 7.703002e-05 -0.0003905097 -0.0021973364 0.00067894807 0.002330971 -0.002442202 -0.00057714485 0.0009935794 0.0016442557 0.0015030269 -0.0011216562 -3.9119906e-05 0.0024981236 0.00037967155 -0.0012061803 -0.00018176064 0.0011199719 0.0020219882 0.0024902867 0.0010583119 0.0022589157 0.0016357538 -0.00073800574 -0.002189726 0.00069118576 0.0016163691 -0.00019166645 0.002052278 -0.0011313676 0.0003409813 0.001446242 0.0022846004 -0.00022684806 0.00031804733 0.00043449688 -0.0016217567 0.0016891989 0.000100989004
kuu -0.0013774061 -0.00054182444 -0.00018570224 -0.0016692586 0.0010169176 -0.0021155165 -0.0005211694 -0.0024029992 0.0004266686 0.00042809802 -0.0017926218 -0.0023981726 -0.0013540835 0.0009395802 0.0018439451 0.0010900352 -0.00037043807 -0.0022216446 0.0022773715 0.0018770737 -0.0018925623 -0.0017608585 -0.00035410962 -0.0014273484 0.0021066093 0.0018881117 -0.000422209 -0.0010941356 -0.0016683185 -0.0023582915 -0.0017058323 -0.0015213375 0.0007107174 -0.0022426096 -0.001734375 0.0020217015 0.0015885858 0.00039103662 0.0009476329 4.0935058e-05 -0.001653929 -0.0018337879 -0.0014862717 0.0020218764 -0.0007609744 0.0024762454 -0.0024140852 0.0019414811 -0.0022305888 0.0014099617 0.002494676 0.0024778403 -0.0014639008 -0.002157836 -0.0023692802 -0.0005682869 -1.8299888e-05 -0.0021345327 -0.000552741 -0.0014257645 -0.0010230022 0.00080257613 -0.0014416844 6.4001026e-05 0.0024450014 -0.0005015041 0.001953568 8.929839e-05 -0.0024122214 0.0014896563 -0.0017742997 -0.00093950477 -0.002162453 -0.0007733274 -0.001745144 0.0003871434 0.0010738419 -0.00015383124 0.00011952788 0.0015570841 -0.0019030866 -0.0013554988 0.0013548399 6.132732e-05 -0.00017403996 0.0001137502 0.0016926888 -0.0022516758 0.0004349962 0.0020567195 0.0020858014 0.0019989933 0.0022853417 -0.0012669518 -0.001880879 0.00078566984 -0.00029701903 0.0022584547 -0.00015914376 0.0021073725 -0.0009826943 -0.0018039763 -0.0006565623 -0.00063062704 -0.0012944137 -0.002081227 0.0011274368 0.002403246 7.908055e-05 -0.0015592435 -0.0024595137 0.0005152184 0.00010879009 0.001603237 -0.0014656226 0.0014406141 -0.0013256544 0.0013389229 0.0006124543 0.0024453213 0.0024102184 -0.0016475565 -0.0017104002 -0.0013640313 0.0012181714 0.0018796751 0.0010492636 0.0021260323 -0.0021616297 0.00076173135 0.0014168211 -0.0024760328 -0.0015832513 0.001921187 -0.0022504325 0.0018045609 -0.0008275346 0.0023966741 -0.00033163844 -0.0015968219 0.00061722455 0.0017152388 0.0012030918 0.0021226162 0.0018223812 -0.00066539546 -0.0005427089 -0.00011815244 0.0018938435 -0.0019720742 -0.0018380816 -0.0015054728 0.0017023288 -0.0019455724 0.002568219 0.0024974209 0.00088718126 8.5425534e-05 -0.0010883788 -5.806236e-05 -0.0015637068 -0.001217783 -0.0019187727 0.00017761484 0.00073218456 -0.0017972394 -0.00066499517 8.113631e-05 0.0006539288 -0.0025103295 0.0015674243 -0.0022718923 0.0010733018 0.00043673208 -0.0011501231 0.0016155733 -0.0015691759 0.0010224961 0.0019287528 0.0014869871 -0.0011667319 0.0016501484 -0.0007174992 0.00019232764 0.0018056667 -0.0017884636 -0.0014653845 0.0007537483 -0.0023448912 0.0012300723 7.656491e-05 4.2339884e-06 0.0008179885 -0.0023891728 0.0023447198 -0.00058971846 0.0011695545 0.0016448706 -0.000103724866 0.0015139399
samaki 0.0023051742 -0.00016176201 -0.002330304 0.001183973 -0.0020343284 0.0002741626 0.0016669255 -0.0003989737 0.0020769772 -0.001308262 0.0024953845 0.001260234 0.0015247724 0.0020470892 0.0005104313 -0.0015171713 0.0015225706 -0.0021099881 0.001575298 -0.0003139088 -0.00116092 0.00010219719 -0.00011480177 -0.0007603938 -0.00095115707 -0.0008067759 -0.0004967286 0.0010105821 -0.00065294304 0.00033595905 0.0020869584 0.002339955 -0.0024201802 -0.0021933147 0.0018044425 -0.00023742764 -0.0024287356 0.0020908709 -0.00010961696 -0.0008685809 -0.0021238376 0.0008335867 -0.0023906082 0.0017795668 0.0011022042 0.0023632485 0.00028176678 -0.0009241838 -0.0015480304 -0.0001485677 -0.0007269065 0.0011120954 0.0007725763 -0.0006496245 -0.0008389605 -0.0007670214 0.0014677761 -0.0024377357 -0.00020358269 -0.00089330174 -0.0006340124 -0.00053886074 -0.001611991 -0.0022838905 -0.0001861771 -0.0017823088 -0.001203518 -0.0014491389 -0.00043553888 -0.0012658712 -0.00053793873 -0.001886258 -0.00025492735 -0.001804099 0.0007216295 0.0022176928 0.0024383923 0.0007039291 -0.000244608 -0.00071560044 -0.00014925211 0.0019329516 -0.0019255066 -0.001560207 0.0021696612 0.0011033765 -0.0019319475 0.0005897815 -0.0010950038 -0.002085085 0.00092465477 -0.0018331378 0.0007588153 0.0005388444 -0.0021097888 -0.001327592 0.00052046764 -0.0019488683 -6.0511305e-05 0.00029658998 -0.0013266687 0.0012107618 0.0013846089 -0.00094778277 0.0010782181 0.0012978417 0.0010795167 -0.0009627042 -0.0018687282 -0.002078524 0.0006021285 -0.0019245702 -0.0011748062 0.002439291 -0.0009787554 -0.0007185469 -0.00020572607 0.0009989068 -0.0014396204 0.0011753661 9.369022e-05 0.0018895373 0.0006089745 -0.00097579556 -0.0007366469 0.001424319 -0.0022524577 -4.868871e-05 -0.00051033444 -0.00013741752 -0.00092439103 0.0022939686 0.00074766105 -0.00048603062 0.001525651 -0.00044383938 0.002039194 0.0006048694 -0.0014148452 0.0019799932 0.0018076483 -0.00016015883 0.0010013572 0.0015830526 0.0023030785 -0.0008618686 -0.002280154 0.0023626017 0.000215747 0.0017456708 0.0018645432 7.0963986e-05 -0.0013524209 -0.00218979 0.00015453527 -0.002366011 0.0015627828 -0.00092640135 0.0011905878 0.0010958856 0.0022509722 -0.0013626663 0.0015302391 -0.00013011364 -0.0015492525 -0.000508167 -0.0015495919 -0.002142696 -0.0009465664 -0.0012411497 -0.0023584175 -0.0012214918 0.0022912244 -0.00050369406 0.0003725667 0.0015822862 0.0009473684 0.0010264727 0.00027035704 0.00016337255 0.0017980229 -0.0020066504 -0.0009865456 0.0017533345 0.0005754394 -0.0005172973 0.0008929119 -0.00092294754 0.0014966922 0.0018598058 0.00072158175 0.0013526117 0.0002998761 -0.0002768896 0.00037504846 -0.002300078 -0.0010125557 0.0010894284 -0.000421564 -0.0017605915
shauri 0.0022761745 0.0005760357 0.0018291862 0.001953969 0.00012289497 -0.00020409297 0.0006661309 -0.0021338707 -0.00091516296 -0.0015419099 0.0021488864 0.00024145412 -0.0016297154 0.0013628185 -0.00037511584 0.0017826974 0.0016265031 -0.0016904899 0.0024024867 0.0018370539 -0.00063289603 0.00075313816 -0.0006631137 0.0023062795 -0.00039927615 -0.0016337209 -0.0020471741 -0.0015599392 -0.00018061469 -0.00057230605 0.0013863723 0.001714979 -0.00010660569 0.0012517775 0.0012117733 0.0015411426 -1.5199422e-05 -0.0019808398 -0.0011678186 0.00021225744 -0.0005533284 0.0007386175 -0.0019225528 -0.0012244171 -0.0017113395 -0.0018329852 0.0019765787 -0.0023887125 -0.0011081306 0.0025908442 -0.0017924794 -0.0005308709 0.002007867 0.0009425287 0.0003709286 0.001774556 0.0014288138 0.0006103524 0.00045352275 -0.00049798563 -0.0014946614 -0.00044671798 -0.0019493414 -0.0011408156 -0.00044910496 0.00052090804 -0.0011644474 -0.0006148547 -0.00037262138 4.2952757e-05 -0.0016261078 -0.0014807206 6.24432e-05 0.0013462689 -0.0021557237 -0.0023566417 0.0011979741 -0.0015906334 -0.00086816127 -0.0010088941 -7.876694e-05 -0.00095932203 -0.0014294651 -0.0014238238 0.0014599621 0.002397488 -0.0012525438 0.0011017668 -0.000677207 -0.0013469002 -0.0023238931 -0.000657258 0.00088995905 -0.0003517444 0.0024496203 0.00035540565 0.0019051849 0.0017541362 -0.0023134947 -0.0019869846 -0.0007265503 0.0024106407 -0.0010809132 0.0012618133 0.0022420923 0.0013996233 -0.00064377644 -0.0012078714 0.0023250587 0.0019531058 0.0011961877 0.0016855344 -0.0017500581 -0.00048830424 -0.0017913913 -0.00097628176 -0.00022605549 0.0012704853 0.0009863026 0.0013308218 0.00021507351 0.002220112 0.0013846081 -0.0018995765 -0.00018705562 -0.0008179994 0.0008067285 -0.0019947877 -0.0011087274 0.0019027768 -0.0019229753 -0.00067847956 0.00072897406 -0.0020538645 -0.0021386666 0.0012977995 -0.0010248255 0.0021204355 0.0016996857 0.0019532242 -9.301602e-05 0.0008765462 -0.0014708764 0.0007042575 -0.00045777537 -0.001842968 -0.0010722633 -0.00038423244 0.002132342 -0.002547453 0.0003561037 0.0004917851 0.0013924179 -0.00215944 0.0012344096 0.0017135137 -0.001415359 -5.6953417e-05 0.00071599934 -0.001773896 -0.0023651607 -0.0013951878 -0.0009865069 0.0005893927 -0.0006968563 -0.00122318 -0.0024518757 0.0023262934 -0.0009669506 -0.0010853228 0.0014353191 -0.00037478367 -0.0022792576 0.0006909059 -0.0015496326 0.0012540325 0.0001577738 -0.001219296 -0.001580103 -0.0022317613 -0.000981238 9.8178294e-05 -0.0021947287 0.0014195789 0.0019932399 0.0023820652 -0.0010858381 -0.0010591015 -0.0017933559 -0.0004011868 -0.00198149 0.000965792 -0.00042266643 0.0016184929 0.0009292147 -0.0018608499 0.0010275603 -0.0012626455 -0.0009236917 -0.0015095564
hilo 0.00068324944 0.0007166358 0.0015239082 0.0018121556 0.00070777436 -0.0012381184 -0.0016867659 -0.00053296186 -0.0020962667 0.0011505036 0.0022196781 -0.0018119421 0.001487867 0.00072730595 -0.0021824893 0.0017031076 -0.0021361704 0.0011868398 -0.0016339386 -0.0015761738 -0.0005647247 -0.00036250247 -0.001056896 -0.0011334083 -0.00044505644 -0.0009972865 0.0019506854 0.00053934974 -0.0002517408 -0.00014100516 -0.0008705174 0.001561028 0.0011758715 0.0022921255 0.0009842245 -0.0024563835 -0.0015070658 0.0022145554 -0.00031017628 0.002279165 -0.0003241764 -0.0002875995 -0.0011121675 -0.0008496965 0.0004363987 0.0017143228 -2.94315e-05 0.0016945734 -0.0014084751 0.0012155368 -0.00240561 0.00164214 -0.00029590327 0.0012015081 0.0012634954 -0.00031788557 -0.0015431008 0.00062065927 0.000578307 -0.0009754683 0.00066019956 -0.0008620597 -0.0015501819 0.00034859776 0.0008011713 -0.0015571999 1.34644115e-05 0.00086900796 0.0010678733 -0.0005066827 0.00093021424 0.001771358 -0.0012629239 -0.00026557958 -0.00042142233 -0.0014966642 0.00014332334 0.0016690172 0.0010099618 0.00033733438 0.0005845307 0.0018761692 0.002397732 -0.00055994786 0.0018557541 0.0013887499 -0.0007863298 0.001464017 0.0013605512 8.02433e-05 0.0002813548 0.0008064177 0.00083673606 0.0007874188 0.0020920315 -0.0017189969 -0.001811393 -0.0023037093 0.0017720908 -0.0007144988 0.00238831 0.0018148281 -0.0013112191 -0.00012110697 -0.0025096468 0.0021996622 0.0019193148 0.0018613717 -0.000430875 -0.0021853647 -0.001904355 -0.002040261 0.0011853413 -0.0023405473 -0.0023034138 0.0011114005 0.00040622553 -0.001794342 -0.0010415805 0.0015076977 -0.0002718793 0.0020792296 -0.0012077993 0.001280477 -0.00042620904 0.000935728 0.002083168 0.0022477962 0.00021503726 -0.00061740837 -0.001482813 -0.0022081614 0.0010662783 -0.0005546049 -0.0005345843 0.0018585139 -0.0003809891 0.0024393066 0.001395074 0.001362195 0.0016035372 -0.0020449965 0.00031456526 -0.0004952818 -0.00052112003 -0.0017049303 -0.0017124079 0.00057254947 0.0017137824 -0.0006049472 0.0010751731 0.002408234 0.00010597861 -0.0015254114 0.00033442615 0.0013321851 0.0023616306 -0.0007795415 -0.0006066417 0.00038566883 -0.0007633069 0.0010346003 0.00074173266 0.0008786591 6.046107e-05 0.00014972346 -0.0025161954 -0.0013734937 -0.0016884642 -0.001959794 -0.00097422255 -0.0018627966 0.0015376118 6.480713e-05 0.0006688318 0.0017271941 -0.0012061121 -0.0005081492 -0.002112084 0.0024154023 0.0019130433 -0.0016477951 0.0011695849 -0.0016644023 0.00068026764 0.0005486346 -0.0016375947 0.00010435031 -0.0013849182 0.0022105325 0.000774977 0.0020841486 0.0005353687 -0.0016040495 0.0017258744 0.00058409205 7.8598605e-05 -0.002211284 0.0018429563 -0.00039157472
bahari 0.0016637825 -0.00048115532 0.002172561 0.0022023434 -0.0015287568 0.0017386988 0.0023384483 -0.0022452143 0.001882964 0.0014825959 0.0011265948 0.0005306154 -0.00041249572 -0.002278435 -0.001589709 0.0001970541 0.00204635 0.0004310474 -0.0018708976 9.205875e-05 0.00038686788 0.0017584473 -0.0020473262 -0.0019299448 0.0010501429 0.00085221446 -0.00027290446 -0.0025108506 -0.0010474034 -0.0024198971 0.002381679 -0.0019443717 0.00015433929 0.0018996805 -0.0011476687 0.0010729001 0.00067351735 -0.0009467667 -0.001269985 0.0012251199 -0.0004623356 0.0012938915 0.0014067255 -0.0023615852 -0.0007817469 -0.0005138953 0.0012315493 0.00064720394 -0.000699221 0.00026479948 0.0019171904 0.002314715 -0.0016445554 0.0017328124 0.0012113337 0.0017174006 0.00024645546 7.9237885e-05 0.0015027862 -0.0018008333 0.00046468157 -0.0020829 -0.002408143 0.0016906171 0.0024344574 -0.0025336314 -0.0019706017 0.0006366256 0.0013607 0.0018365087 0.0014578392 0.0022040596 -0.002353089 -0.00026817486 -0.00031481052 0.0007106269 0.00065836473 -0.0024764722 6.0041788e-05 0.0019472848 0.0015906215 0.0006376165 -0.00090472394 0.0024513106 -0.0008921376 0.001902774 0.0021589578 -0.0017793127 0.0002410393 0.00238554 0.001023475 -0.002084737 5.119847e-05 0.002040401 0.0015730467 -0.0009539568 -5.7659483e-05 -0.00031160854 0.00042508251 -0.00046522278 -0.00044761453 0.0018999345 0.002350173 0.0024763593 -0.0021599326 -0.0004304201 0.0013028169 -0.002347692 -0.0024568117 0.0022858526 -0.0020302082 0.0015915758 0.0023792877 -0.00033875572 -0.002229868 -0.0021434939 0.0006151659 0.0016562538 -6.3444684e-05 -0.0015779819 0.0010363176 0.0017158848 0.0007544736 -0.0025379667 -0.00029332368 -0.00045546796 0.0012591901 -0.0013840889 -0.00055700867 0.0018970363 -0.0016611019 -0.0015944169 0.0015968699 -0.0023321968 0.0014089572 -0.0021779772 -1.1341128e-05 0.0019494478 -1.2725416e-05 -0.0016790907 0.0012080029 0.002397425 0.0018432214 0.0015571932 0.0015747937 0.00067276345 0.00058456074 -0.0013578783 0.00055128 5.883734e-05 -0.00042589137 0.0010519454 -0.0006495902 -0.00013745534 -0.000365108 0.0015205662 -0.00041517947 -0.0024448445 0.0019996376 5.1980096e-05 -0.0006211913 -0.002282248 0.001945334 -0.0010217499 0.0006750259 0.0014521455 0.0018685615 -0.0023215443 -0.0013795913 0.0021204436 -0.002179784 0.0008874274 0.0011116461 -0.0020254867 0.0014819202 -0.0007942965 -0.00197818 0.0023640168 0.0018022471 -0.0010562827 0.0011131093 0.00046664904 0.0018626864 0.0020955538 -3.472449e-05 0.002123675 0.0021704165 0.0017084214 0.00026024858 -0.00080383575 -0.0011220499 0.0006368634 0.0011144057 0.0005947683 -0.002499668 0.0019062615 -0.0018917922 0.0019194314 0.0021553831 -0.001100444
zinatarajiwa 0.00073014316 -0.00012971404 0.002317293 -0.0018158698 0.0009421137 -0.0020826666 -0.0012240601 -0.00051015656 0.001641085 -0.00028475624 0.0010892918 0.0024997883 -0.002312483 -0.0015324651 0.00037476243 -0.0018309162 -0.0010830836 -0.0010301747 -0.00073475926 0.0024626467 0.00044136503 0.0024044055 0.00019389566 -0.0022954505 0.0017938144 -0.00039493127 -0.00163393 0.00032723194 -0.002026925 -0.0007604415 0.00013695662 0.002175625 0.00019068368 0.00054695015 -0.00034266806 -0.0017362308 -0.0020369615 -0.00045833495 0.002495238 0.001847515 -0.0022612277 -0.001305949 -0.0006044916 0.0006553278 -0.0005131955 0.00066223176 0.0009434994 0.0012607062 0.0015723128 0.0010942253 -0.0004306738 -0.0020057494 -0.0002766673 -0.001903708 -0.0012403652 0.002431096 -0.0011038097 0.0013177539 -0.0005961628 5.2358144e-05 -0.0011524874 -0.0013277477 -0.00079925597 0.0013877739 0.000777015 0.0012843093 -0.0020890762 -0.00040008844 0.00089964265 0.00039758196 0.0025355024 0.0010332497 -0.0017831121 -0.001353411 0.0014311963 -0.0020665722 0.0018691659 0.0020436132 -0.0017505436 0.0022416746 0.00097619527 0.0024607228 0.0024494461 -0.0016670835 -0.001902434 -0.0008317693 0.00018121465 0.0011157356 0.0020818918 -0.0015255564 0.0023459957 0.00040938216 0.00042056563 0.0024284907 0.0016331946 0.00054393354 -0.002440206 0.0013773761 0.0010440197 0.002320614 -0.0012052543 0.0015774579 0.00097114296 0.0016023942 -0.0023626047 0.0006075364 0.002185629 -8.842585e-05 -0.00034360087 -0.00043714154 0.002045853 0.00087182905 0.0011457654 8.178973e-05 -0.0019356157 0.0016638638 -0.00028947962 0.0010461167 0.00085566734 0.0015001732 -0.0006152545 0.00083392527 0.00045405832 0.00087111804 -0.0010371208 -0.0017866124 -0.000656062 -0.0013998514 -0.0017716837 6.252219e-05 0.0016357964 0.0024729876 0.0006432011 -0.00091572694 -0.0010380994 0.0013541281 0.00024288837 -0.0020017659 -0.0008414883 -0.0006731658 -0.0020386192 0.0015761342 0.0008863357 -3.1268406e-05 0.00056259806 -0.0020975193 -0.0010322043 -0.00076867605 -0.0008366522 -0.00028756008 0.00014630839 -0.0003976581 -0.0023292887 -0.0006016666 0.0003759431 -0.002038091 0.0004889997 -0.0022726862 0.0010870722 -0.00208344 0.00043410895 0.00059338356 0.0020723445 -0.00080382783 -0.0010711717 0.002017826 0.0010731338 0.0016886927 -0.0014964663 -0.0020428079 -0.0016215802 0.00040791376 0.001494422 -0.002419695 0.00022973027 0.0010536538 0.0011260044 0.0006891425 0.0014854046 0.0013275509 -0.0020246708 -0.00013047272 8.592691e-05 -0.00013927005 -0.0004425697 0.00076936977 0.002205239 0.0018699655 -0.0010641797 -0.00074395846 -0.0010272345 -0.00033274316 0.0014240133 -0.0023355975 -0.00047661696 0.00090175687 -0.0008592583 -0.0016995869 -0.0022754553 0.0022793275
tatu 2.1454089e-05 0.0004154171 0.000766029 0.002383199 -0.0007435245 0.0005344757 0.00094647496 -0.0016792886 0.0019089861 -0.00086845516 -0.0009715633 0.00069764146 0.001717197 -0.0012058642 0.0009743107 -0.0019302445 0.00032739242 -0.0022806644 -0.0023186994 0.002036482 0.0024795854 0.0015427106 0.0012085389 -0.0021315492 0.0023615817 -0.0013484816 -2.2998138e-06 -0.0018430499 -5.7876073e-06 0.000276058 0.0022847035 0.0004892928 0.0008653615 0.00020854075 0.000938299 0.0022476232 -0.0016318489 0.0020383433 -0.0016939926 0.00079137733 -0.0011945915 -0.0021616123 -0.0015394222 0.00032933164 -0.000882938 0.0009777158 6.0384973e-05 0.0020331899 0.0017957524 0.0002928637 0.0009350217 0.0022084187 0.00174674 0.0013097672 0.0020793562 -0.00075636565 -0.0010742339 0.00026158476 -0.000523018 -0.0005863866 0.00090881827 0.0015894994 0.001578338 -0.000121194105 0.0020374227 -0.0021612274 -0.0013860402 0.0013115206 -0.0013621198 -0.0014820602 0.0012617706 0.001580512 0.0008344194 -0.0017536794 0.00050826586 -0.0011499989 -0.000788839 0.0013118649 0.00122573 0.0007891881 -0.00016711181 0.0014109787 -0.00054581894 -0.0011516878 0.0018245408 -0.002401231 -0.0012962917 0.00017679718 0.0016781867 0.002101293 0.0002870903 -0.0016253889 -0.0011394521 0.00090022193 -0.0018773049 -0.0004928525 -0.0020103552 -0.00023515346 -0.0005141803 -0.0008053245 0.0008035699 -0.00031582097 -0.0010291854 0.00245273 -0.00059956155 0.0019624266 -0.0011356965 0.0016305796 -0.0023041256 0.00023767825 -0.00076545624 -6.105864e-05 0.0011545984 -0.0020512764 -0.00064704794 -0.002423305 -0.0012524162 -1.5443544e-05 -0.00074828684 0.0022627139 -0.00032146156 0.0010113119 -0.0013050038 0.0020978744 -0.00027442814 0.0010015031 -0.00018429114 -0.00066865346 -0.00063667377 0.0012186262 -0.0015567122 -0.000699005 0.0019476701 -0.00048357455 0.0022856002 0.0022415132 0.0006418189 -0.00048355098 -0.0010109631 0.00059649855 0.000788468 -0.001431682 -0.0012095281 -0.0007950342 -0.002015809 0.00027320322 0.00022260021 0.0014653659 -0.0021835316 -3.720438e-05 0.0012919146 -0.00033354922 0.0012200112 0.00044133465 0.00031431945 0.0021511964 -0.0013383477 0.0016065773 -0.0006644812 -0.0009805043 0.0009639885 -0.00022792675 -0.0020130046 -0.001834997 0.00012892652 -0.0006374193 -0.0005721611 -1.9536166e-05 0.0006806492 0.0023837537 -0.0008032011 -0.0023458158 0.0006985703 -0.00041201874 0.00053999276 -0.0010287244 -0.0021392186 -0.0023233793 0.0017721549 -0.00032358235 0.0004938949 0.0004449933 0.0006377342 -0.00042328323 -0.00022700705 -0.0017314901 0.00031737486 0.00052430184 -0.0011656213 0.0013997044 -0.00040755665 -0.00011765823 0.000918767 -0.000982798 -0.0019820798 -0.002177804 0.001956795 0.0016374494 -0.0019602256 -0.0016996849
kikwete -0.00045809263 -0.0014322038 0.0021750827 3.251425e-05 -0.0013144583 0.00091042643 0.0017637378 0.001250171 -0.00034026967 1.2362246e-05 0.00097135716 0.0019357307 -0.00081695407 0.0015740437 -0.0015881269 0.0013383036 0.0020986476 -0.0012694832 0.0024996935 6.0850252e-05 -0.002350594 0.0008874981 -0.0024577628 -0.00069611607 -0.0010091598 -0.0019010532 0.0018610592 -0.0020566806 -0.0019866482 -0.0009632145 0.00094821985 0.0015643291 0.0017221549 0.0017483686 0.0020043484 0.0019867094 -0.00045991212 0.00088356354 -0.0008210498 0.0019628203 0.0011826723 0.00057208905 0.00070875295 -0.0006207418 -0.0019924212 0.00054028 0.00042980222 -0.000995718 -0.0019410497 -0.00019599196 -9.164079e-05 1.5518293e-05 0.00061436463 0.00014981974 -0.0019136284 -0.0018652875 0.0024061766 -0.0013368867 -0.0010367864 -0.0011208071 -0.001466161 -0.001970864 0.0005662956 -0.0009567591 -0.00038555486 -0.0015797571 -0.0017812477 0.0019651249 -0.0014603869 -0.0001818668 -0.0018206825 -0.00058517884 -0.0019469715 -0.0008031557 0.00038629674 0.001676005 -0.000810064 0.002219994 0.0018458297 0.00041816942 0.0019163224 -0.0016884801 -0.0001779776 -0.0009764552 0.00054787565 -0.00026849812 -0.0023352676 0.002420407 0.0024959412 -0.00046655347 0.0022647954 0.0011969972 -0.0008452151 -0.0018693358 0.0023524032 -0.001064338 -0.00020843469 0.0015761964 0.0024590811 -0.001718352 0.0016472209 0.0010065252 0.0022002065 -0.0018415987 0.00027908152 -0.0011285273 0.001968008 0.00051876577 -5.5784225e-05 0.0020388428 -0.0014051556 0.0016915859 0.0017454191 -0.000839045 0.0023087496 0.0022660042 0.0007772326 -0.0024690686 -0.000115921015 0.0014981359 -9.777198e-05 0.0007924813 -0.0011556073 0.0009374952 0.00013313419 -0.0016912016 -0.0006588561 0.00020664504 0.0006548724 0.0005419267 0.0010491692 -0.0024705094 -2.8694816e-05 0.0015612416 -0.00085759547 0.0015370006 -0.0021896919 -0.0004458104 0.00093781785 -0.0021834073 -0.00032377793 -0.00027671285 8.670733e-06 0.0019919195 0.00083842175 1.7339653e-05 0.0011276139 0.0020215737 -0.002324205 -0.0020826794 0.0014444641 -0.00078376615 0.0009728922 -0.0014611998 0.0017768586 0.0002795959 -0.0015788181 -0.0015740029 0.0014265467 0.0011972755 0.0003140357 -0.001551663 -0.0012239567 -0.0005626582 0.0005966746 0.00079510093 0.0004203047 0.0015405976 0.00018365192 -0.00238409 -0.00026574923 -0.001583173 0.0004756758 -0.0022269425 0.0007139947 0.00020702441 0.0018334 -0.002095181 -0.0011394505 -0.0009921532 -0.00062376814 -0.0020918208 0.0002623725 -0.00079887244 -0.00011935417 0.0023744877 -6.3392894e-05 -0.0008834864 -0.0023455317 0.0008354754 -0.0018763362 -0.0004314826 -0.0013024438 0.00033479938 0.0017899013 -0.0010988493 -0.0008880548 -0.00069156924 -0.00045128647 -0.0012571587
taifa -0.0017979287 -0.0008289062 0.0018070625 0.00043890812 -0.0013102809 0.001373256 -0.0010579292 -0.0017475915 -0.0012232995 -0.00016340942 -0.0008198154 0.0007649139 -0.0022922964 0.00058695994 3.455624e-05 0.00047929058 -0.0007009102 -7.1681294e-05 0.0014266303 0.0015675818 -0.00096483406 0.00037485384 -0.00027955533 0.0013833235 0.0021349613 0.0017653478 1.0372635e-05 -0.0015504962 -0.0010502265 -0.00015254784 0.001354308 -0.0022097 -0.0009686738 0.0024299666 0.0022491773 -0.001921139 -2.6470596e-05 0.0020904965 0.0009778595 -0.0018059284 0.0021216345 -0.0021847675 0.0014716322 0.0014798164 0.0017996785 0.0015248726 -0.0008064612 -0.0012487031 0.002271922 -0.001501727 -0.0009940402 -0.002036593 0.0015647822 0.0005468292 -0.0001453317 -0.0023715196 0.0017290302 -0.0015777224 0.0014368315 -0.0018366514 -0.0009600096 0.0012229613 0.0010569227 0.00095633056 -0.0010758993 -0.0021467675 -0.00038251778 -0.0019141573 -0.0008568187 -0.0023510116 -0.0024267996 0.0016628847 -0.0010445219 0.0018906562 -4.989665e-05 -0.0022936035 -1.3053092e-05 0.0018573814 0.0010382786 0.0015714495 0.0012638671 -0.00080870633 0.0015919142 0.0019436126 -0.00021111761 0.00038567223 0.0024339915 -0.0010531696 -0.0003360254 -0.0017226597 0.002427727 0.0012663826 -0.0023087973 0.00092051027 -0.0004103679 0.0013532587 0.0011944935 0.001168151 -0.0010295983 -0.00013744133 0.001616789 0.0017298111 0.00036985814 -0.0024877181 -0.00034943045 0.002286158 0.002498318 -0.0008215537 -0.0016890978 0.0015965023 -0.0007262739 0.0017318574 -0.0009442105 -0.00038867228 0.00081756065 -0.0016054129 -0.001423561 0.0006484476 -0.0002017158 -0.0024326004 -0.00096835627 -0.001782764 -0.0012004919 0.0015383692 -0.00077452644 -0.0007748829 -0.0019885215 -0.00029376408 7.6897275e-05 0.002239239 -0.0010362505 -0.0004351497 -0.0014976158 0.00196753 -0.000610992 -0.00047403973 0.00059820316 0.0013767091 -0.0015059564 0.0013426869 0.00050847355 -0.00065240485 0.0017757447 0.0010143237 0.0011318072 -0.00026712214 -0.0019182531 0.0011288925 -0.0008090546 -0.0020995734 -0.001989583 0.0016054878 0.0013424568 4.0966286e-05 -0.0015395118 -0.0022027101 -0.0012693855 0.002263299 0.0007017708 0.0012221133 0.0013663182 0.0019738874 -0.0017928062 -0.0018504388 0.0013179657 -0.0016406289 0.00014384127 -0.0009791527 -0.001220534 0.00074323924 -0.0022815051 -0.0023709517 0.0014153987 0.0011418015 0.0018638993 -0.0007553839 0.00058368576 0.0016545984 0.0017552333 0.0008016116 0.00047790003 -0.0009195543 -0.00034343236 0.0003065077 -0.000613079 -0.0014935688 0.0010136066 0.0017388625 7.135334e-05 0.00081606256 -0.0024690598 0.0017209589 0.0011338771 0.00047105062 -0.0015927332 0.00053257006 3.780276e-05 0.00051204534 -0.0014998923 -0.0021571186
wastani 0.0019379235 0.00040025046 -0.001748109 0.0020509977 0.00079547404 -0.0013663874 0.00084004336 0.002234444 -0.0019582992 0.0024412605 -0.0008748481 0.0013610421 0.00022997684 0.0010289992 -0.002334951 -0.002291716 8.459553e-05 0.0007124372 -0.00032983796 0.00023220378 -0.0012434648 -0.0007634845 -0.0012185992 -0.00016926586 0.00029388754 -0.001509636 0.00089219806 -0.00056529354 -0.00092648366 -0.0022951195 0.0020784822 0.001880285 0.0003529813 -0.0017068578 -0.000543085 -0.00058299786 0.0014646414 -0.00027054324 2.7138578e-05 0.00012331396 0.0007876906 -0.0018246688 0.0012939576 9.5235664e-05 0.0011011336 0.002038195 0.0024436144 0.0017153905 -0.001612072 0.0018309248 0.00092137465 0.00033176536 0.0015918027 -0.00021298778 0.0016411658 -0.00089128746 0.0019808328 -0.001042592 0.00217437 -0.00083220575 0.0009870821 -0.002296924 0.0021738631 0.0011528732 0.00036681947 0.0018731526 -0.0012880554 0.0005622862 0.00027201945 -0.0007931828 -0.0022967488 -0.002255622 -0.0024950143 -0.0019502816 0.0008119731 0.0018653617 0.0015132298 0.0020939906 -0.002263253 -0.0012074553 0.0009198893 3.4397173e-05 0.0011112732 -0.0009569142 0.0007736369 -5.8657908e-05 -0.00047544294 0.0014184962 0.0010683292 -0.0015896211 0.00092355843 0.0012727268 0.00094297517 0.0020585875 0.00020960587 0.002194991 -0.0007507242 0.0012271024 -0.0020921233 0.00027026705 -0.00010280623 0.0007256721 -0.000612053 0.0006441046 9.9497e-05 -0.0015187163 -0.0017615902 -0.00012013258 -0.002420248 -0.0016825432 -7.031311e-05 -0.0016333176 0.0023669638 0.0019684944 0.001717646 -0.0013834422 -0.0003281854 -0.0014931746 -0.0001829198 0.0017525799 -0.0002545076 0.00017939921 -0.00077196537 -0.00047846002 0.00090813456 -0.0007898637 0.0022859094 0.0018755017 -0.0023089454 3.6131794e-06 0.0017459897 -0.00021030624 0.0011632714 -0.0022688694 -0.0021277105 -0.0013549855 0.00082140387 -0.0018063996 0.00010184279 -0.0006151318 0.0009386034 0.0010364172 0.0023785906 0.0020018728 0.0009947774 0.0024376751 0.00058166723 0.0017917922 -0.00061306346 0.0005025729 -6.5380395e-05 0.0017169587 0.0014265117 -0.0006226834 -0.0008606907 -0.002191397 0.0017234926 0.0013992297 -0.00018915196 -0.0004906216 0.00012713515 -0.00013345717 -0.0020844429 0.0023617754 -4.8027974e-05 0.0015360727 0.00056631956 0.0016646987 -0.0015417382 0.001052123 0.0018069823 0.0012435511 -0.0012154466 -0.0002662674 -0.0022173128 0.0003511427 0.0016736097 0.0012888795 -0.0020340434 0.0021680843 0.00058166316 0.001120099 0.0006820685 0.000796691 -0.0014532801 -0.00015948107 -0.002383993 0.001981673 -0.001554655 0.0008293806 9.708889e-05 -0.001596517 1.7479084e-05 -0.0018679657 -0.0005185096 0.00071237615 0.0017593435 -0.0020894343 -0.001538331 -0.0020884397
tanzania -0.0015366756 0.0015378129 -0.00012127803 0.0024529998 -0.001605732 -0.00067977526 -0.0023035244 0.0024867714 -0.00037830163 0.0015004838 -0.0023733363 0.0008408956 0.00016402813 -0.0005311034 0.00067901734 -0.0018297011 0.0007983584 -0.0009841608 0.0022904295 0.0004637377 -0.0023616625 0.0012226733 0.0018047799 -0.0023078125 0.0021496334 -0.0017714794 0.00046453587 -0.0021371907 -0.001583291 0.0010117901 -0.00079486804 0.0013530803 -0.00022747436 -0.0015796026 0.000920679 -0.0008976827 -0.0002316335 0.0014775079 -0.0008884371 -0.0022874926 -0.0023183683 -0.002080049 0.00177064 -0.00049106433 -0.001417119 0.0013621977 -0.001784623 -0.0021395006 0.0022403214 -0.0015536393 -0.0016685455 -0.0015510599 0.0013658641 0.0010176424 0.00035562128 0.0016691777 0.0019115378 -0.0013294554 0.0014942595 0.0019025934 -0.0023293027 0.001030777 0.00042851892 6.5617285e-05 0.0010251662 0.0004391082 0.00056838326 0.0023223397 0.00038366904 0.00102581 0.0005389126 0.0010321966 -0.0012190348 -0.0019383415 -0.0005521331 -0.0013286644 -0.0006523996 0.00095974107 2.1735961e-05 -0.0020230596 8.84446e-05 -0.001069385 -0.0018766396 7.454018e-05 0.0022218495 -0.0023265476 -0.0002757899 0.0018726271 7.3800955e-05 -0.002416931 0.00013245517 0.0022627844 0.00031936308 7.424564e-05 0.00078221713 -0.0005396317 -0.0024316357 0.0011309503 0.00063063035 -0.0016351922 -0.0024252976 0.0021511656 0.00097297155 0.00086063234 -0.00065830484 0.00039721368 -0.00028404107 0.00018345882 0.000836767 0.0022831496 0.00044974513 -0.0023789238 0.0022470918 0.002235467 0.00010128627 0.0017750826 0.0024308516 -0.002112046 -5.2631614e-05 -0.00081425044 -0.0015720559 0.0019918706 -0.00028632747 -0.00072533835 -0.0001236826 -0.0001655048 0.00017074535 0.0008422331 -8.070957e-05 -0.0022197622 0.001836119 -0.0020445343 -0.001134396 0.0008127974 -0.002275966 -0.0022800104 0.0015062966 -0.0019140826 -0.00068303256 0.0009270848 -0.0023255334 -0.001719293 -0.0011906446 -0.0018482802 0.0011385084 -0.0005876127 0.001673461 -0.0008493181 0.0019122548 -0.00085959234 -0.0018278892 -4.008994e-05 0.0024143325 0.000229771 -0.0019834563 0.0016189412 -0.0024380158 0.0022383912 0.0016368951 0.001580966 0.0023982648 -0.0020800505 -0.0009645719 0.00095726456 0.0020296865 0.0023673107 0.00010160964 0.0020453492 0.0011944352 0.00073067204 0.00017325694 -0.0025115057 -0.002415991 -0.001328674 -0.0024123765 0.0023422102 -0.0007226881 0.0024401608 -0.0014934856 -0.00042596646 0.0009719178 0.00168319 0.0012737651 0.00016545183 -0.0005034977 0.0002703806 -0.0024139204 -0.0019809366 0.00048489607 -0.0022179028 0.00043329527 -0.00041215323 -0.0020821253 0.0012610924 -0.0019154783 0.00018435832 0.0017986884 -0.0019861516 -3.3296365e-05 0.0011852292
maeneo 0.00019299185 0.0002468 0.00068916805 0.0006831146 -3.6923225e-06 -0.00029765707 -0.0021571366 -0.00057642587 -0.0016415378 7.722598e-05 0.0015194819 -0.0024202256 -0.0024881063 -0.0014893834 -0.0006344311 -0.0015918426 -0.0012620034 0.002462295 -0.0018963865 -0.0007814963 -0.0016589748 -0.002488084 0.00068397727 0.0014170829 -0.00056137866 -0.0010617356 0.00030514618 0.00018024298 -0.002053543 -0.0013146243 0.0012040974 -0.0016179587 0.0007177768 0.00084468327 -3.0199455e-05 0.0005297175 -0.00064481486 0.0007084709 0.001670767 -0.0004987001 -0.0013359145 0.0016752484 0.0010984625 -0.0009638682 -0.0014376127 0.0010977768 0.0015811989 0.0020216887 -0.0010828755 0.00060619414 0.001277446 0.0019690688 0.0008127155 0.00060141884 -0.00042342974 0.00066521607 -0.0006622231 0.0023424635 -0.0021297825 -1.0561386e-05 0.0022093204 -0.0019182771 -9.070379e-05 0.001183576 -0.0010245524 -0.00201792 -0.00024817753 -0.0018655668 0.0020904078 0.0019816798 -0.0011519804 0.00040174928 -0.0009394773 0.0009024114 0.0004108243 -0.0020444412 -0.0018460271 -0.00035229736 0.0023466044 0.0020888196 0.0009426944 -0.00074626075 0.0020838445 0.0024218129 -0.0014848708 0.0018264786 0.0012013909 -0.0012445167 0.00013299922 3.9447023e-05 -0.0023890699 0.001127408 0.0012681421 0.0007274687 0.0017248306 0.0015170543 -0.0017714852 -0.0016928826 -0.0010864141 0.0001710286 -0.0024161928 0.00012467381 0.00047834392 0.000815101 0.0014330742 0.0012893594 0.0024265752 -0.0021972286 -0.002215348 -0.0009622441 -0.0008864496 0.002209223 0.0014417438 -0.00020453459 0.0008220517 -0.0020236524 -0.0002556844 -0.00031417538 0.0011994904 -0.00021441533 -0.00034383676 -0.0006688318 -0.0018421898 -0.0006263979 -0.0016714865 -0.001117883 -0.002528633 0.0017107498 -0.00048760013 0.0011863227 -0.00029964073 0.0015748725 -0.00055029336 0.0015161025 -0.0012207712 -0.0021472324 0.0024682365 -0.0014889573 0.0024982765 0.0015351541 -0.0014614909 -0.00092435325 -0.00090796093 0.00030436824 -0.00083047495 0.0015097442 0.00021582203 -5.299985e-05 -0.00030375496 0.00033652707 0.0023958508 0.0022709994 -0.00045287574 0.00083184784 0.0015829202 -0.0014287865 0.0011076705 -0.0016107439 -0.0011340942 -0.0012236206 -0.00025555887 -0.0022632033 -0.0021285652 0.00088762934 0.0021912497 0.00022157127 4.127555e-06 -0.0015830839 -0.002009062 0.0010702674 -0.001889795 0.0005194556 -0.001980143 -0.0014118602 0.00051547715 0.0010569394 0.0004608113 0.0023837967 0.0011281573 2.9790881e-05 0.0019452233 -0.0014699518 0.0012550172 0.000106226486 0.0022180185 -0.0009067547 -0.00038731447 -0.0017049386 -0.0015029777 9.291477e-05 0.0023119142 0.0011581605 -0.0013945312 0.00046538757 0.0011039244 0.0001219956 0.0001919263 -0.0017399192 0.001759031 -0.000655952
sheria 0.00059538597 0.001767825 0.0020596997 -0.0005906759 -0.0016512262 0.0014433799 -0.0019252596 0.0015265832 -0.0008401902 0.0014926424 0.0008604343 0.00144022 0.001474175 0.00070228404 -0.0001271137 0.0004430421 0.0019984494 -0.0018986543 0.00012989542 -0.00061473175 0.0020183735 -0.00095156353 0.00066211354 -2.9172392e-05 9.7793665e-05 0.0006862598 0.000643093 0.00040245103 -0.0022494225 -0.0003795249 -0.0019748807 -0.0015902953 -0.0004137293 -0.0023622685 0.0010349108 -0.00059944706 -0.0011392416 0.0014113947 0.0006217404 -0.0022726422 0.0011406253 0.0022336533 -0.00025606534 0.000961901 -0.0023726143 -0.0020652956 0.0006501964 -0.0018448282 0.0006698332 0.00059259695 -0.0018383553 3.377166e-05 -0.0011862043 -0.0018696468 -0.0023325093 -0.00021669595 -0.0019991717 -0.0019985707 -0.0010062187 -0.0024685864 -0.00129547 0.00049025845 0.0013313608 -0.0005743632 0.00050931453 -0.00053510815 -0.0010862102 0.0008263729 0.0014747668 -0.00014796971 -0.00039103196 -0.0013712023 -7.5615612e-06 0.0016385326 0.002176924 -0.0008285013 -0.001792321 5.2555274e-06 -0.0020858306 -0.0013013488 -0.0020656935 0.0008940555 -7.815619e-06 0.00095642824 0.0009547419 -0.00087033253 -0.00031853528 0.0009699854 0.00113786 0.0020399084 0.0011393981 0.002003891 -0.00060166034 0.00038008255 0.0017416364 0.00026657802 -0.0017237021 0.00012704992 -0.002360146 -0.001438316 0.0024122796 0.0016983803 -0.0013780426 0.00021345896 -0.0018782032 0.00029562972 -0.0020610949 -0.0023227248 -0.0006101469 0.0005370241 -2.9483326e-05 -0.0003139103 -0.0020810077 -0.0005167634 -0.0007605886 -0.0012542326 -0.00044599752 0.00040190818 7.265941e-05 -0.0010886848 -0.0017275505 -0.0004517309 0.001238398 0.00057281426 0.0014700516 -0.0022940126 0.0020185523 0.00060403155 -0.0006695647 -0.00046261717 -0.0004528697 -0.00016102614 -0.00032115384 0.0014713537 0.001572066 0.0017056211 -0.0006758351 0.0022200202 -0.002155498 0.0023219427 0.0020859998 -0.0012189591 -0.00052381307 -0.0007469656 -0.0012714288 -0.0006303683 0.0010443915 -0.0017363474 0.0003240545 -0.001019192 0.0020441653 -0.00060708565 0.0011842945 0.0009588225 -0.0009806629 0.0013507605 -0.00036827443 -0.0005429953 0.0022006186 -0.0018634272 0.0009321682 0.0021517863 0.0016900325 0.0021268318 -0.0010407653 0.0010356406 0.00046253976 0.0011480293 -0.00096900115 -0.00024938677 -0.0019838542 -0.00018303789 0.0005909186 0.0018853943 0.0005874695 0.00029457672 0.002335034 0.001381351 2.2815471e-05 -0.0011736463 0.0007832115 0.0023944345 0.0018922882 0.0022892125 0.0006203608 -0.00012491092 0.0023132595 -0.0010331328 -0.00021229552 -8.9688794e-05 0.000998106 -0.0004940176 -0.0012485465 0.0010220434 -0.001478056 0.0003530173 0.0006783238 0.00010236561 -0.0015562114 -0.0005030381
watu 0.0020114793 -0.0012435116 -0.0007871609 0.0014700439 0.0012792695 -0.0010750173 -0.0020057298 0.0015807274 0.00026567394 -0.0010696567 0.0013817349 0.0021042002 -0.0012937261 -0.0010991481 -0.0018406847 -0.00059458025 0.0023216454 0.0011871366 -0.00077824696 -0.0017940456 1.4464252e-05 -0.002373092 0.0014164738 0.0019955232 -0.0017471126 0.0016258536 0.0014580337 -0.0003756571 0.0002350824 -0.0018968354 -0.00125326 0.00047089558 0.0010318134 0.00016693166 -0.002370436 0.0016811856 0.0004813462 -8.638883e-05 0.00020345145 -0.0023724474 -6.6295375e-05 -0.0018457213 -0.0014637362 0.00033338126 -0.0018768165 0.0021552425 0.0013653603 0.0010814731 0.00078598683 -0.0009731271 -0.00017157046 0.00026315922 -0.0004294053 -0.001665645 -0.0017445112 -0.00040873786 0.0022138965 0.0013212701 0.00020074849 0.0020676744 0.0025511817 0.0020825781 0.00038534845 0.0016614828 0.0007197075 0.001035023 5.5738386e-05 0.00013962472 -0.0008130601 0.0011895758 -0.0015624419 -0.0010743096 -0.00012889512 -0.002430912 0.00031994787 0.0015808607 -0.0015776462 -0.0023862643 0.0018524255 -0.000119301185 -0.0020077326 -0.0023992138 5.653501e-07 0.0003057963 0.0012785867 -0.0013975785 0.000942933 0.0018414648 0.0011130695 -0.0016072083 -0.0022149924 0.001546069 0.00018464481 0.0014875687 0.0016459179 0.001425133 -0.00092253526 -0.0009705853 0.0019794318 -0.00129294 0.001274116 0.00036988652 0.0021796676 0.0010440758 -0.0017532981 -0.0018630791 9.702939e-05 -0.0023146882 -0.0015793927 0.0009830621 0.0018212406 -0.0009507701 0.00061801274 0.00096190843 -0.0007514227 0.0011256867 0.001425705 0.00016092928 0.0015172001 0.00046408866 0.0020326355 0.0011401625 0.0012956603 0.001886996 0.0020850697 0.0010632067 -0.00061254733 0.0014262063 -0.0014669688 -0.00085126114 0.0002019874 0.0024568487 -0.0009743662 -0.0002614606 0.0020842778 0.0015512332 -0.0006342419 0.0019707165 0.00059672835 -0.0016985374 -0.001856027 0.00033586015 0.001270633 0.00045874782 0.0012507903 -0.0015187128 -0.001885657 -0.0021625222 0.00228101 -0.0002658582 0.00022452451 -0.0008372991 0.00021620747 -0.0006038104 0.00046566135 0.0022126143 0.0011030717 0.0008013263 0.00067508774 -0.00017556468 -0.0004489213 -0.00038258577 0.0024988137 -0.0020438018 -0.000612549 -0.00074544374 -0.0021013864 0.0010455045 -0.0013438922 -0.001966592 -0.0019826195 0.002010551 -0.001555525 -0.0015790018 0.00084722013 0.0017317225 -0.0009899872 0.0020579146 -0.0013815342 0.00086751895 -0.0005421541 0.0019167135 0.0026013332 -0.0024957582 0.0015822157 -0.0015725031 -0.0019238534 0.0023084087 8.865253e-05 0.00093835057 0.0008300884 -0.00041160025 0.0015941449 0.0013755693 -0.00026537367 0.0022503026 -0.0013330977 0.002255782 -0.0010488336 -0.000701593
familia 0.0003985769 0.0022706955 -8.907522e-05 -0.0006226108 5.3264812e-05 -0.0016823787 -0.0007150179 -4.530321e-05 0.0010769637 -0.00049328763 0.0008323404 -0.0003645543 0.0018855877 0.0013560484 -0.0014487387 0.00033147485 -0.0014700056 0.0018380752 0.0014519009 -0.0019727729 0.0012415417 0.00021258462 0.0022514267 -0.0020938157 0.0003990536 -0.0024626362 -0.0015694407 0.0023267397 -0.002058663 -0.00010651131 -0.00046327134 -0.00090462045 0.00016984953 0.00014064816 -0.0019397412 -0.0010295965 0.001534054 -0.0012459964 -0.0023415815 0.0019741838 -0.0020717264 0.0005731837 0.0011403118 0.0007758967 -6.2115265e-05 -0.0016978089 -0.00016023958 0.0004426215 0.0016100847 0.0006135674 0.0023161222 -0.0022748953 0.0011136204 0.0015798521 -0.0009997659 0.00014957873 -0.0020511514 -0.0015653977 -0.0019810207 0.0001813743 0.0018745352 0.0018796545 0.0014316101 -0.0018864035 0.0015606695 -0.0013674577 0.0012798321 0.00056212593 0.0025240548 -0.0009475324 0.0004222435 -0.00014612125 -0.0012482909 -0.0011812439 -0.0016705813 -0.00028903756 -0.0013936525 -0.0007285213 0.0004470053 0.0015587811 0.00017896965 -0.0015793027 -0.0018384629 -0.0016531142 -0.0005076236 0.002268857 -0.00050368824 -0.0018717416 -0.0015490815 -5.0948845e-05 -0.0017219522 0.0019946892 0.0002899225 0.0009079834 0.0017238957 -0.0013375422 -0.0007911393 0.0024592336 0.0012375274 -0.0014044212 0.00038284122 -0.0009859385 -0.00025258044 0.0007886602 -0.000999758 0.00086065434 0.00086571946 0.0004964897 -0.001206655 -0.0018701766 -0.0017387036 0.00076156127 0.0006094762 0.00032735837 0.001532281 -0.000460582 0.00014475739 -0.00016755557 -0.002449993 0.00058646937 -0.0010681689 -0.0015791504 -0.0017577879 -0.0012010805 -0.0014943542 -0.0016310277 -0.0003280393 -0.00060217344 -0.00034429776 -0.0019465506 0.0017176748 -0.0017537423 0.001884526 0.0024123057 0.002253857 0.001612344 0.0010850595 0.0019893788 0.0014989531 -0.001288331 0.00060159503 0.0002632003 0.0012998974 -0.0012351766 -0.0009160203 0.0017885765 0.00087559625 0.0022473915 -0.001985782 0.0007555631 -0.0013442572 -0.0007990847 0.0011882961 -0.00088533247 0.0005210847 -0.00013206147 -0.0005544893 -0.00048233193 -0.0020122794 -0.00035561342 0.0024681117 0.0018423627 0.00042338806 0.0012970227 -0.0016698817 -0.0020308115 0.00018242266 -0.0016311822 -0.0012110579 0.00015478858 -0.0015995143 0.0016591792 0.0006322224 -0.0013625212 -0.00029726708 -0.0014783865 -0.00026208186 0.001595504 -0.0018180178 0.00014055124 0.0019064163 -0.0018913511 0.0021725432 0.0011243348 0.00183468 -0.0016858579 0.001077792 0.00035006218 -0.0024315112 -0.001145511 -0.0018450237 0.0014477985 -0.0016810986 0.00023291046 -0.0013146485 -0.00017469446 -0.0019838286 -2.8972659e-06 -0.0024086593 0.0015971065
eneo 0.00012597788 -0.00029123088 0.0021894234 -0.0016440181 0.0012063471 0.0023517474 0.0024002625 0.0016199261 0.000289926 0.0005488026 -0.00079515064 0.0007234188 0.0013032069 -0.00030875514 0.0007257937 -0.00026780614 -0.000874148 0.002077225 -0.0009869068 0.0019653323 0.0011539122 -0.0018638435 -0.0015781055 0.0009151047 0.0011412321 -0.0008096776 0.0009283036 -0.00078636355 0.00091751217 0.0024211155 0.00062077976 0.0020230613 0.00085813657 0.0015065249 0.0014508921 0.0003018498 -0.0003594283 -0.00036980535 0.0023475196 -0.0020209264 0.0017406399 0.0008837588 0.001946699 -0.00032043655 -0.0021271938 -0.0012287078 0.0021680063 0.00097601383 0.0006336433 0.0013107709 0.00062679144 -0.0019182244 0.0024217195 -0.0021414566 -0.000831825 -0.0014713885 0.0020190722 -0.0011257388 -0.001125144 0.0020503881 -0.0010088593 -0.0024221854 -0.0017750986 -0.0016466831 -0.002216757 0.00076770486 -0.0023544175 -0.0023278333 -0.0012644184 -0.0013743851 0.0007918236 -0.00062332826 -0.0015040754 0.00017333556 0.00065525767 0.0018523796 0.0014047408 -0.0016499466 0.0023390388 -0.0007293103 0.0019647616 -0.002370187 -0.0013179602 0.00051322585 -0.0012615655 -0.00090429786 0.0016063238 -8.5791535e-06 0.00045726635 -0.002260649 -0.00055216457 -0.0003523877 -0.002100454 -0.0012835839 0.0016538247 -0.0012692041 -0.0012469612 0.00030936743 0.0015806084 0.0010017492 9.176536e-06 0.000737376 0.0006226454 0.0024601177 -0.00098803 0.0011167458 -0.0012426917 -0.0011610938 0.0006601525 -0.00010413312 -0.0010075152 0.00075849536 0.00222254 0.0013733198 -0.0016878055 -0.0021847757 -0.0008108982 0.0016537027 0.00211243 0.0015962357 0.00020170915 0.0012103051 0.0013320663 -0.0008154852 -0.001818365 -0.0014710048 0.0024061457 0.002348316 0.00090595573 -0.00035188897 -0.00054126687 0.0005882578 -0.0010194115 0.0008535274 0.0018471623 -0.00021400594 0.002070147 -0.000108627486 0.0020947512 0.0014504076 0.0018748572 -0.00040485716 0.0014673495 0.0011286722 -0.0013808216 -0.0015006387 -0.0019387584 -0.0008645867 -0.0014928638 -0.00032694213 0.001070261 0.0008771386 -0.0024522783 0.0018887619 0.0018337921 -0.00010552837 -0.0012679355 -0.0013005236 0.00212423 -0.001465833 0.00079743424 0.001909709 0.0009459925 0.0017019935 -0.00018117964 -0.0017800737 0.00065192406 -0.00029012153 -0.0005547216 0.0018220951 -0.0022502586 -0.0010471332 -0.0017823533 -0.0010871091 0.00036120927 -0.0023824493 0.00025939746 0.00066432275 0.00049682375 0.0019611078 0.0023150758 0.00026151713 -7.575678e-05 0.0008967736 0.001930178 0.00063307234 0.00046798182 0.00042177975 0.0024633163 -0.00010659724 -0.0014172782 0.0004034095 -0.0005186422 0.0023291565 -0.00025794492 0.0004361149 0.0019815369 -0.00052788074 -0.002361964 0.00022212543
mwalimu 0.002326733 0.00010616474 -0.0022964475 0.00087808626 -0.0020320506 -0.0008506699 -0.00093678816 -0.0010259098 0.0002871232 -0.0016391499 0.0019088733 -0.0012199209 -0.0008737186 0.00017392436 0.0021700945 -0.0007514232 -0.00058091275 0.0014226851 0.0008136644 -0.00067630457 0.002135564 -0.00023590101 -0.0018104234 -0.0018060524 0.0025624495 -0.00044975817 0.0015418812 6.1614235e-05 0.0005069963 -0.0016963551 0.0015617476 -0.00041417952 0.0009030473 -0.0021861582 0.0008763735 0.002138521 -0.0023771327 -0.00097439653 0.0005071353 0.0024207316 -0.0016423757 -0.0010103702 0.00042571878 -0.0010685164 -0.0020416072 -0.00013750728 0.00081626535 -0.0018584956 -0.0014224807 -0.0017614114 0.001810629 0.00063878694 0.00024356919 0.0011609262 -0.001604098 -0.0014965766 -0.00059070915 0.0003451177 0.0005387599 0.0008572619 0.0024423623 -0.0015798465 -0.002072903 0.0016231225 0.00074463186 0.0020997701 0.00077986333 -0.0019366124 -0.002184579 0.0011108244 0.0016744322 -0.002081974 0.00021988308 0.0014655859 -0.0017349258 -0.00039857373 -0.0009514292 0.002136492 0.00017047845 0.000115209965 0.0017124166 0.00066228915 -0.0010661449 0.0016163203 -0.00013806521 0.00049705995 0.0019769936 -0.0015493763 9.4610295e-05 0.0020341736 -1.2480676e-05 -0.0003118311 -0.0024545318 0.0016312914 -0.00023162346 0.00076999905 -0.0014259929 0.0024492645 0.0012103901 0.0016344006 -0.0024767958 -0.0010516522 0.0008132755 -0.00019318929 -0.0025197603 0.0004177855 -0.0012049789 0.0012133475 0.002039798 0.002571019 -0.0016727122 -0.0022766625 0.0023973663 0.0013505882 0.0012792924 -0.0008510726 0.00030991598 0.00078847626 -0.0016101084 -0.0017895839 0.0014936771 -0.0012648588 -0.0016054218 0.0018498973 0.0024824173 -0.0013277832 -0.00029037247 0.0010348723 -0.0022292961 -0.001173772 -0.0005627324 0.00043064132 -0.0006524615 -0.0020252003 0.0017180969 0.0023576706 -0.00089191145 0.0015894508 -0.00074132875 -0.0010791243 -0.0012388454 0.00017014491 -0.0011649281 0.0014428623 0.00062168407 0.000103809914 0.00069108274 0.0019529996 -0.0014638503 -3.0071013e-05 0.0011526428 0.0017657304 0.0021203782 -0.0007935041 0.0013458463 2.2643226e-05 0.0011143378 -0.0024486582 0.0018614609 0.00192885 0.0013942271 -0.0023099931 0.000812396 0.0008558047 -0.00016691233 -0.0022178863 0.00068663625 3.7127335e-05 0.0012409313 -0.0020810692 0.0010577881 -0.002524921 -0.00015902938 0.0023154465 0.0015530658 -0.0017179552 0.00093495316 0.00016887569 -0.00040237923 0.0015078181 -0.0017849638 -0.002510886 0.0021662817 0.0013829445 0.0015743696 -0.0010227866 -0.002299009 -0.0017177517 -0.0008430727 0.0011942124 -0.0009397077 0.0004096821 -0.0013639824 0.0018492488 -0.0005837917 0.0020590725 0.0001351762 -0.0021617233 -0.0010144816 -0.0011160744
nyerere 0.002261398 -0.0016280189 -0.0012298917 0.0008983497 -0.0005247674 0.0003259688 0.0016648263 0.0021625368 -0.0011123259 0.0023133953 0.0016006664 0.0006625547 -0.0016297892 -0.0024074912 0.0009531662 0.0003883571 -0.0005631358 0.0009532311 0.0001148815 9.6239e-05 0.0010313293 -0.00053868647 -0.0005207026 0.00046296063 0.0019676397 -0.0024995473 -6.765073e-05 -0.0004778362 -0.0018388669 -0.0012006382 -3.7587663e-05 -0.00081657746 0.00033892776 -0.002371045 -0.0018783823 -0.0023003826 0.00094576867 0.00093726383 0.0017910635 -0.0011450619 0.002087207 0.0016066991 -0.0014313236 0.0016856976 -0.0014741961 0.0014997496 0.00064790575 -0.00071583333 0.0017998606 -0.0002152823 -0.00039795972 0.00090332224 0.0024465453 -0.001131258 -0.0016190689 0.0023349337 -0.002407686 -0.0016603901 0.0021044116 0.0017585899 0.001688507 0.0009179372 0.0015407406 0.00038293176 -0.0021840122 -0.0019124739 0.0015753375 -0.0015299316 -0.0020827146 -0.0011481647 0.0010159668 -0.0016792517 -0.002052818 0.0021313792 0.0002610467 0.0015243505 0.00025881466 -0.0010007286 0.0003620639 0.00095379807 0.002272457 -0.0020500424 -0.0019116475 -0.0013978862 -0.0016209505 -0.0016748945 -0.0011712521 -0.0020920634 0.0012532129 0.0020713767 0.0018297515 0.0016718326 -0.0010579261 -0.0023995214 -0.0017395526 -0.00069305825 0.0002468945 -0.0009690267 -0.0014063129 -0.0022436897 -0.001099411 0.00018475096 -0.0005573883 -0.000582394 0.0006263786 -0.00079320354 -0.00014620084 -0.000258125 -0.0004222398 0.001701836 -0.0016404374 0.000107299005 -0.0017794155 0.00027771143 -0.0014967022 0.0012579444 0.0005808324 -0.0024963056 -0.0003409332 -0.0001544351 -0.0018592039 -0.0022909301 0.0006121537 -0.0020047214 0.00027972614 -0.0015069221 0.00083841576 0.0019241064 0.0011002752 0.00049532304 -0.0016892764 0.0018053313 0.0010001985 -0.0010092034 -0.00077269186 0.0007046603 0.0017747437 0.0012782819 -0.0016546792 -0.00050183735 0.000117148855 -0.0018079685 0.0004622717 0.000575197 -0.0013854766 -0.0023865255 -0.00068782474 0.0009979958 0.0015744538 0.00066046184 -0.0006555596 3.9505325e-05 0.0010497856 -0.0016103986 0.00025399058 -0.0006948877 0.0013245381 -0.0003453012 -0.00024016977 4.947124e-05 -0.0020400705 0.0016891415 -0.0011996143 0.00014602333 -0.001387804 0.0021408177 -0.0015305369 -0.00024015906 0.00036521477 -0.00133811 2.515634e-05 -0.0009858359 -0.00027986433 0.0023000604 0.0006416488 -0.0002472781 -0.00069083384 0.0001225127 -0.0011317857 0.0016025602 0.0024752112 0.0011819715 -0.00026829293 0.0022112413 -0.0024403078 0.0011608263 0.0016837021 -0.0013590695 0.0010238362 0.0024035815 0.00067141844 -0.0023175206 -0.0016951367 0.001715577 0.0010957125 0.0018566211 0.00047375436 -0.00059126056 -0.0022663842 -0.0020201104
ilisema -0.00073187926 -0.002498219 0.0023773988 -0.0001443642 -0.0011044453 0.0016727177 -0.00021605128 0.0021923955 -0.0005974491 0.0023555122 0.0023247509 0.0021102836 -0.0022537422 -0.00064333226 0.00026811552 0.0016325287 -0.0020610862 8.055842e-05 -0.00042007363 -0.0017451844 0.0014637483 -0.0018564493 0.00080084894 -0.0017344429 -0.0022317492 0.0013395185 -0.002089167 0.0017240107 -0.00047815542 0.0016363324 0.0015877887 0.0015163454 0.0010559881 0.0014626057 0.001251317 0.0016221785 0.0012935793 -0.0011909329 0.0019733703 -0.0023877928 0.0014677807 -0.00038548897 2.9094074e-06 9.3239774e-05 -0.00081744394 0.0012649961 -0.00043339713 0.00012533601 -0.0014926292 0.0021401446 0.0024324178 0.0010150799 0.0024543304 -0.00017831211 0.0020773588 0.0013812572 0.0003462273 0.0019523975 -0.00029310217 -0.0021817717 -0.00077206915 0.0008866654 0.0025482841 -0.002229472 -0.001581883 0.0018178126 -0.0022848842 0.001399273 0.0003428766 -0.002188073 0.002493353 -0.001448537 -0.0004328103 -0.00057647255 -0.0020925736 -0.00060367666 -0.0009882974 -0.0007378281 -0.0010172874 0.0006945072 -0.0013347018 -0.0007279425 0.0004391118 0.000591471 0.0022338314 -6.81106e-05 -0.0021344747 0.0023664518 0.0005538046 0.0018580729 0.0010070613 -0.0021138054 -0.0011944565 0.00028020923 0.00045720965 -0.0003827849 -0.0012019245 -0.0005150098 0.0016845665 0.0016063442 0.0024037405 0.0022141912 0.0012690617 -0.0022700427 -0.0017810105 0.0021214215 -0.0020963827 -0.00092396565 -0.0006321429 0.00080854126 -0.00041422815 -0.0011201501 0.0009921344 -0.0017498219 -0.0009190736 -0.002304756 0.0016659563 0.00067239214 -9.408153e-05 -0.0011297199 -0.0006273788 -0.0010420516 0.00020927642 -0.0014517893 -0.001961012 -0.0016339261 0.0013796586 0.0022032473 0.00044325765 -0.002318136 -0.002284543 -0.0023687666 0.0003114098 0.0023138884 -0.0003459962 -0.0015572829 0.0004785866 0.0014076701 0.0002440718 -0.00038336244 0.0007034662 -0.00028721103 0.0016257019 -0.00030307844 0.002555855 -0.0016600926 -0.0006755697 -0.00094635773 0.0005656152 -0.0020566506 -0.0005915739 0.0024520755 0.00020996596 -0.0010254965 0.0004907179 0.0024147816 -0.002009641 -0.00094647997 -0.00048818527 -0.0018302756 0.0016470614 -0.0005358904 -0.0016015589 0.0007495631 0.0015957955 -0.0018617 0.0018919002 -0.00056572416 -0.0024870837 -0.0013859373 0.002072948 0.0003336239 -0.00049034227 -9.2932976e-05 -0.0008769644 0.0013936092 0.00010630926 -0.0011852124 0.001881892 -0.0014692952 0.0017126581 0.0006797638 -0.00039488534 -0.001221941 -0.000176836 -0.0012821716 0.0005811629 0.0022341022 -0.0005920992 -0.0012462754 0.0021000127 0.0018198667 0.00078254234 0.0025205158 -0.002100494 -0.00012173517 0.00052095327 0.0007468419 -0.0025268972 -0.0016174065
magharibi 0.0015772555 -0.0018031602 -0.0019369768 0.0005813231 0.002226391 0.0019952774 -0.00177927 -0.00021765541 -0.0015378313 0.0023490025 -0.0020973342 -0.00083937997 -0.00037848417 -0.0003145686 0.00012847144 -0.0015098371 0.0013081391 -0.0006337895 0.0020991934 0.0010766155 -0.0019568198 -0.00090076827 -0.0013336471 0.0002644714 0.0021591645 0.002150412 0.0013952528 0.0015179384 -0.0017556042 -0.0007401749 -0.0014028859 0.0005693157 0.0024815928 -0.0010072143 0.00018715438 6.673713e-05 0.00052488636 -0.0020333687 0.0019167573 0.0003567309 0.000739663 0.0007604024 -0.00020662951 -0.0011916906 0.0011131739 0.0024102912 0.0018662064 0.0008578107 -0.002473828 0.0014787373 0.000606348 -0.0011411328 -0.0006695795 0.0007606381 0.00017902408 0.001344377 0.0011750049 0.001444512 -0.0002998791 0.0018320342 0.00061545 0.0008149212 0.0015710056 0.0018890816 -0.0014768164 -0.00019019067 0.00065938197 0.0020632688 0.0018495764 -9.242585e-05 0.001982568 -0.0010248827 8.265817e-06 0.00035798928 0.0024315976 0.00015432015 0.0012213796 -0.0015209249 -0.0015588505 -0.0008092631 0.0022095442 0.002048086 0.0019249016 -0.0015685635 3.2270204e-05 -0.001304719 0.002056209 -0.0009686893 -0.0015374479 -0.0018387923 0.0007011434 0.0024380935 -0.0014532006 -0.0004640379 0.000432314 1.3564722e-05 0.002303858 0.0014519731 -0.0013429903 -0.0011128099 -0.002181264 0.00048121228 0.00076802226 0.0020804906 0.0023298203 -0.0017039427 -0.00022097127 -0.0011146124 0.0009700483 0.0017058279 0.0019003826 -0.00097309536 0.0017062392 -0.0015531441 -0.0001359154 -0.0010983692 -0.0023981726 -0.0021212946 -0.002070005 -0.0019799345 -0.00030994602 0.0016656113 -0.0014724155 0.00019167195 -0.0012859908 -0.00024868723 0.0018609102 -0.0005252051 0.0011454227 -0.00224072 -0.00077598845 -0.0022402317 0.0006368535 -0.0021126568 0.0013233729 -0.0021876392 -0.0017025681 -0.0017150814 0.001904775 -0.00016036612 0.0022138404 -0.000858665 0.000492451 0.0023057538 -0.00055318617 0.0017847422 -0.0016349105 -0.0015202452 -0.0018826879 0.0001791583 0.0023591453 -0.0007860981 -0.0013262661 -0.0015424303 0.0018329236 0.00050869526 0.002334127 -0.00182884 0.0014829529 1.1941777e-05 -0.0009893917 -0.00090050185 -0.00210065 0.0019138801 0.001095928 -0.0014847183 -0.00018707624 0.00030511647 0.00038850986 0.0017505091 0.00091529306 -0.0018433766 0.0020014585 -0.0023667316 -0.00036777675 0.0012183709 -0.00023412457 -0.0010409454 -0.0013145225 -0.0015561064 0.0019752372 -0.0017185344 0.002302162 -0.0015426032 0.0007239751 0.0025321548 -0.0021029112 0.00068284746 0.0015486642 -0.0017419986 -0.0010029355 -0.0015972812 -0.0017167024 0.0003171686 0.0013716494 -0.0024231942 -0.0014768271 -0.0016563716 -0.0012935755 -0.00025218105
tisa -0.0018101375 0.0021030123 -0.0010490813 -0.001457074 -0.0010390336 -0.0009160504 -0.0015360618 0.0009671358 -0.002058317 -0.0013311247 -0.0018839247 -0.0020108197 0.00081471173 0.0018670885 -0.0024431283 -0.00074712106 -0.0009086328 -0.00031682724 0.00023958985 0.0005361432 -0.00017392129 0.0016511894 0.0010823885 -0.0014527024 0.00015942067 0.0004937705 0.0016320446 0.0006956294 -0.0015889072 0.0009960395 0.0017848896 0.00056173455 -0.0015332648 -0.0024394863 0.0010286076 0.0020814477 -0.001803571 -0.001178713 -0.0012257058 -0.0023682746 -0.0013769395 -0.0011674259 0.00043119575 -0.0015876013 0.0021870537 0.0010940271 -0.0018613256 -0.0012861328 0.00101733 -0.00052808144 0.0010275581 0.0024927845 -0.00045731134 0.0001447288 0.0014283023 0.00093391334 -0.00055920007 -0.002285523 0.0017790713 -0.0014200348 0.0016236621 -0.00062254944 0.0011448032 0.000516733 -9.587693e-05 0.0011320508 0.0003702507 0.00057928875 -6.802736e-05 0.0021418817 0.0020353592 -0.0023774717 -0.0023550936 -9.5816664e-05 -0.0021052356 0.0016011832 -0.00032921397 -0.0022313206 0.0006414437 -0.0016973813 -0.0022621967 0.0024447613 0.0007669198 -0.0012779582 -0.0013008884 0.00032393396 0.001303104 -0.00037988168 -0.001953816 0.0011153137 0.0013652763 0.0013880653 -0.00024052852 0.0016597097 -0.0010963117 0.0006756434 0.0017806739 2.4009936e-05 -0.00086620834 0.0015899852 0.0015744771 0.002064894 0.0024756447 0.001649717 0.0009272064 0.0014581084 0.00038094117 -0.0011045858 -0.0018769903 0.002283071 0.0008243675 -0.00021666329 0.0014705115 0.00023660164 0.0013175845 0.0007345842 0.0006717207 -0.0020763474 -0.0013035195 0.0014905236 0.0009958794 0.0009847914 -8.456179e-05 0.0018626804 0.0017341073 -0.0010815875 0.0023515164 0.0008367034 0.0016878176 0.0020701266 0.0015273016 0.00032701227 -0.002420991 -0.0008884024 -0.0005148183 -0.00048965216 -0.0016496223 -0.0011896349 0.00026601393 0.00067581394 0.00014788409 0.0024680991 -3.5609948e-05 -0.0020370781 7.733189e-05 -0.0001832597 0.0004596091 0.0021185721 0.0024219176 -0.0010807208 0.0015960588 0.0011580214 -0.0014948884 0.0009647096 -0.00074985815 0.002193948 -0.00080056954 0.0010102282 0.001409983 -0.0008258737 0.0019462229 -0.0009977954 -0.0006121581 -0.0020229605 0.00037132468 -0.002264954 -0.0008714079 0.0020407506 -0.0007571046 8.3799954e-05 -0.0024804394 0.0014175737 0.0012699517 -0.0016330592 -0.0004939139 -0.0006996204 -0.002011332 -0.0019715754 -0.0013495515 0.0006934191 -0.0015517703 0.0020840482 -0.00097061566 0.00185208 2.6531568e-05 -0.0008686991 -0.0006275452 -0.00066631933 -0.0018330062 0.0021146624 0.00071061455 -0.0021161495 0.0012653745 -0.0022568323 6.7334445e-06 8.209238e-05 -0.0011275347 0.0003325043 -0.0015051063 -0.00066257064
wiki -0.000586191 -0.0008543607 -0.001714248 0.00018569977 0.0011118196 0.00090600166 0.0024051354 0.00089022535 0.0008680287 0.0014793107 -0.00035122634 0.0006780036 0.0012887946 0.0015839379 0.0007081599 -0.00032137494 0.001511893 -0.0019250009 0.0025044237 -0.0019218893 0.0013557541 -0.0010954894 0.00088373944 -0.0016813619 -0.0019340354 -0.0015530637 0.0015602853 0.0005449034 -0.0008877818 0.0016033907 0.0019724718 0.00019502582 -0.0009886815 0.0014122635 -0.00095088716 -0.0021585915 0.0014624082 0.0012292573 0.0010958795 0.0017793766 0.0016378474 -0.001360172 -0.0023585146 0.0015441903 -0.0023068972 0.0020517274 -0.00247549 0.0010925386 -0.0022130772 -0.0019421559 0.00022055756 0.002382291 -0.0017071583 0.0008301462 0.0021792732 -0.0005938313 -0.00020158023 -0.00042261777 0.00017133182 0.001846161 0.000115646355 0.0011561841 0.0019604538 -0.0018422322 -0.00068357453 -0.001664406 -0.0024364367 0.0002379237 -0.0005234031 -0.002267555 -0.0012180748 -0.0014006791 0.0017080869 0.0017571246 -0.00057976216 -0.00052285567 -0.0016106489 -0.00087567855 0.0010810506 0.00066363654 0.0021620658 -0.0024512776 1.9762449e-05 -0.0024108363 0.002357812 0.00043480363 0.0016870842 0.0016094261 0.0023580578 -0.0010859343 0.0002386339 -0.0010556246 0.0014822392 0.0023143815 -0.0018170445 0.0014577499 -9.6751435e-05 -0.0011354178 0.000878374 0.002334403 0.0018128314 -0.0018220347 -0.0017953679 0.0018268496 -0.0020538163 0.0018694141 0.0012088101 0.0012633728 -0.0017296944 -0.0012947235 -0.0013505738 0.0017780175 0.001893552 -0.0024092172 0.00035365403 0.0017350145 -0.00020939035 -0.0013396896 -0.00037919488 0.0018944864 0.0020936069 8.861843e-05 0.0017216163 -0.0022670254 -0.00214465 0.0002572335 -0.0023336736 -0.0024891794 0.0008376782 0.0024935408 0.0002375549 -0.0021343052 0.0019756178 0.0022584347 0.0012536098 0.0018636694 -0.0007458281 0.0007795317 0.00090648 -0.0008160245 0.0014354689 -0.00036909943 0.0016477559 0.0011152418 -0.002265816 0.00070787524 -0.0011823395 -0.0024833668 0.001649983 -0.0021386999 0.0016605792 -0.0021891617 -0.0012360953 -0.0008591052 -0.0015099855 -0.00064054574 -0.0007082017 -0.0003053742 -0.0008386045 -0.00049800286 0.0019393929 -0.00030136073 -0.0015679729 0.0013062749 -0.0016258499 -0.0013530588 0.0023904804 -0.00013475142 -0.0007833875 0.0014686993 -0.0009944362 -0.00072999945 -0.0011245718 -0.0010662498 0.00023271513 -0.00075387774 0.0005632227 0.00083935616 -0.00044752032 -0.0018352871 0.00019259221 -0.0008047516 -0.0012612566 -0.001789029 0.0011105934 0.0017567513 -0.0017778366 -0.00036741162 0.0011705826 -0.0012657294 0.0007711547 0.00051277457 0.0017343906 0.002306509 0.0007433052 -0.0024129807 0.00057916605 -0.0003092768 -0.0015986837 -0.000510305
kesi -0.0014923248 0.0003787233 0.0023022129 0.0022407894 -0.0013690958 -0.0019640597 -0.0021272595 0.0018136317 -0.0005299241 -0.0014058177 0.00035688147 0.0004263573 0.0020531416 0.0018788709 0.00018919827 0.0017537142 -0.00017324167 -0.0002450957 -0.0009365826 0.0012951473 -0.0010260693 0.0024255437 -0.0011972977 -0.0018088678 -0.0010325455 9.750914e-05 -0.002495368 0.00095332187 -0.001821454 0.0015407391 0.0020404246 -0.0013776877 0.0005147975 -0.0006716106 0.002031355 0.0019026404 -0.0023679445 0.00018613342 0.0018163136 -6.11311e-05 -0.0010952351 -0.0002803806 -0.0014163925 -0.0013222955 0.0023997526 0.0023188358 0.002146748 -0.0023847355 -0.00087515183 9.557768e-05 -0.0010343475 -0.0013111947 -0.00063421496 -0.0005705036 0.0020199874 0.0008782413 -0.0008592048 0.00069454254 8.047222e-05 -0.0009180119 -0.00201974 0.0013991751 0.0012976527 -0.002261171 0.00046362312 -0.0009725444 -0.00049719436 -0.00036806447 -0.00087154034 -0.0018314243 0.000962425 -0.00073164 0.00084012037 0.0011968691 0.0022068224 -0.0022671502 -0.00091123284 0.0006849505 -0.0017761419 0.0013371089 0.00010616782 0.0006803974 -0.0023937114 -0.0008657988 -0.0021273613 -0.0011085185 0.0020802498 -0.0012409735 0.00021307313 -0.0016345099 -0.0023184381 0.0016071522 -0.001514351 -0.0008275375 0.0007737359 -0.0005052489 -0.0008381324 0.0014892478 0.0017497811 0.00077103806 0.0016934721 -0.001122283 -0.0016848362 -0.00206338 -0.0023601938 -0.00075822155 -0.001777386 -0.0018956368 0.00081515056 -0.0011909225 -0.0015157588 0.0005831515 0.0020215854 -0.0004007642 0.0016527274 0.0018167943 -0.0015362968 0.00085332885 -0.0016480531 -0.0015512087 0.0015576071 -0.001957646 0.001009059 -0.0016738815 -0.002423329 0.00050908077 0.0024501295 0.0006970977 0.001276929 -0.0007773496 0.00030912345 -0.0011659276 -5.466071e-05 0.0024105534 -0.0021653243 -0.0025450299 0.00057077047 0.0012425312 0.00025328397 0.00019865239 -0.0011652502 -0.00027267318 0.0014794812 0.0023915663 0.0010599254 0.0021851922 0.0013837096 -0.00015070719 -0.0016298702 0.0015882779 -0.0019633847 0.0007610608 -0.0014942132 0.0020844054 0.0008374079 0.0016596674 0.0015801648 -0.0010829159 0.0009767843 0.001580208 0.00228751 0.0014767343 0.0019144268 -0.0012249236 -0.0020415594 -0.0007112699 0.0009626636 0.0011870762 -0.002163697 0.001930595 0.0015136957 -0.00038142735 -0.0019334009 0.002060048 0.0014496983 -0.0024491716 -0.0018687453 0.00010464296 0.0003951049 0.0017931588 -0.0019275487 -0.0025037471 0.0003189099 0.0017043874 0.002432227 0.0011593625 0.001662914 0.00022435651 -0.0012999254 0.002361125 -0.00034490164 0.00046100232 0.0004334948 0.0008440293 0.00053840526 -7.624659e-05 0.0010290518 0.0013222374 -0.001983918 -0.0017392848
serikali -0.001312193 -0.002012495 -0.0018920997 0.0017601777 0.0014256997 -0.00034922548 -0.0009839874 -0.002217755 0.0019984713 0.00019108219 -0.0023221404 -0.0014969875 0.0009720041 -0.0016760697 -0.0024608744 -0.00086115196 -0.0013027249 -0.0019534174 0.0021165267 -0.0014979704 0.00041868436 -0.00070746255 0.0009934523 0.0024848331 8.3363855e-05 -0.0009830279 0.0003729131 -0.0012151025 0.0016010217 -0.00022597505 0.00041712323 0.0011496746 -0.0012728315 0.00053949846 -0.0007249861 -0.0021309215 0.0016010635 -0.00039728882 9.392129e-05 -5.2731786e-05 0.0009638455 -0.0013304164 -0.0007446658 0.00064154656 -0.0022461144 -0.002267926 -0.0010013393 -0.0024488682 0.002358246 -0.0016942082 0.0009116752 8.500392e-05 0.0015855143 -0.0013616413 0.0020605712 0.0017665785 0.0018146089 -0.0016569031 0.0011252108 -0.00011678194 0.0009818787 0.001571646 0.0024943412 0.0014769026 -0.0011373841 0.0021220658 -0.0018599345 0.00016455419 0.0007086209 0.0020738754 0.0008629681 -0.0017024432 -0.001923815 0.00021258934 0.0014336668 0.00060491887 0.0016033859 0.000705387 -0.00028392076 -0.00032521778 -0.0015829653 0.0024203113 -0.0010707008 -0.001177121 -0.001932037 -0.0016866783 0.0006434842 0.000114218456 0.0017786699 -0.00043411067 -0.00030544485 0.0007115152 0.0015448147 -0.0020254315 0.0011433482 0.0013858646 7.800984e-05 -0.00011475524 0.0001284249 -0.0019158488 0.0022110248 0.0007794082 0.00067431986 -0.0010176942 0.00071761094 -0.0011049103 -0.0023747955 -0.0017315256 0.0024112044 0.0022925918 -0.0016753554 0.0011100866 0.0021393388 -0.0015473937 0.0015328134 -0.00019457305 0.0012314722 -0.0015655753 0.00044253035 -0.001361697 -0.0023229427 0.0010409937 0.0015564611 -0.0005054617 0.0004932644 0.00031561762 -0.0008338578 -0.00011635982 0.00019112817 -0.00013501708 -0.00052249635 -0.0004067192 -0.0023949272 0.0022808458 -0.00015082712 -0.0010787586 0.00051944895 -0.0019009617 -0.0013724059 0.0019444084 -0.0017326043 0.0024353445 -0.0024143504 0.0011787504 0.0026357356 -0.0009810448 0.0014240374 -0.0023233565 0.00013729137 -0.0023709054 -0.0002847664 -0.0015058599 -0.0012957111 0.0016363998 -0.0010715758 -0.00087179476 -0.0014331306 -0.0014350527 -3.3168464e-05 -0.0015403577 0.0012254688 -0.0021268195 0.0025564183 -0.0009957773 -0.0013155212 0.0011874721 -0.0015090189 0.0014962966 -0.00014327957 -0.0018992989 -0.0021574902 0.0012555259 -0.0020074088 -0.001997507 0.001872742 -0.00037014537 -0.00017517488 0.0011784679 0.001943642 -0.001401132 -0.00235173 -0.0015921594 0.0005877509 9.007572e-05 0.00031967473 0.0010941307 -9.917081e-05 -0.0009820603 -0.001425321 -0.0002947241 -0.001061788 0.0021210168 -0.0004154449 -0.00021415584 0.0001638861 0.0004998047 0.00032018533 0.00012703595 0.0017526415 -0.0016713728
gezaulole 0.0004966895 0.0020901735 0.0009478886 -0.0016585432 0.0018455238 0.0004468093 -0.00036023036 0.002034368 0.0012613357 -0.00066145253 0.0012938706 0.0023567912 -0.0018730566 -0.002488493 -0.0021312782 0.001133238 0.0020032155 -0.0008537231 -0.00198951 -0.0014845958 0.0021083697 0.000473255 0.0014468576 -0.0021209994 -0.0012407183 0.0010101299 0.0017648677 -0.0016742857 -0.0022154124 -0.00047854573 0.0016208027 0.0012080048 0.0004415219 -9.6518765e-05 -0.0015171214 -0.0017426352 -0.0012108949 -0.0023272806 -0.0016175662 0.00053482177 0.0012451024 0.0013084728 0.0006695761 -0.00087224133 -0.00053722836 -0.002179379 0.002478533 0.00054602936 0.001234185 0.002028444 -0.0011261895 -0.0002764728 0.0010208514 0.00060275086 -0.0013251987 -0.00059122144 0.00062975445 -0.0006057416 -0.0014540394 0.0002738424 -0.0020286702 -0.00024269981 0.00047510606 0.0006981049 -0.0023485618 3.351799e-05 -0.0018714168 0.0012054329 -0.001344986 -0.0013178438 -0.0011182599 -0.0011838941 -0.0017659193 -0.0009671619 -0.0016551573 -0.0015989874 0.0013926284 -0.0002105137 -0.0002625345 0.0009969532 -0.0011869927 -0.0017597257 0.00029702755 0.00018061734 -0.00051728834 -0.002106786 -0.0010821566 -0.0015260869 0.000738515 -0.0007290994 -0.0015797036 0.00028561123 -0.0008809153 0.0019996578 -8.41252e-05 3.8437163e-05 0.0022967428 0.001528071 -0.0019842675 -0.0025148056 0.0019187025 0.0022047819 0.0020054956 0.000436838 0.00047348568 0.0009840957 -0.0006567467 -0.0022338072 0.0008148514 0.001373854 0.0010269226 0.00034847588 0.00019059828 -0.0013013066 -0.0011969559 -0.00049691886 -0.0010228427 -0.0019612086 -8.008464e-05 0.00095057837 -0.0003141284 0.0019515736 -0.00028627252 0.0019565187 0.0014299211 0.0019437566 0.00017660175 0.00023732996 -0.0025813298 -0.00071865064 -0.00090112886 0.0022223352 -0.00049989426 0.0014012934 0.0023902534 0.0017526816 -0.0010703258 -0.0016916174 -0.0009377552 0.0007326272 -0.0022524951 -0.00021836972 -0.00086972315 0.0011394492 0.0025492692 0.0016294279 0.0020323638 0.0011344486 8.886386e-05 0.00044514204 -0.0008537626 0.0021278637 0.0015273127 0.00046339232 0.0009175344 5.5540735e-05 -0.0023416765 -0.0016690737 0.0024816692 0.0016556004 -0.0014557517 -0.002232478 -0.00034208308 0.0012878859 0.00055594364 -4.4998196e-05 0.0019866324 0.00030981642 -0.001418064 0.0023332457 0.0012240796 -0.0015463972 0.00071504083 0.0014651882 0.0019187091 0.0015371372 -0.0013438511 -0.0018041807 0.0017696243 0.0019961537 7.399212e-05 -0.0023846356 -0.002013365 0.0017462972 -0.0010881588 0.0019539052 0.0019255702 -0.0003422368 0.00063554547 0.001616771 -0.0025049371 -0.0011903195 0.00018171698 0.0007899048 -0.0002807063 0.0012539345 0.0021564155 -0.00041738234 0.00070995133 -0.00094108033
